\data\
ngram 1=54
ngram 2=430
ngram 3=2520
ngram 4=10214
ngram 5=30650

\1-grams:
-2.4885125	<unk>	0
0	<s>	-3.7403626
-2.0428243	</s>	0
-2.3555782	BIN	-0.30103
-2.0428243	GREEN	-0.42596874
-2.0428243	WITH	-0.42596874
-2.0428243	Y	-0.42596874
-1.237335	EIGHT	-1.2218487
-1.6379988	PLEASE	-0.8239087
-2.3555782	SET	-0.30103
-2.0428243	J	-0.42596874
-1.237335	SIX	-1.2218487
-2.3555782	PLACE	-0.30103
-2.0428243	AT	-0.42596874
-1.237335	THREE	-1.2218487
-1.6379988	AGAIN	-0.8239087
-2.0428243	BY	-0.42596874
-2.0428243	R	-0.42596874
-1.237335	SEVEN	-1.2218487
-1.6379988	SOON	-0.8239087
-2.0428243	BLUE	-0.42596874
-2.0428243	Q	-0.42596874
-1.237335	FOUR	-1.2218487
-2.3555782	LAY	-0.30103
-2.0428243	RED	-0.42596874
-2.0428243	IN	-0.42596874
-2.0428243	C	-0.42596874
-1.6379988	NOW	-0.8239087
-2.0428243	P	-0.42596874
-1.237335	FIVE	-1.2218487
-2.0428243	K	-0.42596874
-2.0428243	G	-0.42596874
-2.0428243	M	-0.42596874
-1.237335	ZERO	-1.2218487
-2.0428243	WHITE	-0.42596874
-2.0428243	N	-0.42596874
-2.0428243	F	-0.42596874
-2.0428243	A	-0.42596874
-1.237335	ONE	-1.2218487
-2.0428243	B	-0.42596874
-2.0428243	I	-0.42596874
-1.237335	TWO	-1.2218487
-2.0428243	D	-0.42596874
-2.0428243	Z	-0.42596874
-1.237335	NINE	-1.2218487
-2.0428243	S	-0.42596874
-2.0428243	V	-0.42596874
-2.0428243	U	-0.42596874
-2.0428243	H	-0.42596874
-2.0428243	L	-0.42596874
-2.0428243	E	-0.42596874
-2.0428243	T	-0.42596874
-2.0428243	O	-0.42596874
-2.0428243	X	-0.42596874

\2-grams:
-0.06988717	PLEASE </s>	0
-0.06988717	AGAIN </s>	0
-0.06988717	SOON </s>	0
-0.06988717	NOW </s>	0
-0.60461926	<s> BIN	-3.1358213
-0.88762796	BIN GREEN	-0.30103
-0.88762796	SET GREEN	-0.30103
-0.88762796	PLACE GREEN	-0.30103
-0.88762796	LAY GREEN	-0.30103
-0.79683685	GREEN WITH	-0.30103
-0.79683685	BLUE WITH	-0.30103
-0.79683685	RED WITH	-0.30103
-0.79683685	WHITE WITH	-0.30103
-1.5467142	WITH Y	-0.42596874
-1.5467142	AT Y	-0.42596874
-1.5467142	BY Y	-0.42596874
-1.5467142	IN Y	-0.42596874
-1.0746269	Y EIGHT	-0.42596874
-1.0746269	J EIGHT	-0.42596874
-1.0746269	R EIGHT	-0.42596874
-1.0746269	Q EIGHT	-0.42596874
-1.0746269	C EIGHT	-0.42596874
-1.0746269	P EIGHT	-0.42596874
-1.0746269	K EIGHT	-0.42596874
-1.0746269	G EIGHT	-0.42596874
-1.0746269	M EIGHT	-0.42596874
-1.0746269	N EIGHT	-0.42596874
-1.0746269	F EIGHT	-0.42596874
-1.0746269	A EIGHT	-0.42596874
-1.0746269	B EIGHT	-0.42596874
-1.0746269	I EIGHT	-0.42596874
-1.0746269	D EIGHT	-0.42596874
-1.0746269	Z EIGHT	-0.42596874
-1.0746269	S EIGHT	-0.42596874
-1.0746269	V EIGHT	-0.42596874
-1.0746269	U EIGHT	-0.42596874
-1.0746269	H EIGHT	-0.42596874
-1.0746269	L EIGHT	-0.42596874
-1.0746269	E EIGHT	-0.42596874
-1.0746269	T EIGHT	-0.42596874
-1.0746269	O EIGHT	-0.42596874
-1.0746269	X EIGHT	-0.42596874
-0.62638766	EIGHT PLEASE	-1.2218487
-0.62638766	SIX PLEASE	-1.2218487
-0.62638766	THREE PLEASE	-1.2218487
-0.62638766	SEVEN PLEASE	-1.2218487
-0.62638766	FOUR PLEASE	-1.2218487
-0.62638766	FIVE PLEASE	-1.2218487
-0.62638766	ZERO PLEASE	-1.2218487
-0.62638766	ONE PLEASE	-1.2218487
-0.62638766	TWO PLEASE	-1.2218487
-0.62638766	NINE PLEASE	-1.2218487
-0.60989344	<s> SET	-3.1305482
-1.5467142	WITH J	-0.42596874
-1.5467142	AT J	-0.42596874
-1.5467142	BY J	-0.42596874
-1.5467142	IN J	-0.42596874
-1.0746269	Y SIX	-0.42596874
-1.0746269	J SIX	-0.42596874
-1.0746269	R SIX	-0.42596874
-1.0746269	Q SIX	-0.42596874
-1.0746269	C SIX	-0.42596874
-1.0746269	P SIX	-0.42596874
-1.0746269	K SIX	-0.42596874
-1.0746269	G SIX	-0.42596874
-1.0746269	M SIX	-0.42596874
-1.0746269	N SIX	-0.42596874
-1.0746269	F SIX	-0.42596874
-1.0746269	A SIX	-0.42596874
-1.0746269	B SIX	-0.42596874
-1.0746269	I SIX	-0.42596874
-1.0746269	D SIX	-0.42596874
-1.0746269	Z SIX	-0.42596874
-1.0746269	S SIX	-0.42596874
-1.0746269	V SIX	-0.42596874
-1.0746269	U SIX	-0.42596874
-1.0746269	H SIX	-0.42596874
-1.0746269	L SIX	-0.42596874
-1.0746269	E SIX	-0.42596874
-1.0746269	T SIX	-0.42596874
-1.0746269	O SIX	-0.42596874
-1.0746269	X SIX	-0.42596874
-0.6003511	<s> PLACE	-3.1400888
-0.79683685	GREEN AT	-0.30103
-0.79683685	BLUE AT	-0.30103
-0.79683685	RED AT	-0.30103
-0.79683685	WHITE AT	-0.30103
-1.0746269	Y THREE	-0.42596874
-1.0746269	J THREE	-0.42596874
-1.0746269	R THREE	-0.42596874
-1.0746269	Q THREE	-0.42596874
-1.0746269	C THREE	-0.42596874
-1.0746269	P THREE	-0.42596874
-1.0746269	K THREE	-0.42596874
-1.0746269	G THREE	-0.42596874
-1.0746269	M THREE	-0.42596874
-1.0746269	N THREE	-0.42596874
-1.0746269	F THREE	-0.42596874
-1.0746269	A THREE	-0.42596874
-1.0746269	B THREE	-0.42596874
-1.0746269	I THREE	-0.42596874
-1.0746269	D THREE	-0.42596874
-1.0746269	Z THREE	-0.42596874
-1.0746269	S THREE	-0.42596874
-1.0746269	V THREE	-0.42596874
-1.0746269	U THREE	-0.42596874
-1.0746269	H THREE	-0.42596874
-1.0746269	L THREE	-0.42596874
-1.0746269	E THREE	-0.42596874
-1.0746269	T THREE	-0.42596874
-1.0746269	O THREE	-0.42596874
-1.0746269	X THREE	-0.42596874
-0.62638766	EIGHT AGAIN	-1.2218487
-0.62638766	SIX AGAIN	-1.2218487
-0.62638766	THREE AGAIN	-1.2218487
-0.62638766	SEVEN AGAIN	-1.2218487
-0.62638766	FOUR AGAIN	-1.2218487
-0.62638766	FIVE AGAIN	-1.2218487
-0.62638766	ZERO AGAIN	-1.2218487
-0.62638766	ONE AGAIN	-1.2218487
-0.62638766	TWO AGAIN	-1.2218487
-0.62638766	NINE AGAIN	-1.2218487
-0.79683685	GREEN BY	-0.30103
-0.79683685	BLUE BY	-0.30103
-0.79683685	RED BY	-0.30103
-0.79683685	WHITE BY	-0.30103
-1.5467142	WITH R	-0.42596874
-1.5467142	AT R	-0.42596874
-1.5467142	BY R	-0.42596874
-1.5467142	IN R	-0.42596874
-1.0746269	Y SEVEN	-0.42596874
-1.0746269	J SEVEN	-0.42596874
-1.0746269	R SEVEN	-0.42596874
-1.0746269	Q SEVEN	-0.42596874
-1.0746269	C SEVEN	-0.42596874
-1.0746269	P SEVEN	-0.42596874
-1.0746269	K SEVEN	-0.42596874
-1.0746269	G SEVEN	-0.42596874
-1.0746269	M SEVEN	-0.42596874
-1.0746269	N SEVEN	-0.42596874
-1.0746269	F SEVEN	-0.42596874
-1.0746269	A SEVEN	-0.42596874
-1.0746269	B SEVEN	-0.42596874
-1.0746269	I SEVEN	-0.42596874
-1.0746269	D SEVEN	-0.42596874
-1.0746269	Z SEVEN	-0.42596874
-1.0746269	S SEVEN	-0.42596874
-1.0746269	V SEVEN	-0.42596874
-1.0746269	U SEVEN	-0.42596874
-1.0746269	H SEVEN	-0.42596874
-1.0746269	L SEVEN	-0.42596874
-1.0746269	E SEVEN	-0.42596874
-1.0746269	T SEVEN	-0.42596874
-1.0746269	O SEVEN	-0.42596874
-1.0746269	X SEVEN	-0.42596874
-0.62638766	EIGHT SOON	-1.2218487
-0.62638766	SIX SOON	-1.2218487
-0.62638766	THREE SOON	-1.2218487
-0.62638766	SEVEN SOON	-1.2218487
-0.62638766	FOUR SOON	-1.2218487
-0.62638766	FIVE SOON	-1.2218487
-0.62638766	ZERO SOON	-1.2218487
-0.62638766	ONE SOON	-1.2218487
-0.62638766	TWO SOON	-1.2218487
-0.62638766	NINE SOON	-1.2218487
-0.88762796	BIN BLUE	-0.30103
-0.88762796	SET BLUE	-0.30103
-0.88762796	PLACE BLUE	-0.30103
-0.88762796	LAY BLUE	-0.30103
-1.5467142	WITH Q	-0.42596874
-1.5467142	AT Q	-0.42596874
-1.5467142	BY Q	-0.42596874
-1.5467142	IN Q	-0.42596874
-1.0746269	Y FOUR	-0.42596874
-1.0746269	J FOUR	-0.42596874
-1.0746269	R FOUR	-0.42596874
-1.0746269	Q FOUR	-0.42596874
-1.0746269	C FOUR	-0.42596874
-1.0746269	P FOUR	-0.42596874
-1.0746269	K FOUR	-0.42596874
-1.0746269	G FOUR	-0.42596874
-1.0746269	M FOUR	-0.42596874
-1.0746269	N FOUR	-0.42596874
-1.0746269	F FOUR	-0.42596874
-1.0746269	A FOUR	-0.42596874
-1.0746269	B FOUR	-0.42596874
-1.0746269	I FOUR	-0.42596874
-1.0746269	D FOUR	-0.42596874
-1.0746269	Z FOUR	-0.42596874
-1.0746269	S FOUR	-0.42596874
-1.0746269	V FOUR	-0.42596874
-1.0746269	U FOUR	-0.42596874
-1.0746269	H FOUR	-0.42596874
-1.0746269	L FOUR	-0.42596874
-1.0746269	E FOUR	-0.42596874
-1.0746269	T FOUR	-0.42596874
-1.0746269	O FOUR	-0.42596874
-1.0746269	X FOUR	-0.42596874
-0.5938457	<s> LAY	-3.146593
-0.88762796	BIN RED	-0.30103
-0.88762796	SET RED	-0.30103
-0.88762796	PLACE RED	-0.30103
-0.88762796	LAY RED	-0.30103
-0.79683685	GREEN IN	-0.30103
-0.79683685	BLUE IN	-0.30103
-0.79683685	RED IN	-0.30103
-0.79683685	WHITE IN	-0.30103
-1.5467142	WITH C	-0.42596874
-1.5467142	AT C	-0.42596874
-1.5467142	BY C	-0.42596874
-1.5467142	IN C	-0.42596874
-0.62638766	EIGHT NOW	-1.2218487
-0.62638766	SIX NOW	-1.2218487
-0.62638766	THREE NOW	-1.2218487
-0.62638766	SEVEN NOW	-1.2218487
-0.62638766	FOUR NOW	-1.2218487
-0.62638766	FIVE NOW	-1.2218487
-0.62638766	ZERO NOW	-1.2218487
-0.62638766	ONE NOW	-1.2218487
-0.62638766	TWO NOW	-1.2218487
-0.62638766	NINE NOW	-1.2218487
-1.5467142	WITH P	-0.42596874
-1.5467142	AT P	-0.42596874
-1.5467142	BY P	-0.42596874
-1.5467142	IN P	-0.42596874
-1.0746269	Y FIVE	-0.42596874
-1.0746269	J FIVE	-0.42596874
-1.0746269	R FIVE	-0.42596874
-1.0746269	Q FIVE	-0.42596874
-1.0746269	C FIVE	-0.42596874
-1.0746269	P FIVE	-0.42596874
-1.0746269	K FIVE	-0.42596874
-1.0746269	G FIVE	-0.42596874
-1.0746269	M FIVE	-0.42596874
-1.0746269	N FIVE	-0.42596874
-1.0746269	F FIVE	-0.42596874
-1.0746269	A FIVE	-0.42596874
-1.0746269	B FIVE	-0.42596874
-1.0746269	I FIVE	-0.42596874
-1.0746269	D FIVE	-0.42596874
-1.0746269	Z FIVE	-0.42596874
-1.0746269	S FIVE	-0.42596874
-1.0746269	V FIVE	-0.42596874
-1.0746269	U FIVE	-0.42596874
-1.0746269	H FIVE	-0.42596874
-1.0746269	L FIVE	-0.42596874
-1.0746269	E FIVE	-0.42596874
-1.0746269	T FIVE	-0.42596874
-1.0746269	O FIVE	-0.42596874
-1.0746269	X FIVE	-0.42596874
-1.5467142	WITH K	-0.42596874
-1.5467142	AT K	-0.42596874
-1.5467142	BY K	-0.42596874
-1.5467142	IN K	-0.42596874
-1.5467142	WITH G	-0.42596874
-1.5467142	AT G	-0.42596874
-1.5467142	BY G	-0.42596874
-1.5467142	IN G	-0.42596874
-1.5467142	WITH M	-0.42596874
-1.5467142	AT M	-0.42596874
-1.5467142	BY M	-0.42596874
-1.5467142	IN M	-0.42596874
-1.0746269	Y ZERO	-0.42596874
-1.0746269	J ZERO	-0.42596874
-1.0746269	R ZERO	-0.42596874
-1.0746269	Q ZERO	-0.42596874
-1.0746269	C ZERO	-0.42596874
-1.0746269	P ZERO	-0.42596874
-1.0746269	K ZERO	-0.42596874
-1.0746269	G ZERO	-0.42596874
-1.0746269	M ZERO	-0.42596874
-1.0746269	N ZERO	-0.42596874
-1.0746269	F ZERO	-0.42596874
-1.0746269	A ZERO	-0.42596874
-1.0746269	B ZERO	-0.42596874
-1.0746269	I ZERO	-0.42596874
-1.0746269	D ZERO	-0.42596874
-1.0746269	Z ZERO	-0.42596874
-1.0746269	S ZERO	-0.42596874
-1.0746269	V ZERO	-0.42596874
-1.0746269	U ZERO	-0.42596874
-1.0746269	H ZERO	-0.42596874
-1.0746269	L ZERO	-0.42596874
-1.0746269	E ZERO	-0.42596874
-1.0746269	T ZERO	-0.42596874
-1.0746269	O ZERO	-0.42596874
-1.0746269	X ZERO	-0.42596874
-0.88762796	BIN WHITE	-0.30103
-0.88762796	SET WHITE	-0.30103
-0.88762796	PLACE WHITE	-0.30103
-0.88762796	LAY WHITE	-0.30103
-1.5467142	WITH N	-0.42596874
-1.5467142	AT N	-0.42596874
-1.5467142	BY N	-0.42596874
-1.5467142	IN N	-0.42596874
-1.5467142	WITH F	-0.42596874
-1.5467142	AT F	-0.42596874
-1.5467142	BY F	-0.42596874
-1.5467142	IN F	-0.42596874
-1.5467142	WITH A	-0.42596874
-1.5467142	AT A	-0.42596874
-1.5467142	BY A	-0.42596874
-1.5467142	IN A	-0.42596874
-1.0746269	Y ONE	-0.42596874
-1.0746269	J ONE	-0.42596874
-1.0746269	R ONE	-0.42596874
-1.0746269	Q ONE	-0.42596874
-1.0746269	C ONE	-0.42596874
-1.0746269	P ONE	-0.42596874
-1.0746269	K ONE	-0.42596874
-1.0746269	G ONE	-0.42596874
-1.0746269	M ONE	-0.42596874
-1.0746269	N ONE	-0.42596874
-1.0746269	F ONE	-0.42596874
-1.0746269	A ONE	-0.42596874
-1.0746269	B ONE	-0.42596874
-1.0746269	I ONE	-0.42596874
-1.0746269	D ONE	-0.42596874
-1.0746269	Z ONE	-0.42596874
-1.0746269	S ONE	-0.42596874
-1.0746269	V ONE	-0.42596874
-1.0746269	U ONE	-0.42596874
-1.0746269	H ONE	-0.42596874
-1.0746269	L ONE	-0.42596874
-1.0746269	E ONE	-0.42596874
-1.0746269	T ONE	-0.42596874
-1.0746269	O ONE	-0.42596874
-1.0746269	X ONE	-0.42596874
-1.5467142	WITH B	-0.42596874
-1.5467142	AT B	-0.42596874
-1.5467142	BY B	-0.42596874
-1.5467142	IN B	-0.42596874
-1.5467142	WITH I	-0.42596874
-1.5467142	AT I	-0.42596874
-1.5467142	BY I	-0.42596874
-1.5467142	IN I	-0.42596874
-1.0746269	Y TWO	-0.42596874
-1.0746269	J TWO	-0.42596874
-1.0746269	R TWO	-0.42596874
-1.0746269	Q TWO	-0.42596874
-1.0746269	C TWO	-0.42596874
-1.0746269	P TWO	-0.42596874
-1.0746269	K TWO	-0.42596874
-1.0746269	G TWO	-0.42596874
-1.0746269	M TWO	-0.42596874
-1.0746269	N TWO	-0.42596874
-1.0746269	F TWO	-0.42596874
-1.0746269	A TWO	-0.42596874
-1.0746269	B TWO	-0.42596874
-1.0746269	I TWO	-0.42596874
-1.0746269	D TWO	-0.42596874
-1.0746269	Z TWO	-0.42596874
-1.0746269	S TWO	-0.42596874
-1.0746269	V TWO	-0.42596874
-1.0746269	U TWO	-0.42596874
-1.0746269	H TWO	-0.42596874
-1.0746269	L TWO	-0.42596874
-1.0746269	E TWO	-0.42596874
-1.0746269	T TWO	-0.42596874
-1.0746269	O TWO	-0.42596874
-1.0746269	X TWO	-0.42596874
-1.5467142	WITH D	-0.42596874
-1.5467142	AT D	-0.42596874
-1.5467142	BY D	-0.42596874
-1.5467142	IN D	-0.42596874
-1.5467142	WITH Z	-0.42596874
-1.5467142	AT Z	-0.42596874
-1.5467142	BY Z	-0.42596874
-1.5467142	IN Z	-0.42596874
-1.0746269	Y NINE	-0.42596874
-1.0746269	J NINE	-0.42596874
-1.0746269	R NINE	-0.42596874
-1.0746269	Q NINE	-0.42596874
-1.0746269	C NINE	-0.42596874
-1.0746269	P NINE	-0.42596874
-1.0746269	K NINE	-0.42596874
-1.0746269	G NINE	-0.42596874
-1.0746269	M NINE	-0.42596874
-1.0746269	N NINE	-0.42596874
-1.0746269	F NINE	-0.42596874
-1.0746269	A NINE	-0.42596874
-1.0746269	B NINE	-0.42596874
-1.0746269	I NINE	-0.42596874
-1.0746269	D NINE	-0.42596874
-1.0746269	Z NINE	-0.42596874
-1.0746269	S NINE	-0.42596874
-1.0746269	V NINE	-0.42596874
-1.0746269	U NINE	-0.42596874
-1.0746269	H NINE	-0.42596874
-1.0746269	L NINE	-0.42596874
-1.0746269	E NINE	-0.42596874
-1.0746269	T NINE	-0.42596874
-1.0746269	O NINE	-0.42596874
-1.0746269	X NINE	-0.42596874
-1.5467142	WITH S	-0.42596874
-1.5467142	AT S	-0.42596874
-1.5467142	BY S	-0.42596874
-1.5467142	IN S	-0.42596874
-1.5467142	WITH V	-0.42596874
-1.5467142	AT V	-0.42596874
-1.5467142	BY V	-0.42596874
-1.5467142	IN V	-0.42596874
-1.5467142	WITH U	-0.42596874
-1.5467142	AT U	-0.42596874
-1.5467142	BY U	-0.42596874
-1.5467142	IN U	-0.42596874
-1.5467142	WITH H	-0.42596874
-1.5467142	AT H	-0.42596874
-1.5467142	BY H	-0.42596874
-1.5467142	IN H	-0.42596874
-1.5467142	WITH L	-0.42596874
-1.5467142	AT L	-0.42596874
-1.5467142	BY L	-0.42596874
-1.5467142	IN L	-0.42596874
-1.5467142	WITH E	-0.42596874
-1.5467142	AT E	-0.42596874
-1.5467142	BY E	-0.42596874
-1.5467142	IN E	-0.42596874
-1.5467142	WITH T	-0.42596874
-1.5467142	AT T	-0.42596874
-1.5467142	BY T	-0.42596874
-1.5467142	IN T	-0.42596874
-1.5467142	WITH O	-0.42596874
-1.5467142	AT O	-0.42596874
-1.5467142	BY O	-0.42596874
-1.5467142	IN O	-0.42596874
-1.5467142	WITH X	-0.42596874
-1.5467142	AT X	-0.42596874
-1.5467142	BY X	-0.42596874
-1.5467142	IN X	-0.42596874

\3-grams:
-0.003890615	EIGHT PLEASE </s>	0
-0.003890615	SIX PLEASE </s>	0
-0.003890615	THREE PLEASE </s>	0
-0.003890615	SEVEN PLEASE </s>	0
-0.003890615	FOUR PLEASE </s>	0
-0.003890615	FIVE PLEASE </s>	0
-0.003890615	ZERO PLEASE </s>	0
-0.003890615	ONE PLEASE </s>	0
-0.003890615	TWO PLEASE </s>	0
-0.003890615	NINE PLEASE </s>	0
-0.003890615	EIGHT AGAIN </s>	0
-0.003890615	SIX AGAIN </s>	0
-0.003890615	THREE AGAIN </s>	0
-0.003890615	SEVEN AGAIN </s>	0
-0.003890615	FOUR AGAIN </s>	0
-0.003890615	FIVE AGAIN </s>	0
-0.003890615	ZERO AGAIN </s>	0
-0.003890615	ONE AGAIN </s>	0
-0.003890615	TWO AGAIN </s>	0
-0.003890615	NINE AGAIN </s>	0
-0.003890615	EIGHT SOON </s>	0
-0.003890615	SIX SOON </s>	0
-0.003890615	THREE SOON </s>	0
-0.003890615	SEVEN SOON </s>	0
-0.003890615	FOUR SOON </s>	0
-0.003890615	FIVE SOON </s>	0
-0.003890615	ZERO SOON </s>	0
-0.003890615	ONE SOON </s>	0
-0.003890615	TWO SOON </s>	0
-0.003890615	NINE SOON </s>	0
-0.003890615	EIGHT NOW </s>	0
-0.003890615	SIX NOW </s>	0
-0.003890615	THREE NOW </s>	0
-0.003890615	SEVEN NOW </s>	0
-0.003890615	FOUR NOW </s>	0
-0.003890615	FIVE NOW </s>	0
-0.003890615	ZERO NOW </s>	0
-0.003890615	ONE NOW </s>	0
-0.003890615	TWO NOW </s>	0
-0.003890615	NINE NOW </s>	0
-0.6074883	<s> BIN GREEN	-2.998256
-0.6007165	<s> SET GREEN	-2.999754
-0.59369487	<s> PLACE GREEN	-3.0163105
-0.6070409	<s> LAY GREEN	-3.0094712
-0.68861926	BIN GREEN WITH	-0.7284846
-0.68861926	SET GREEN WITH	-0.7284846
-0.68861926	PLACE GREEN WITH	-0.7284846
-0.68861926	LAY GREEN WITH	-0.7284846
-0.68861926	BIN BLUE WITH	-0.7284846
-0.68861926	SET BLUE WITH	-0.7284846
-0.68861926	PLACE BLUE WITH	-0.7284846
-0.68861926	LAY BLUE WITH	-0.7284846
-0.68861926	BIN RED WITH	-0.7284846
-0.68861926	SET RED WITH	-0.7284846
-0.68861926	PLACE RED WITH	-0.7284846
-0.68861926	LAY RED WITH	-0.7284846
-0.68861926	BIN WHITE WITH	-0.7284846
-0.68861926	SET WHITE WITH	-0.7284846
-0.68861926	PLACE WHITE WITH	-0.7284846
-0.68861926	LAY WHITE WITH	-0.7284846
-1.4555317	GREEN WITH Y	-0.30044883
-1.4519093	BLUE WITH Y	-0.42794025
-1.5514818	RED WITH Y	-0.079967335
-1.4555317	WHITE WITH Y	-0.42794025
-1.4555317	GREEN AT Y	-0.30044883
-1.4555317	BLUE AT Y	-0.18628871
-1.4555317	RED AT Y	-0.42794025
-1.4555317	WHITE AT Y	-0.18628871
-1.4555317	GREEN BY Y	-0.42794025
-1.4555317	BLUE BY Y	-0.42794025
-1.4555317	RED BY Y	-0.30044883
-1.4555317	WHITE BY Y	-0.18628871
-1.5514818	GREEN IN Y	-0.079967335
-1.4555317	BLUE IN Y	-0.18628871
-1.4555317	RED IN Y	-0.30044883
-1.4519093	WHITE IN Y	-0.42794025
-1.0265054	WITH Y EIGHT	-0.8957366
-1.0265054	AT Y EIGHT	-0.8957366
-1.0265054	BY Y EIGHT	-0.8957366
-1.0265054	IN Y EIGHT	-0.8957366
-1.0265054	WITH J EIGHT	-0.8957366
-1.0265054	AT J EIGHT	-0.8957366
-1.0265054	BY J EIGHT	-0.8957366
-1.0265054	IN J EIGHT	-0.8957366
-1.0265054	WITH R EIGHT	-0.8957366
-1.0265054	AT R EIGHT	-0.8957366
-1.0265054	BY R EIGHT	-0.8957366
-1.0265054	IN R EIGHT	-0.8957366
-1.0265054	WITH Q EIGHT	-0.8957366
-1.0265054	AT Q EIGHT	-0.8957366
-1.0265054	BY Q EIGHT	-0.8957366
-1.0265054	IN Q EIGHT	-0.8957366
-1.0265054	WITH C EIGHT	-0.8957366
-1.0265054	AT C EIGHT	-0.8957366
-1.0265054	BY C EIGHT	-0.8957366
-1.0265054	IN C EIGHT	-0.8957366
-1.0265054	WITH P EIGHT	-0.8957366
-1.0265054	AT P EIGHT	-0.8957366
-1.0265054	BY P EIGHT	-0.8957366
-1.0265054	IN P EIGHT	-0.8957366
-1.0265054	WITH K EIGHT	-0.8957366
-1.0265054	AT K EIGHT	-0.8957366
-1.0265054	BY K EIGHT	-0.8957366
-1.0265054	IN K EIGHT	-0.8957366
-1.0265054	WITH G EIGHT	-0.8957366
-1.0265054	AT G EIGHT	-0.8957366
-1.0265054	BY G EIGHT	-0.8957366
-1.0265054	IN G EIGHT	-0.8957366
-1.0265054	WITH M EIGHT	-0.8957366
-1.0265054	AT M EIGHT	-0.8957366
-1.0265054	BY M EIGHT	-0.8957366
-1.0265054	IN M EIGHT	-0.8957366
-1.0265054	WITH N EIGHT	-0.8957366
-1.0265054	AT N EIGHT	-0.8957366
-1.0265054	BY N EIGHT	-0.8957366
-1.0265054	IN N EIGHT	-0.8957366
-1.0265054	WITH F EIGHT	-0.8957366
-1.0265054	AT F EIGHT	-0.8957366
-1.0265054	BY F EIGHT	-0.8957366
-1.0265054	IN F EIGHT	-0.8957366
-1.0265054	WITH A EIGHT	-0.8957366
-1.0265054	AT A EIGHT	-0.8957366
-1.0265054	BY A EIGHT	-0.8957366
-1.0265054	IN A EIGHT	-0.8957366
-1.0265054	WITH B EIGHT	-0.8957366
-1.0265054	AT B EIGHT	-0.8957366
-1.0265054	BY B EIGHT	-0.8957366
-1.0265054	IN B EIGHT	-0.8957366
-1.0265054	WITH I EIGHT	-0.8957366
-1.0265054	AT I EIGHT	-0.8957366
-1.0265054	BY I EIGHT	-0.8957366
-1.0265054	IN I EIGHT	-0.8957366
-1.0265054	WITH D EIGHT	-0.8957366
-1.0265054	AT D EIGHT	-0.8957366
-1.0265054	BY D EIGHT	-0.8957366
-1.0265054	IN D EIGHT	-0.8957366
-1.0265054	WITH Z EIGHT	-0.8957366
-1.0265054	AT Z EIGHT	-0.8957366
-1.0265054	BY Z EIGHT	-0.8957366
-1.0265054	IN Z EIGHT	-0.8957366
-1.0265054	WITH S EIGHT	-0.8957366
-1.0265054	AT S EIGHT	-0.8957366
-1.0265054	BY S EIGHT	-0.8957366
-1.0265054	IN S EIGHT	-0.8957366
-1.0265054	WITH V EIGHT	-0.8957366
-1.0265054	AT V EIGHT	-0.8957366
-1.0265054	BY V EIGHT	-0.8957366
-1.0265054	IN V EIGHT	-0.8957366
-1.0265054	WITH U EIGHT	-0.8957366
-1.0265054	AT U EIGHT	-0.8957366
-1.0265054	BY U EIGHT	-0.8957366
-1.0265054	IN U EIGHT	-0.8957366
-1.0265054	WITH H EIGHT	-0.8957366
-1.0265054	AT H EIGHT	-0.8957366
-1.0265054	BY H EIGHT	-0.8957366
-1.0265054	IN H EIGHT	-0.8957366
-1.0265054	WITH L EIGHT	-0.8957366
-1.0265054	AT L EIGHT	-0.8957366
-1.0265054	BY L EIGHT	-0.8957366
-1.0265054	IN L EIGHT	-0.8957366
-1.0265054	WITH E EIGHT	-0.8957366
-1.0265054	AT E EIGHT	-0.8957366
-1.0265054	BY E EIGHT	-0.8957366
-1.0265054	IN E EIGHT	-0.8957366
-1.0265054	WITH T EIGHT	-0.8957366
-1.0265054	AT T EIGHT	-0.8957366
-1.0265054	BY T EIGHT	-0.8957366
-1.0265054	IN T EIGHT	-0.8957366
-1.0265054	WITH O EIGHT	-0.8957366
-1.0265054	AT O EIGHT	-0.8957366
-1.0265054	BY O EIGHT	-0.8957366
-1.0265054	IN O EIGHT	-0.8957366
-1.0265054	WITH X EIGHT	-0.8957366
-1.0265054	AT X EIGHT	-0.8957366
-1.0265054	BY X EIGHT	-0.8957366
-1.0265054	IN X EIGHT	-0.8957366
-0.6110239	Y EIGHT PLEASE	-0.8957366
-0.6110239	J EIGHT PLEASE	-0.8957366
-0.6110239	R EIGHT PLEASE	-0.8957366
-0.6110239	Q EIGHT PLEASE	-0.8957366
-0.6110239	C EIGHT PLEASE	-0.8957366
-0.6110239	P EIGHT PLEASE	-0.8957366
-0.6110239	K EIGHT PLEASE	-0.8957366
-0.6110239	G EIGHT PLEASE	-0.8957366
-0.6110239	M EIGHT PLEASE	-0.8957366
-0.6110239	N EIGHT PLEASE	-0.8957366
-0.6110239	F EIGHT PLEASE	-0.8957366
-0.6110239	A EIGHT PLEASE	-0.8957366
-0.6110239	B EIGHT PLEASE	-0.8957366
-0.6110239	I EIGHT PLEASE	-0.8957366
-0.6110239	D EIGHT PLEASE	-0.8957366
-0.6110239	Z EIGHT PLEASE	-0.8957366
-0.6110239	S EIGHT PLEASE	-0.8957366
-0.6110239	V EIGHT PLEASE	-0.8957366
-0.6110239	U EIGHT PLEASE	-0.8957366
-0.6110239	H EIGHT PLEASE	-0.8957366
-0.6110239	L EIGHT PLEASE	-0.8957366
-0.6110239	E EIGHT PLEASE	-0.8957366
-0.6110239	T EIGHT PLEASE	-0.8957366
-0.6110239	O EIGHT PLEASE	-0.8957366
-0.6110239	X EIGHT PLEASE	-0.8957366
-0.6110239	Y SIX PLEASE	-0.8957366
-0.6110239	J SIX PLEASE	-0.8957366
-0.6110239	R SIX PLEASE	-0.8957366
-0.6110239	Q SIX PLEASE	-0.8957366
-0.6110239	C SIX PLEASE	-0.8957366
-0.6110239	P SIX PLEASE	-0.8957366
-0.6110239	K SIX PLEASE	-0.8957366
-0.6110239	G SIX PLEASE	-0.8957366
-0.6110239	M SIX PLEASE	-0.8957366
-0.6110239	N SIX PLEASE	-0.8957366
-0.6110239	F SIX PLEASE	-0.8957366
-0.6110239	A SIX PLEASE	-0.8957366
-0.6110239	B SIX PLEASE	-0.8957366
-0.6110239	I SIX PLEASE	-0.8957366
-0.6110239	D SIX PLEASE	-0.8957366
-0.6110239	Z SIX PLEASE	-0.8957366
-0.6110239	S SIX PLEASE	-0.8957366
-0.6110239	V SIX PLEASE	-0.8957366
-0.6110239	U SIX PLEASE	-0.8957366
-0.6110239	H SIX PLEASE	-0.8957366
-0.6110239	L SIX PLEASE	-0.8957366
-0.6110239	E SIX PLEASE	-0.8957366
-0.6110239	T SIX PLEASE	-0.8957366
-0.6110239	O SIX PLEASE	-0.8957366
-0.6110239	X SIX PLEASE	-0.8957366
-0.6110239	Y THREE PLEASE	-0.8957366
-0.6110239	J THREE PLEASE	-0.8957366
-0.6110239	R THREE PLEASE	-0.8957366
-0.6110239	Q THREE PLEASE	-0.8957366
-0.6110239	C THREE PLEASE	-0.8957366
-0.6110239	P THREE PLEASE	-0.8957366
-0.6110239	K THREE PLEASE	-0.8957366
-0.6110239	G THREE PLEASE	-0.8957366
-0.6110239	M THREE PLEASE	-0.8957366
-0.6110239	N THREE PLEASE	-0.8957366
-0.6110239	F THREE PLEASE	-0.8957366
-0.6110239	A THREE PLEASE	-0.8957366
-0.6110239	B THREE PLEASE	-0.8957366
-0.6110239	I THREE PLEASE	-0.8957366
-0.6110239	D THREE PLEASE	-0.8957366
-0.6110239	Z THREE PLEASE	-0.8957366
-0.6110239	S THREE PLEASE	-0.8957366
-0.6110239	V THREE PLEASE	-0.8957366
-0.6110239	U THREE PLEASE	-0.8957366
-0.6110239	H THREE PLEASE	-0.8957366
-0.6110239	L THREE PLEASE	-0.8957366
-0.6110239	E THREE PLEASE	-0.8957366
-0.6110239	T THREE PLEASE	-0.8957366
-0.6110239	O THREE PLEASE	-0.8957366
-0.6110239	X THREE PLEASE	-0.8957366
-0.6110239	Y SEVEN PLEASE	-0.8957366
-0.6110239	J SEVEN PLEASE	-0.8957366
-0.6110239	R SEVEN PLEASE	-0.8957366
-0.6110239	Q SEVEN PLEASE	-0.8957366
-0.6110239	C SEVEN PLEASE	-0.8957366
-0.6110239	P SEVEN PLEASE	-0.8957366
-0.6110239	K SEVEN PLEASE	-0.8957366
-0.6110239	G SEVEN PLEASE	-0.8957366
-0.6110239	M SEVEN PLEASE	-0.8957366
-0.6110239	N SEVEN PLEASE	-0.8957366
-0.6110239	F SEVEN PLEASE	-0.8957366
-0.6110239	A SEVEN PLEASE	-0.8957366
-0.6110239	B SEVEN PLEASE	-0.8957366
-0.6110239	I SEVEN PLEASE	-0.8957366
-0.6110239	D SEVEN PLEASE	-0.8957366
-0.6110239	Z SEVEN PLEASE	-0.8957366
-0.6110239	S SEVEN PLEASE	-0.8957366
-0.6110239	V SEVEN PLEASE	-0.8957366
-0.6110239	U SEVEN PLEASE	-0.8957366
-0.6110239	H SEVEN PLEASE	-0.8957366
-0.6110239	L SEVEN PLEASE	-0.8957366
-0.6110239	E SEVEN PLEASE	-0.8957366
-0.6110239	T SEVEN PLEASE	-0.8957366
-0.6110239	O SEVEN PLEASE	-0.8957366
-0.6110239	X SEVEN PLEASE	-0.8957366
-0.6110239	Y FOUR PLEASE	-0.8957366
-0.6110239	J FOUR PLEASE	-0.8957366
-0.6110239	R FOUR PLEASE	-0.8957366
-0.6110239	Q FOUR PLEASE	-0.8957366
-0.6110239	C FOUR PLEASE	-0.8957366
-0.6110239	P FOUR PLEASE	-0.8957366
-0.6110239	K FOUR PLEASE	-0.8957366
-0.6110239	G FOUR PLEASE	-0.8957366
-0.6110239	M FOUR PLEASE	-0.8957366
-0.6110239	N FOUR PLEASE	-0.8957366
-0.6110239	F FOUR PLEASE	-0.8957366
-0.6110239	A FOUR PLEASE	-0.8957366
-0.6110239	B FOUR PLEASE	-0.8957366
-0.6110239	I FOUR PLEASE	-0.8957366
-0.6110239	D FOUR PLEASE	-0.8957366
-0.6110239	Z FOUR PLEASE	-0.8957366
-0.6110239	S FOUR PLEASE	-0.8957366
-0.6110239	V FOUR PLEASE	-0.8957366
-0.6110239	U FOUR PLEASE	-0.8957366
-0.6110239	H FOUR PLEASE	-0.8957366
-0.6110239	L FOUR PLEASE	-0.8957366
-0.6110239	E FOUR PLEASE	-0.8957366
-0.6110239	T FOUR PLEASE	-0.8957366
-0.6110239	O FOUR PLEASE	-0.8957366
-0.6110239	X FOUR PLEASE	-0.8957366
-0.6110239	Y FIVE PLEASE	-0.8957366
-0.6110239	J FIVE PLEASE	-0.8957366
-0.6110239	R FIVE PLEASE	-0.8957366
-0.6110239	Q FIVE PLEASE	-0.8957366
-0.6110239	C FIVE PLEASE	-0.8957366
-0.6110239	P FIVE PLEASE	-0.8957366
-0.6110239	K FIVE PLEASE	-0.8957366
-0.6110239	G FIVE PLEASE	-0.8957366
-0.6110239	M FIVE PLEASE	-0.8957366
-0.6110239	N FIVE PLEASE	-0.8957366
-0.6110239	F FIVE PLEASE	-0.8957366
-0.6110239	A FIVE PLEASE	-0.8957366
-0.6110239	B FIVE PLEASE	-0.8957366
-0.6110239	I FIVE PLEASE	-0.8957366
-0.6110239	D FIVE PLEASE	-0.8957366
-0.6110239	Z FIVE PLEASE	-0.8957366
-0.6110239	S FIVE PLEASE	-0.8957366
-0.6110239	V FIVE PLEASE	-0.8957366
-0.6110239	U FIVE PLEASE	-0.8957366
-0.6110239	H FIVE PLEASE	-0.8957366
-0.6110239	L FIVE PLEASE	-0.8957366
-0.6110239	E FIVE PLEASE	-0.8957366
-0.6110239	T FIVE PLEASE	-0.8957366
-0.6110239	O FIVE PLEASE	-0.8957366
-0.6110239	X FIVE PLEASE	-0.8957366
-0.6110239	Y ZERO PLEASE	-0.8957366
-0.6110239	J ZERO PLEASE	-0.8957366
-0.6110239	R ZERO PLEASE	-0.8957366
-0.6110239	Q ZERO PLEASE	-0.8957366
-0.6110239	C ZERO PLEASE	-0.8957366
-0.6110239	P ZERO PLEASE	-0.8957366
-0.6110239	K ZERO PLEASE	-0.8957366
-0.6110239	G ZERO PLEASE	-0.8957366
-0.6110239	M ZERO PLEASE	-0.8957366
-0.6110239	N ZERO PLEASE	-0.8957366
-0.6110239	F ZERO PLEASE	-0.8957366
-0.6110239	A ZERO PLEASE	-0.8957366
-0.6110239	B ZERO PLEASE	-0.8957366
-0.6110239	I ZERO PLEASE	-0.8957366
-0.6110239	D ZERO PLEASE	-0.8957366
-0.6110239	Z ZERO PLEASE	-0.8957366
-0.6110239	S ZERO PLEASE	-0.8957366
-0.6110239	V ZERO PLEASE	-0.8957366
-0.6110239	U ZERO PLEASE	-0.8957366
-0.6110239	H ZERO PLEASE	-0.8957366
-0.6110239	L ZERO PLEASE	-0.8957366
-0.6110239	E ZERO PLEASE	-0.8957366
-0.6110239	T ZERO PLEASE	-0.8957366
-0.6110239	O ZERO PLEASE	-0.8957366
-0.6110239	X ZERO PLEASE	-0.8957366
-0.6110239	Y ONE PLEASE	-0.8957366
-0.6110239	J ONE PLEASE	-0.8957366
-0.6110239	R ONE PLEASE	-0.8957366
-0.6110239	Q ONE PLEASE	-0.8957366
-0.6110239	C ONE PLEASE	-0.8957366
-0.6110239	P ONE PLEASE	-0.8957366
-0.6110239	K ONE PLEASE	-0.8957366
-0.6110239	G ONE PLEASE	-0.8957366
-0.6110239	M ONE PLEASE	-0.8957366
-0.6110239	N ONE PLEASE	-0.8957366
-0.6110239	F ONE PLEASE	-0.8957366
-0.6110239	A ONE PLEASE	-0.8957366
-0.6110239	B ONE PLEASE	-0.8957366
-0.6110239	I ONE PLEASE	-0.8957366
-0.6110239	D ONE PLEASE	-0.8957366
-0.6110239	Z ONE PLEASE	-0.8957366
-0.6110239	S ONE PLEASE	-0.8957366
-0.6110239	V ONE PLEASE	-0.8957366
-0.6110239	U ONE PLEASE	-0.8957366
-0.6110239	H ONE PLEASE	-0.8957366
-0.6110239	L ONE PLEASE	-0.8957366
-0.6110239	E ONE PLEASE	-0.8957366
-0.6110239	T ONE PLEASE	-0.8957366
-0.6110239	O ONE PLEASE	-0.8957366
-0.6110239	X ONE PLEASE	-0.8957366
-0.6110239	Y TWO PLEASE	-0.8957366
-0.6110239	J TWO PLEASE	-0.8957366
-0.6110239	R TWO PLEASE	-0.8957366
-0.6110239	Q TWO PLEASE	-0.8957366
-0.6110239	C TWO PLEASE	-0.8957366
-0.6110239	P TWO PLEASE	-0.8957366
-0.6110239	K TWO PLEASE	-0.8957366
-0.6110239	G TWO PLEASE	-0.8957366
-0.6110239	M TWO PLEASE	-0.8957366
-0.6110239	N TWO PLEASE	-0.8957366
-0.6110239	F TWO PLEASE	-0.8957366
-0.6110239	A TWO PLEASE	-0.8957366
-0.6110239	B TWO PLEASE	-0.8957366
-0.6110239	I TWO PLEASE	-0.8957366
-0.6110239	D TWO PLEASE	-0.8957366
-0.6110239	Z TWO PLEASE	-0.8957366
-0.6110239	S TWO PLEASE	-0.8957366
-0.6110239	V TWO PLEASE	-0.8957366
-0.6110239	U TWO PLEASE	-0.8957366
-0.6110239	H TWO PLEASE	-0.8957366
-0.6110239	L TWO PLEASE	-0.8957366
-0.6110239	E TWO PLEASE	-0.8957366
-0.6110239	T TWO PLEASE	-0.8957366
-0.6110239	O TWO PLEASE	-0.8957366
-0.6110239	X TWO PLEASE	-0.8957366
-0.6110239	Y NINE PLEASE	-0.8957366
-0.6110239	J NINE PLEASE	-0.8957366
-0.6110239	R NINE PLEASE	-0.8957366
-0.6110239	Q NINE PLEASE	-0.8957366
-0.6110239	C NINE PLEASE	-0.8957366
-0.6110239	P NINE PLEASE	-0.8957366
-0.6110239	K NINE PLEASE	-0.8957366
-0.6110239	G NINE PLEASE	-0.8957366
-0.6110239	M NINE PLEASE	-0.8957366
-0.6110239	N NINE PLEASE	-0.8957366
-0.6110239	F NINE PLEASE	-0.8957366
-0.6110239	A NINE PLEASE	-0.8957366
-0.6110239	B NINE PLEASE	-0.8957366
-0.6110239	I NINE PLEASE	-0.8957366
-0.6110239	D NINE PLEASE	-0.8957366
-0.6110239	Z NINE PLEASE	-0.8957366
-0.6110239	S NINE PLEASE	-0.8957366
-0.6110239	V NINE PLEASE	-0.8957366
-0.6110239	U NINE PLEASE	-0.8957366
-0.6110239	H NINE PLEASE	-0.8957366
-0.6110239	L NINE PLEASE	-0.8957366
-0.6110239	E NINE PLEASE	-0.8957366
-0.6110239	T NINE PLEASE	-0.8957366
-0.6110239	O NINE PLEASE	-0.8957366
-0.6110239	X NINE PLEASE	-0.8957366
-1.4555317	GREEN WITH J	-0.42794025
-1.4519093	BLUE WITH J	-0.42794025
-1.4555317	RED WITH J	-0.30044883
-1.4555317	WHITE WITH J	-0.18628871
-1.5514818	GREEN AT J	-0.079967335
-1.4555317	BLUE AT J	-0.18628871
-1.4555317	RED AT J	-0.30044883
-1.4555317	WHITE AT J	-0.42794025
-1.4555317	GREEN BY J	-0.30044883
-1.4555317	BLUE BY J	-0.18628871
-1.4555317	RED BY J	-0.42794025
-1.4555317	WHITE BY J	-0.18628871
-1.4555317	GREEN IN J	-0.30044883
-1.4555317	BLUE IN J	-0.42794025
-1.5514818	RED IN J	-0.079967335
-1.4519093	WHITE IN J	-0.42794025
-1.0265054	WITH Y SIX	-0.8957366
-1.0265054	AT Y SIX	-0.8957366
-1.0265054	BY Y SIX	-0.8957366
-1.0265054	IN Y SIX	-0.8957366
-1.0265054	WITH J SIX	-0.8957366
-1.0265054	AT J SIX	-0.8957366
-1.0265054	BY J SIX	-0.8957366
-1.0265054	IN J SIX	-0.8957366
-1.0265054	WITH R SIX	-0.8957366
-1.0265054	AT R SIX	-0.8957366
-1.0265054	BY R SIX	-0.8957366
-1.0265054	IN R SIX	-0.8957366
-1.0265054	WITH Q SIX	-0.8957366
-1.0265054	AT Q SIX	-0.8957366
-1.0265054	BY Q SIX	-0.8957366
-1.0265054	IN Q SIX	-0.8957366
-1.0265054	WITH C SIX	-0.8957366
-1.0265054	AT C SIX	-0.8957366
-1.0265054	BY C SIX	-0.8957366
-1.0265054	IN C SIX	-0.8957366
-1.0265054	WITH P SIX	-0.8957366
-1.0265054	AT P SIX	-0.8957366
-1.0265054	BY P SIX	-0.8957366
-1.0265054	IN P SIX	-0.8957366
-1.0265054	WITH K SIX	-0.8957366
-1.0265054	AT K SIX	-0.8957366
-1.0265054	BY K SIX	-0.8957366
-1.0265054	IN K SIX	-0.8957366
-1.0265054	WITH G SIX	-0.8957366
-1.0265054	AT G SIX	-0.8957366
-1.0265054	BY G SIX	-0.8957366
-1.0265054	IN G SIX	-0.8957366
-1.0265054	WITH M SIX	-0.8957366
-1.0265054	AT M SIX	-0.8957366
-1.0265054	BY M SIX	-0.8957366
-1.0265054	IN M SIX	-0.8957366
-1.0265054	WITH N SIX	-0.8957366
-1.0265054	AT N SIX	-0.8957366
-1.0265054	BY N SIX	-0.8957366
-1.0265054	IN N SIX	-0.8957366
-1.0265054	WITH F SIX	-0.8957366
-1.0265054	AT F SIX	-0.8957366
-1.0265054	BY F SIX	-0.8957366
-1.0265054	IN F SIX	-0.8957366
-1.0265054	WITH A SIX	-0.8957366
-1.0265054	AT A SIX	-0.8957366
-1.0265054	BY A SIX	-0.8957366
-1.0265054	IN A SIX	-0.8957366
-1.0265054	WITH B SIX	-0.8957366
-1.0265054	AT B SIX	-0.8957366
-1.0265054	BY B SIX	-0.8957366
-1.0265054	IN B SIX	-0.8957366
-1.0265054	WITH I SIX	-0.8957366
-1.0265054	AT I SIX	-0.8957366
-1.0265054	BY I SIX	-0.8957366
-1.0265054	IN I SIX	-0.8957366
-1.0265054	WITH D SIX	-0.8957366
-1.0265054	AT D SIX	-0.8957366
-1.0265054	BY D SIX	-0.8957366
-1.0265054	IN D SIX	-0.8957366
-1.0265054	WITH Z SIX	-0.8957366
-1.0265054	AT Z SIX	-0.8957366
-1.0265054	BY Z SIX	-0.8957366
-1.0265054	IN Z SIX	-0.8957366
-1.0265054	WITH S SIX	-0.8957366
-1.0265054	AT S SIX	-0.8957366
-1.0265054	BY S SIX	-0.8957366
-1.0265054	IN S SIX	-0.8957366
-1.0265054	WITH V SIX	-0.8957366
-1.0265054	AT V SIX	-0.8957366
-1.0265054	BY V SIX	-0.8957366
-1.0265054	IN V SIX	-0.8957366
-1.0265054	WITH U SIX	-0.8957366
-1.0265054	AT U SIX	-0.8957366
-1.0265054	BY U SIX	-0.8957366
-1.0265054	IN U SIX	-0.8957366
-1.0265054	WITH H SIX	-0.8957366
-1.0265054	AT H SIX	-0.8957366
-1.0265054	BY H SIX	-0.8957366
-1.0265054	IN H SIX	-0.8957366
-1.0265054	WITH L SIX	-0.8957366
-1.0265054	AT L SIX	-0.8957366
-1.0265054	BY L SIX	-0.8957366
-1.0265054	IN L SIX	-0.8957366
-1.0265054	WITH E SIX	-0.8957366
-1.0265054	AT E SIX	-0.8957366
-1.0265054	BY E SIX	-0.8957366
-1.0265054	IN E SIX	-0.8957366
-1.0265054	WITH T SIX	-0.8957366
-1.0265054	AT T SIX	-0.8957366
-1.0265054	BY T SIX	-0.8957366
-1.0265054	IN T SIX	-0.8957366
-1.0265054	WITH O SIX	-0.8957366
-1.0265054	AT O SIX	-0.8957366
-1.0265054	BY O SIX	-0.8957366
-1.0265054	IN O SIX	-0.8957366
-1.0265054	WITH X SIX	-0.8957366
-1.0265054	AT X SIX	-0.8957366
-1.0265054	BY X SIX	-0.8957366
-1.0265054	IN X SIX	-0.8957366
-0.68861926	BIN GREEN AT	-0.7284846
-0.68861926	SET GREEN AT	-0.7284846
-0.68861926	PLACE GREEN AT	-0.7284846
-0.68861926	LAY GREEN AT	-0.7284846
-0.68861926	BIN BLUE AT	-0.7284846
-0.68861926	SET BLUE AT	-0.7284846
-0.68861926	PLACE BLUE AT	-0.7284846
-0.68861926	LAY BLUE AT	-0.7284846
-0.68861926	BIN RED AT	-0.7284846
-0.68861926	SET RED AT	-0.7284846
-0.68861926	PLACE RED AT	-0.7284846
-0.68861926	LAY RED AT	-0.7284846
-0.68861926	BIN WHITE AT	-0.7284846
-0.68861926	SET WHITE AT	-0.7284846
-0.68861926	PLACE WHITE AT	-0.7284846
-0.68861926	LAY WHITE AT	-0.7284846
-1.0265054	WITH Y THREE	-0.8957366
-1.0265054	AT Y THREE	-0.8957366
-1.0265054	BY Y THREE	-0.8957366
-1.0265054	IN Y THREE	-0.8957366
-1.0265054	WITH J THREE	-0.8957366
-1.0265054	AT J THREE	-0.8957366
-1.0265054	BY J THREE	-0.8957366
-1.0265054	IN J THREE	-0.8957366
-1.0265054	WITH R THREE	-0.8957366
-1.0265054	AT R THREE	-0.8957366
-1.0265054	BY R THREE	-0.8957366
-1.0265054	IN R THREE	-0.8957366
-1.0265054	WITH Q THREE	-0.8957366
-1.0265054	AT Q THREE	-0.8957366
-1.0265054	BY Q THREE	-0.8957366
-1.0265054	IN Q THREE	-0.8957366
-1.0265054	WITH C THREE	-0.8957366
-1.0265054	AT C THREE	-0.8957366
-1.0265054	BY C THREE	-0.8957366
-1.0265054	IN C THREE	-0.8957366
-1.0265054	WITH P THREE	-0.8957366
-1.0265054	AT P THREE	-0.8957366
-1.0265054	BY P THREE	-0.8957366
-1.0265054	IN P THREE	-0.8957366
-1.0265054	WITH K THREE	-0.8957366
-1.0265054	AT K THREE	-0.8957366
-1.0265054	BY K THREE	-0.8957366
-1.0265054	IN K THREE	-0.8957366
-1.0265054	WITH G THREE	-0.8957366
-1.0265054	AT G THREE	-0.8957366
-1.0265054	BY G THREE	-0.8957366
-1.0265054	IN G THREE	-0.8957366
-1.0265054	WITH M THREE	-0.8957366
-1.0265054	AT M THREE	-0.8957366
-1.0265054	BY M THREE	-0.8957366
-1.0265054	IN M THREE	-0.8957366
-1.0265054	WITH N THREE	-0.8957366
-1.0265054	AT N THREE	-0.8957366
-1.0265054	BY N THREE	-0.8957366
-1.0265054	IN N THREE	-0.8957366
-1.0265054	WITH F THREE	-0.8957366
-1.0265054	AT F THREE	-0.8957366
-1.0265054	BY F THREE	-0.8957366
-1.0265054	IN F THREE	-0.8957366
-1.0265054	WITH A THREE	-0.8957366
-1.0265054	AT A THREE	-0.8957366
-1.0265054	BY A THREE	-0.8957366
-1.0265054	IN A THREE	-0.8957366
-1.0265054	WITH B THREE	-0.8957366
-1.0265054	AT B THREE	-0.8957366
-1.0265054	BY B THREE	-0.8957366
-1.0265054	IN B THREE	-0.8957366
-1.0265054	WITH I THREE	-0.8957366
-1.0265054	AT I THREE	-0.8957366
-1.0265054	BY I THREE	-0.8957366
-1.0265054	IN I THREE	-0.8957366
-1.0265054	WITH D THREE	-0.8957366
-1.0265054	AT D THREE	-0.8957366
-1.0265054	BY D THREE	-0.8957366
-1.0265054	IN D THREE	-0.8957366
-1.0265054	WITH Z THREE	-0.8957366
-1.0265054	AT Z THREE	-0.8957366
-1.0265054	BY Z THREE	-0.8957366
-1.0265054	IN Z THREE	-0.8957366
-1.0265054	WITH S THREE	-0.8957366
-1.0265054	AT S THREE	-0.8957366
-1.0265054	BY S THREE	-0.8957366
-1.0265054	IN S THREE	-0.8957366
-1.0265054	WITH V THREE	-0.8957366
-1.0265054	AT V THREE	-0.8957366
-1.0265054	BY V THREE	-0.8957366
-1.0265054	IN V THREE	-0.8957366
-1.0265054	WITH U THREE	-0.8957366
-1.0265054	AT U THREE	-0.8957366
-1.0265054	BY U THREE	-0.8957366
-1.0265054	IN U THREE	-0.8957366
-1.0265054	WITH H THREE	-0.8957366
-1.0265054	AT H THREE	-0.8957366
-1.0265054	BY H THREE	-0.8957366
-1.0265054	IN H THREE	-0.8957366
-1.0265054	WITH L THREE	-0.8957366
-1.0265054	AT L THREE	-0.8957366
-1.0265054	BY L THREE	-0.8957366
-1.0265054	IN L THREE	-0.8957366
-1.0265054	WITH E THREE	-0.8957366
-1.0265054	AT E THREE	-0.8957366
-1.0265054	BY E THREE	-0.8957366
-1.0265054	IN E THREE	-0.8957366
-1.0265054	WITH T THREE	-0.8957366
-1.0265054	AT T THREE	-0.8957366
-1.0265054	BY T THREE	-0.8957366
-1.0265054	IN T THREE	-0.8957366
-1.0265054	WITH O THREE	-0.8957366
-1.0265054	AT O THREE	-0.8957366
-1.0265054	BY O THREE	-0.8957366
-1.0265054	IN O THREE	-0.8957366
-1.0265054	WITH X THREE	-0.8957366
-1.0265054	AT X THREE	-0.8957366
-1.0265054	BY X THREE	-0.8957366
-1.0265054	IN X THREE	-0.8957366
-0.6110239	Y EIGHT AGAIN	-0.8957366
-0.6110239	J EIGHT AGAIN	-0.8957366
-0.6110239	R EIGHT AGAIN	-0.8957366
-0.6110239	Q EIGHT AGAIN	-0.8957366
-0.6110239	C EIGHT AGAIN	-0.8957366
-0.6110239	P EIGHT AGAIN	-0.8957366
-0.6110239	K EIGHT AGAIN	-0.8957366
-0.6110239	G EIGHT AGAIN	-0.8957366
-0.6110239	M EIGHT AGAIN	-0.8957366
-0.6110239	N EIGHT AGAIN	-0.8957366
-0.6110239	F EIGHT AGAIN	-0.8957366
-0.6110239	A EIGHT AGAIN	-0.8957366
-0.6110239	B EIGHT AGAIN	-0.8957366
-0.6110239	I EIGHT AGAIN	-0.8957366
-0.6110239	D EIGHT AGAIN	-0.8957366
-0.6110239	Z EIGHT AGAIN	-0.8957366
-0.6110239	S EIGHT AGAIN	-0.8957366
-0.6110239	V EIGHT AGAIN	-0.8957366
-0.6110239	U EIGHT AGAIN	-0.8957366
-0.6110239	H EIGHT AGAIN	-0.8957366
-0.6110239	L EIGHT AGAIN	-0.8957366
-0.6110239	E EIGHT AGAIN	-0.8957366
-0.6110239	T EIGHT AGAIN	-0.8957366
-0.6110239	O EIGHT AGAIN	-0.8957366
-0.6110239	X EIGHT AGAIN	-0.8957366
-0.6110239	Y SIX AGAIN	-0.8957366
-0.6110239	J SIX AGAIN	-0.8957366
-0.6110239	R SIX AGAIN	-0.8957366
-0.6110239	Q SIX AGAIN	-0.8957366
-0.6110239	C SIX AGAIN	-0.8957366
-0.6110239	P SIX AGAIN	-0.8957366
-0.6110239	K SIX AGAIN	-0.8957366
-0.6110239	G SIX AGAIN	-0.8957366
-0.6110239	M SIX AGAIN	-0.8957366
-0.6110239	N SIX AGAIN	-0.8957366
-0.6110239	F SIX AGAIN	-0.8957366
-0.6110239	A SIX AGAIN	-0.8957366
-0.6110239	B SIX AGAIN	-0.8957366
-0.6110239	I SIX AGAIN	-0.8957366
-0.6110239	D SIX AGAIN	-0.8957366
-0.6110239	Z SIX AGAIN	-0.8957366
-0.6110239	S SIX AGAIN	-0.8957366
-0.6110239	V SIX AGAIN	-0.8957366
-0.6110239	U SIX AGAIN	-0.8957366
-0.6110239	H SIX AGAIN	-0.8957366
-0.6110239	L SIX AGAIN	-0.8957366
-0.6110239	E SIX AGAIN	-0.8957366
-0.6110239	T SIX AGAIN	-0.8957366
-0.6110239	O SIX AGAIN	-0.8957366
-0.6110239	X SIX AGAIN	-0.8957366
-0.6110239	Y THREE AGAIN	-0.8957366
-0.6110239	J THREE AGAIN	-0.8957366
-0.6110239	R THREE AGAIN	-0.8957366
-0.6110239	Q THREE AGAIN	-0.8957366
-0.6110239	C THREE AGAIN	-0.8957366
-0.6110239	P THREE AGAIN	-0.8957366
-0.6110239	K THREE AGAIN	-0.8957366
-0.6110239	G THREE AGAIN	-0.8957366
-0.6110239	M THREE AGAIN	-0.8957366
-0.6110239	N THREE AGAIN	-0.8957366
-0.6110239	F THREE AGAIN	-0.8957366
-0.6110239	A THREE AGAIN	-0.8957366
-0.6110239	B THREE AGAIN	-0.8957366
-0.6110239	I THREE AGAIN	-0.8957366
-0.6110239	D THREE AGAIN	-0.8957366
-0.6110239	Z THREE AGAIN	-0.8957366
-0.6110239	S THREE AGAIN	-0.8957366
-0.6110239	V THREE AGAIN	-0.8957366
-0.6110239	U THREE AGAIN	-0.8957366
-0.6110239	H THREE AGAIN	-0.8957366
-0.6110239	L THREE AGAIN	-0.8957366
-0.6110239	E THREE AGAIN	-0.8957366
-0.6110239	T THREE AGAIN	-0.8957366
-0.6110239	O THREE AGAIN	-0.8957366
-0.6110239	X THREE AGAIN	-0.8957366
-0.6110239	Y SEVEN AGAIN	-0.8957366
-0.6110239	J SEVEN AGAIN	-0.8957366
-0.6110239	R SEVEN AGAIN	-0.8957366
-0.6110239	Q SEVEN AGAIN	-0.8957366
-0.6110239	C SEVEN AGAIN	-0.8957366
-0.6110239	P SEVEN AGAIN	-0.8957366
-0.6110239	K SEVEN AGAIN	-0.8957366
-0.6110239	G SEVEN AGAIN	-0.8957366
-0.6110239	M SEVEN AGAIN	-0.8957366
-0.6110239	N SEVEN AGAIN	-0.8957366
-0.6110239	F SEVEN AGAIN	-0.8957366
-0.6110239	A SEVEN AGAIN	-0.8957366
-0.6110239	B SEVEN AGAIN	-0.8957366
-0.6110239	I SEVEN AGAIN	-0.8957366
-0.6110239	D SEVEN AGAIN	-0.8957366
-0.6110239	Z SEVEN AGAIN	-0.8957366
-0.6110239	S SEVEN AGAIN	-0.8957366
-0.6110239	V SEVEN AGAIN	-0.8957366
-0.6110239	U SEVEN AGAIN	-0.8957366
-0.6110239	H SEVEN AGAIN	-0.8957366
-0.6110239	L SEVEN AGAIN	-0.8957366
-0.6110239	E SEVEN AGAIN	-0.8957366
-0.6110239	T SEVEN AGAIN	-0.8957366
-0.6110239	O SEVEN AGAIN	-0.8957366
-0.6110239	X SEVEN AGAIN	-0.8957366
-0.6110239	Y FOUR AGAIN	-0.8957366
-0.6110239	J FOUR AGAIN	-0.8957366
-0.6110239	R FOUR AGAIN	-0.8957366
-0.6110239	Q FOUR AGAIN	-0.8957366
-0.6110239	C FOUR AGAIN	-0.8957366
-0.6110239	P FOUR AGAIN	-0.8957366
-0.6110239	K FOUR AGAIN	-0.8957366
-0.6110239	G FOUR AGAIN	-0.8957366
-0.6110239	M FOUR AGAIN	-0.8957366
-0.6110239	N FOUR AGAIN	-0.8957366
-0.6110239	F FOUR AGAIN	-0.8957366
-0.6110239	A FOUR AGAIN	-0.8957366
-0.6110239	B FOUR AGAIN	-0.8957366
-0.6110239	I FOUR AGAIN	-0.8957366
-0.6110239	D FOUR AGAIN	-0.8957366
-0.6110239	Z FOUR AGAIN	-0.8957366
-0.6110239	S FOUR AGAIN	-0.8957366
-0.6110239	V FOUR AGAIN	-0.8957366
-0.6110239	U FOUR AGAIN	-0.8957366
-0.6110239	H FOUR AGAIN	-0.8957366
-0.6110239	L FOUR AGAIN	-0.8957366
-0.6110239	E FOUR AGAIN	-0.8957366
-0.6110239	T FOUR AGAIN	-0.8957366
-0.6110239	O FOUR AGAIN	-0.8957366
-0.6110239	X FOUR AGAIN	-0.8957366
-0.6110239	Y FIVE AGAIN	-0.8957366
-0.6110239	J FIVE AGAIN	-0.8957366
-0.6110239	R FIVE AGAIN	-0.8957366
-0.6110239	Q FIVE AGAIN	-0.8957366
-0.6110239	C FIVE AGAIN	-0.8957366
-0.6110239	P FIVE AGAIN	-0.8957366
-0.6110239	K FIVE AGAIN	-0.8957366
-0.6110239	G FIVE AGAIN	-0.8957366
-0.6110239	M FIVE AGAIN	-0.8957366
-0.6110239	N FIVE AGAIN	-0.8957366
-0.6110239	F FIVE AGAIN	-0.8957366
-0.6110239	A FIVE AGAIN	-0.8957366
-0.6110239	B FIVE AGAIN	-0.8957366
-0.6110239	I FIVE AGAIN	-0.8957366
-0.6110239	D FIVE AGAIN	-0.8957366
-0.6110239	Z FIVE AGAIN	-0.8957366
-0.6110239	S FIVE AGAIN	-0.8957366
-0.6110239	V FIVE AGAIN	-0.8957366
-0.6110239	U FIVE AGAIN	-0.8957366
-0.6110239	H FIVE AGAIN	-0.8957366
-0.6110239	L FIVE AGAIN	-0.8957366
-0.6110239	E FIVE AGAIN	-0.8957366
-0.6110239	T FIVE AGAIN	-0.8957366
-0.6110239	O FIVE AGAIN	-0.8957366
-0.6110239	X FIVE AGAIN	-0.8957366
-0.6110239	Y ZERO AGAIN	-0.8957366
-0.6110239	J ZERO AGAIN	-0.8957366
-0.6110239	R ZERO AGAIN	-0.8957366
-0.6110239	Q ZERO AGAIN	-0.8957366
-0.6110239	C ZERO AGAIN	-0.8957366
-0.6110239	P ZERO AGAIN	-0.8957366
-0.6110239	K ZERO AGAIN	-0.8957366
-0.6110239	G ZERO AGAIN	-0.8957366
-0.6110239	M ZERO AGAIN	-0.8957366
-0.6110239	N ZERO AGAIN	-0.8957366
-0.6110239	F ZERO AGAIN	-0.8957366
-0.6110239	A ZERO AGAIN	-0.8957366
-0.6110239	B ZERO AGAIN	-0.8957366
-0.6110239	I ZERO AGAIN	-0.8957366
-0.6110239	D ZERO AGAIN	-0.8957366
-0.6110239	Z ZERO AGAIN	-0.8957366
-0.6110239	S ZERO AGAIN	-0.8957366
-0.6110239	V ZERO AGAIN	-0.8957366
-0.6110239	U ZERO AGAIN	-0.8957366
-0.6110239	H ZERO AGAIN	-0.8957366
-0.6110239	L ZERO AGAIN	-0.8957366
-0.6110239	E ZERO AGAIN	-0.8957366
-0.6110239	T ZERO AGAIN	-0.8957366
-0.6110239	O ZERO AGAIN	-0.8957366
-0.6110239	X ZERO AGAIN	-0.8957366
-0.6110239	Y ONE AGAIN	-0.8957366
-0.6110239	J ONE AGAIN	-0.8957366
-0.6110239	R ONE AGAIN	-0.8957366
-0.6110239	Q ONE AGAIN	-0.8957366
-0.6110239	C ONE AGAIN	-0.8957366
-0.6110239	P ONE AGAIN	-0.8957366
-0.6110239	K ONE AGAIN	-0.8957366
-0.6110239	G ONE AGAIN	-0.8957366
-0.6110239	M ONE AGAIN	-0.8957366
-0.6110239	N ONE AGAIN	-0.8957366
-0.6110239	F ONE AGAIN	-0.8957366
-0.6110239	A ONE AGAIN	-0.8957366
-0.6110239	B ONE AGAIN	-0.8957366
-0.6110239	I ONE AGAIN	-0.8957366
-0.6110239	D ONE AGAIN	-0.8957366
-0.6110239	Z ONE AGAIN	-0.8957366
-0.6110239	S ONE AGAIN	-0.8957366
-0.6110239	V ONE AGAIN	-0.8957366
-0.6110239	U ONE AGAIN	-0.8957366
-0.6110239	H ONE AGAIN	-0.8957366
-0.6110239	L ONE AGAIN	-0.8957366
-0.6110239	E ONE AGAIN	-0.8957366
-0.6110239	T ONE AGAIN	-0.8957366
-0.6110239	O ONE AGAIN	-0.8957366
-0.6110239	X ONE AGAIN	-0.8957366
-0.6110239	Y TWO AGAIN	-0.8957366
-0.6110239	J TWO AGAIN	-0.8957366
-0.6110239	R TWO AGAIN	-0.8957366
-0.6110239	Q TWO AGAIN	-0.8957366
-0.6110239	C TWO AGAIN	-0.8957366
-0.6110239	P TWO AGAIN	-0.8957366
-0.6110239	K TWO AGAIN	-0.8957366
-0.6110239	G TWO AGAIN	-0.8957366
-0.6110239	M TWO AGAIN	-0.8957366
-0.6110239	N TWO AGAIN	-0.8957366
-0.6110239	F TWO AGAIN	-0.8957366
-0.6110239	A TWO AGAIN	-0.8957366
-0.6110239	B TWO AGAIN	-0.8957366
-0.6110239	I TWO AGAIN	-0.8957366
-0.6110239	D TWO AGAIN	-0.8957366
-0.6110239	Z TWO AGAIN	-0.8957366
-0.6110239	S TWO AGAIN	-0.8957366
-0.6110239	V TWO AGAIN	-0.8957366
-0.6110239	U TWO AGAIN	-0.8957366
-0.6110239	H TWO AGAIN	-0.8957366
-0.6110239	L TWO AGAIN	-0.8957366
-0.6110239	E TWO AGAIN	-0.8957366
-0.6110239	T TWO AGAIN	-0.8957366
-0.6110239	O TWO AGAIN	-0.8957366
-0.6110239	X TWO AGAIN	-0.8957366
-0.6110239	Y NINE AGAIN	-0.8957366
-0.6110239	J NINE AGAIN	-0.8957366
-0.6110239	R NINE AGAIN	-0.8957366
-0.6110239	Q NINE AGAIN	-0.8957366
-0.6110239	C NINE AGAIN	-0.8957366
-0.6110239	P NINE AGAIN	-0.8957366
-0.6110239	K NINE AGAIN	-0.8957366
-0.6110239	G NINE AGAIN	-0.8957366
-0.6110239	M NINE AGAIN	-0.8957366
-0.6110239	N NINE AGAIN	-0.8957366
-0.6110239	F NINE AGAIN	-0.8957366
-0.6110239	A NINE AGAIN	-0.8957366
-0.6110239	B NINE AGAIN	-0.8957366
-0.6110239	I NINE AGAIN	-0.8957366
-0.6110239	D NINE AGAIN	-0.8957366
-0.6110239	Z NINE AGAIN	-0.8957366
-0.6110239	S NINE AGAIN	-0.8957366
-0.6110239	V NINE AGAIN	-0.8957366
-0.6110239	U NINE AGAIN	-0.8957366
-0.6110239	H NINE AGAIN	-0.8957366
-0.6110239	L NINE AGAIN	-0.8957366
-0.6110239	E NINE AGAIN	-0.8957366
-0.6110239	T NINE AGAIN	-0.8957366
-0.6110239	O NINE AGAIN	-0.8957366
-0.6110239	X NINE AGAIN	-0.8957366
-0.68861926	BIN GREEN BY	-0.7284846
-0.68861926	SET GREEN BY	-0.7284846
-0.68861926	PLACE GREEN BY	-0.7284846
-0.68861926	LAY GREEN BY	-0.7284846
-0.68861926	BIN BLUE BY	-0.7284846
-0.68861926	SET BLUE BY	-0.7284846
-0.68861926	PLACE BLUE BY	-0.7284846
-0.68861926	LAY BLUE BY	-0.7284846
-0.68861926	BIN RED BY	-0.7284846
-0.68861926	SET RED BY	-0.7284846
-0.68861926	PLACE RED BY	-0.7284846
-0.68861926	LAY RED BY	-0.7284846
-0.68861926	BIN WHITE BY	-0.7284846
-0.68861926	SET WHITE BY	-0.7284846
-0.68861926	PLACE WHITE BY	-0.7284846
-0.68861926	LAY WHITE BY	-0.7284846
-1.4555317	GREEN WITH R	-0.42794025
-1.4519093	BLUE WITH R	-0.42794025
-1.4555317	RED WITH R	-0.30044883
-1.4555317	WHITE WITH R	-0.18628871
-1.5514818	GREEN AT R	-0.079967335
-1.4555317	BLUE AT R	-0.18628871
-1.4555317	RED AT R	-0.30044883
-1.4555317	WHITE AT R	-0.42794025
-1.4555317	GREEN BY R	-0.30044883
-1.4555317	BLUE BY R	-0.18628871
-1.4555317	RED BY R	-0.42794025
-1.4555317	WHITE BY R	-0.18628871
-1.4555317	GREEN IN R	-0.30044883
-1.4555317	BLUE IN R	-0.42794025
-1.5514818	RED IN R	-0.079967335
-1.4519093	WHITE IN R	-0.42794025
-1.0265054	WITH Y SEVEN	-0.8957366
-1.0265054	AT Y SEVEN	-0.8957366
-1.0265054	BY Y SEVEN	-0.8957366
-1.0265054	IN Y SEVEN	-0.8957366
-1.0265054	WITH J SEVEN	-0.8957366
-1.0265054	AT J SEVEN	-0.8957366
-1.0265054	BY J SEVEN	-0.8957366
-1.0265054	IN J SEVEN	-0.8957366
-1.0265054	WITH R SEVEN	-0.8957366
-1.0265054	AT R SEVEN	-0.8957366
-1.0265054	BY R SEVEN	-0.8957366
-1.0265054	IN R SEVEN	-0.8957366
-1.0265054	WITH Q SEVEN	-0.8957366
-1.0265054	AT Q SEVEN	-0.8957366
-1.0265054	BY Q SEVEN	-0.8957366
-1.0265054	IN Q SEVEN	-0.8957366
-1.0265054	WITH C SEVEN	-0.8957366
-1.0265054	AT C SEVEN	-0.8957366
-1.0265054	BY C SEVEN	-0.8957366
-1.0265054	IN C SEVEN	-0.8957366
-1.0265054	WITH P SEVEN	-0.8957366
-1.0265054	AT P SEVEN	-0.8957366
-1.0265054	BY P SEVEN	-0.8957366
-1.0265054	IN P SEVEN	-0.8957366
-1.0265054	WITH K SEVEN	-0.8957366
-1.0265054	AT K SEVEN	-0.8957366
-1.0265054	BY K SEVEN	-0.8957366
-1.0265054	IN K SEVEN	-0.8957366
-1.0265054	WITH G SEVEN	-0.8957366
-1.0265054	AT G SEVEN	-0.8957366
-1.0265054	BY G SEVEN	-0.8957366
-1.0265054	IN G SEVEN	-0.8957366
-1.0265054	WITH M SEVEN	-0.8957366
-1.0265054	AT M SEVEN	-0.8957366
-1.0265054	BY M SEVEN	-0.8957366
-1.0265054	IN M SEVEN	-0.8957366
-1.0265054	WITH N SEVEN	-0.8957366
-1.0265054	AT N SEVEN	-0.8957366
-1.0265054	BY N SEVEN	-0.8957366
-1.0265054	IN N SEVEN	-0.8957366
-1.0265054	WITH F SEVEN	-0.8957366
-1.0265054	AT F SEVEN	-0.8957366
-1.0265054	BY F SEVEN	-0.8957366
-1.0265054	IN F SEVEN	-0.8957366
-1.0265054	WITH A SEVEN	-0.8957366
-1.0265054	AT A SEVEN	-0.8957366
-1.0265054	BY A SEVEN	-0.8957366
-1.0265054	IN A SEVEN	-0.8957366
-1.0265054	WITH B SEVEN	-0.8957366
-1.0265054	AT B SEVEN	-0.8957366
-1.0265054	BY B SEVEN	-0.8957366
-1.0265054	IN B SEVEN	-0.8957366
-1.0265054	WITH I SEVEN	-0.8957366
-1.0265054	AT I SEVEN	-0.8957366
-1.0265054	BY I SEVEN	-0.8957366
-1.0265054	IN I SEVEN	-0.8957366
-1.0265054	WITH D SEVEN	-0.8957366
-1.0265054	AT D SEVEN	-0.8957366
-1.0265054	BY D SEVEN	-0.8957366
-1.0265054	IN D SEVEN	-0.8957366
-1.0265054	WITH Z SEVEN	-0.8957366
-1.0265054	AT Z SEVEN	-0.8957366
-1.0265054	BY Z SEVEN	-0.8957366
-1.0265054	IN Z SEVEN	-0.8957366
-1.0265054	WITH S SEVEN	-0.8957366
-1.0265054	AT S SEVEN	-0.8957366
-1.0265054	BY S SEVEN	-0.8957366
-1.0265054	IN S SEVEN	-0.8957366
-1.0265054	WITH V SEVEN	-0.8957366
-1.0265054	AT V SEVEN	-0.8957366
-1.0265054	BY V SEVEN	-0.8957366
-1.0265054	IN V SEVEN	-0.8957366
-1.0265054	WITH U SEVEN	-0.8957366
-1.0265054	AT U SEVEN	-0.8957366
-1.0265054	BY U SEVEN	-0.8957366
-1.0265054	IN U SEVEN	-0.8957366
-1.0265054	WITH H SEVEN	-0.8957366
-1.0265054	AT H SEVEN	-0.8957366
-1.0265054	BY H SEVEN	-0.8957366
-1.0265054	IN H SEVEN	-0.8957366
-1.0265054	WITH L SEVEN	-0.8957366
-1.0265054	AT L SEVEN	-0.8957366
-1.0265054	BY L SEVEN	-0.8957366
-1.0265054	IN L SEVEN	-0.8957366
-1.0265054	WITH E SEVEN	-0.8957366
-1.0265054	AT E SEVEN	-0.8957366
-1.0265054	BY E SEVEN	-0.8957366
-1.0265054	IN E SEVEN	-0.8957366
-1.0265054	WITH T SEVEN	-0.8957366
-1.0265054	AT T SEVEN	-0.8957366
-1.0265054	BY T SEVEN	-0.8957366
-1.0265054	IN T SEVEN	-0.8957366
-1.0265054	WITH O SEVEN	-0.8957366
-1.0265054	AT O SEVEN	-0.8957366
-1.0265054	BY O SEVEN	-0.8957366
-1.0265054	IN O SEVEN	-0.8957366
-1.0265054	WITH X SEVEN	-0.8957366
-1.0265054	AT X SEVEN	-0.8957366
-1.0265054	BY X SEVEN	-0.8957366
-1.0265054	IN X SEVEN	-0.8957366
-0.6110239	Y EIGHT SOON	-0.8957366
-0.6110239	J EIGHT SOON	-0.8957366
-0.6110239	R EIGHT SOON	-0.8957366
-0.6110239	Q EIGHT SOON	-0.8957366
-0.6110239	C EIGHT SOON	-0.8957366
-0.6110239	P EIGHT SOON	-0.8957366
-0.6110239	K EIGHT SOON	-0.8957366
-0.6110239	G EIGHT SOON	-0.8957366
-0.6110239	M EIGHT SOON	-0.8957366
-0.6110239	N EIGHT SOON	-0.8957366
-0.6110239	F EIGHT SOON	-0.8957366
-0.6110239	A EIGHT SOON	-0.8957366
-0.6110239	B EIGHT SOON	-0.8957366
-0.6110239	I EIGHT SOON	-0.8957366
-0.6110239	D EIGHT SOON	-0.8957366
-0.6110239	Z EIGHT SOON	-0.8957366
-0.6110239	S EIGHT SOON	-0.8957366
-0.6110239	V EIGHT SOON	-0.8957366
-0.6110239	U EIGHT SOON	-0.8957366
-0.6110239	H EIGHT SOON	-0.8957366
-0.6110239	L EIGHT SOON	-0.8957366
-0.6110239	E EIGHT SOON	-0.8957366
-0.6110239	T EIGHT SOON	-0.8957366
-0.6110239	O EIGHT SOON	-0.8957366
-0.6110239	X EIGHT SOON	-0.8957366
-0.6110239	Y SIX SOON	-0.8957366
-0.6110239	J SIX SOON	-0.8957366
-0.6110239	R SIX SOON	-0.8957366
-0.6110239	Q SIX SOON	-0.8957366
-0.6110239	C SIX SOON	-0.8957366
-0.6110239	P SIX SOON	-0.8957366
-0.6110239	K SIX SOON	-0.8957366
-0.6110239	G SIX SOON	-0.8957366
-0.6110239	M SIX SOON	-0.8957366
-0.6110239	N SIX SOON	-0.8957366
-0.6110239	F SIX SOON	-0.8957366
-0.6110239	A SIX SOON	-0.8957366
-0.6110239	B SIX SOON	-0.8957366
-0.6110239	I SIX SOON	-0.8957366
-0.6110239	D SIX SOON	-0.8957366
-0.6110239	Z SIX SOON	-0.8957366
-0.6110239	S SIX SOON	-0.8957366
-0.6110239	V SIX SOON	-0.8957366
-0.6110239	U SIX SOON	-0.8957366
-0.6110239	H SIX SOON	-0.8957366
-0.6110239	L SIX SOON	-0.8957366
-0.6110239	E SIX SOON	-0.8957366
-0.6110239	T SIX SOON	-0.8957366
-0.6110239	O SIX SOON	-0.8957366
-0.6110239	X SIX SOON	-0.8957366
-0.6110239	Y THREE SOON	-0.8957366
-0.6110239	J THREE SOON	-0.8957366
-0.6110239	R THREE SOON	-0.8957366
-0.6110239	Q THREE SOON	-0.8957366
-0.6110239	C THREE SOON	-0.8957366
-0.6110239	P THREE SOON	-0.8957366
-0.6110239	K THREE SOON	-0.8957366
-0.6110239	G THREE SOON	-0.8957366
-0.6110239	M THREE SOON	-0.8957366
-0.6110239	N THREE SOON	-0.8957366
-0.6110239	F THREE SOON	-0.8957366
-0.6110239	A THREE SOON	-0.8957366
-0.6110239	B THREE SOON	-0.8957366
-0.6110239	I THREE SOON	-0.8957366
-0.6110239	D THREE SOON	-0.8957366
-0.6110239	Z THREE SOON	-0.8957366
-0.6110239	S THREE SOON	-0.8957366
-0.6110239	V THREE SOON	-0.8957366
-0.6110239	U THREE SOON	-0.8957366
-0.6110239	H THREE SOON	-0.8957366
-0.6110239	L THREE SOON	-0.8957366
-0.6110239	E THREE SOON	-0.8957366
-0.6110239	T THREE SOON	-0.8957366
-0.6110239	O THREE SOON	-0.8957366
-0.6110239	X THREE SOON	-0.8957366
-0.6110239	Y SEVEN SOON	-0.8957366
-0.6110239	J SEVEN SOON	-0.8957366
-0.6110239	R SEVEN SOON	-0.8957366
-0.6110239	Q SEVEN SOON	-0.8957366
-0.6110239	C SEVEN SOON	-0.8957366
-0.6110239	P SEVEN SOON	-0.8957366
-0.6110239	K SEVEN SOON	-0.8957366
-0.6110239	G SEVEN SOON	-0.8957366
-0.6110239	M SEVEN SOON	-0.8957366
-0.6110239	N SEVEN SOON	-0.8957366
-0.6110239	F SEVEN SOON	-0.8957366
-0.6110239	A SEVEN SOON	-0.8957366
-0.6110239	B SEVEN SOON	-0.8957366
-0.6110239	I SEVEN SOON	-0.8957366
-0.6110239	D SEVEN SOON	-0.8957366
-0.6110239	Z SEVEN SOON	-0.8957366
-0.6110239	S SEVEN SOON	-0.8957366
-0.6110239	V SEVEN SOON	-0.8957366
-0.6110239	U SEVEN SOON	-0.8957366
-0.6110239	H SEVEN SOON	-0.8957366
-0.6110239	L SEVEN SOON	-0.8957366
-0.6110239	E SEVEN SOON	-0.8957366
-0.6110239	T SEVEN SOON	-0.8957366
-0.6110239	O SEVEN SOON	-0.8957366
-0.6110239	X SEVEN SOON	-0.8957366
-0.6110239	Y FOUR SOON	-0.8957366
-0.6110239	J FOUR SOON	-0.8957366
-0.6110239	R FOUR SOON	-0.8957366
-0.6110239	Q FOUR SOON	-0.8957366
-0.6110239	C FOUR SOON	-0.8957366
-0.6110239	P FOUR SOON	-0.8957366
-0.6110239	K FOUR SOON	-0.8957366
-0.6110239	G FOUR SOON	-0.8957366
-0.6110239	M FOUR SOON	-0.8957366
-0.6110239	N FOUR SOON	-0.8957366
-0.6110239	F FOUR SOON	-0.8957366
-0.6110239	A FOUR SOON	-0.8957366
-0.6110239	B FOUR SOON	-0.8957366
-0.6110239	I FOUR SOON	-0.8957366
-0.6110239	D FOUR SOON	-0.8957366
-0.6110239	Z FOUR SOON	-0.8957366
-0.6110239	S FOUR SOON	-0.8957366
-0.6110239	V FOUR SOON	-0.8957366
-0.6110239	U FOUR SOON	-0.8957366
-0.6110239	H FOUR SOON	-0.8957366
-0.6110239	L FOUR SOON	-0.8957366
-0.6110239	E FOUR SOON	-0.8957366
-0.6110239	T FOUR SOON	-0.8957366
-0.6110239	O FOUR SOON	-0.8957366
-0.6110239	X FOUR SOON	-0.8957366
-0.6110239	Y FIVE SOON	-0.8957366
-0.6110239	J FIVE SOON	-0.8957366
-0.6110239	R FIVE SOON	-0.8957366
-0.6110239	Q FIVE SOON	-0.8957366
-0.6110239	C FIVE SOON	-0.8957366
-0.6110239	P FIVE SOON	-0.8957366
-0.6110239	K FIVE SOON	-0.8957366
-0.6110239	G FIVE SOON	-0.8957366
-0.6110239	M FIVE SOON	-0.8957366
-0.6110239	N FIVE SOON	-0.8957366
-0.6110239	F FIVE SOON	-0.8957366
-0.6110239	A FIVE SOON	-0.8957366
-0.6110239	B FIVE SOON	-0.8957366
-0.6110239	I FIVE SOON	-0.8957366
-0.6110239	D FIVE SOON	-0.8957366
-0.6110239	Z FIVE SOON	-0.8957366
-0.6110239	S FIVE SOON	-0.8957366
-0.6110239	V FIVE SOON	-0.8957366
-0.6110239	U FIVE SOON	-0.8957366
-0.6110239	H FIVE SOON	-0.8957366
-0.6110239	L FIVE SOON	-0.8957366
-0.6110239	E FIVE SOON	-0.8957366
-0.6110239	T FIVE SOON	-0.8957366
-0.6110239	O FIVE SOON	-0.8957366
-0.6110239	X FIVE SOON	-0.8957366
-0.6110239	Y ZERO SOON	-0.8957366
-0.6110239	J ZERO SOON	-0.8957366
-0.6110239	R ZERO SOON	-0.8957366
-0.6110239	Q ZERO SOON	-0.8957366
-0.6110239	C ZERO SOON	-0.8957366
-0.6110239	P ZERO SOON	-0.8957366
-0.6110239	K ZERO SOON	-0.8957366
-0.6110239	G ZERO SOON	-0.8957366
-0.6110239	M ZERO SOON	-0.8957366
-0.6110239	N ZERO SOON	-0.8957366
-0.6110239	F ZERO SOON	-0.8957366
-0.6110239	A ZERO SOON	-0.8957366
-0.6110239	B ZERO SOON	-0.8957366
-0.6110239	I ZERO SOON	-0.8957366
-0.6110239	D ZERO SOON	-0.8957366
-0.6110239	Z ZERO SOON	-0.8957366
-0.6110239	S ZERO SOON	-0.8957366
-0.6110239	V ZERO SOON	-0.8957366
-0.6110239	U ZERO SOON	-0.8957366
-0.6110239	H ZERO SOON	-0.8957366
-0.6110239	L ZERO SOON	-0.8957366
-0.6110239	E ZERO SOON	-0.8957366
-0.6110239	T ZERO SOON	-0.8957366
-0.6110239	O ZERO SOON	-0.8957366
-0.6110239	X ZERO SOON	-0.8957366
-0.6110239	Y ONE SOON	-0.8957366
-0.6110239	J ONE SOON	-0.8957366
-0.6110239	R ONE SOON	-0.8957366
-0.6110239	Q ONE SOON	-0.8957366
-0.6110239	C ONE SOON	-0.8957366
-0.6110239	P ONE SOON	-0.8957366
-0.6110239	K ONE SOON	-0.8957366
-0.6110239	G ONE SOON	-0.8957366
-0.6110239	M ONE SOON	-0.8957366
-0.6110239	N ONE SOON	-0.8957366
-0.6110239	F ONE SOON	-0.8957366
-0.6110239	A ONE SOON	-0.8957366
-0.6110239	B ONE SOON	-0.8957366
-0.6110239	I ONE SOON	-0.8957366
-0.6110239	D ONE SOON	-0.8957366
-0.6110239	Z ONE SOON	-0.8957366
-0.6110239	S ONE SOON	-0.8957366
-0.6110239	V ONE SOON	-0.8957366
-0.6110239	U ONE SOON	-0.8957366
-0.6110239	H ONE SOON	-0.8957366
-0.6110239	L ONE SOON	-0.8957366
-0.6110239	E ONE SOON	-0.8957366
-0.6110239	T ONE SOON	-0.8957366
-0.6110239	O ONE SOON	-0.8957366
-0.6110239	X ONE SOON	-0.8957366
-0.6110239	Y TWO SOON	-0.8957366
-0.6110239	J TWO SOON	-0.8957366
-0.6110239	R TWO SOON	-0.8957366
-0.6110239	Q TWO SOON	-0.8957366
-0.6110239	C TWO SOON	-0.8957366
-0.6110239	P TWO SOON	-0.8957366
-0.6110239	K TWO SOON	-0.8957366
-0.6110239	G TWO SOON	-0.8957366
-0.6110239	M TWO SOON	-0.8957366
-0.6110239	N TWO SOON	-0.8957366
-0.6110239	F TWO SOON	-0.8957366
-0.6110239	A TWO SOON	-0.8957366
-0.6110239	B TWO SOON	-0.8957366
-0.6110239	I TWO SOON	-0.8957366
-0.6110239	D TWO SOON	-0.8957366
-0.6110239	Z TWO SOON	-0.8957366
-0.6110239	S TWO SOON	-0.8957366
-0.6110239	V TWO SOON	-0.8957366
-0.6110239	U TWO SOON	-0.8957366
-0.6110239	H TWO SOON	-0.8957366
-0.6110239	L TWO SOON	-0.8957366
-0.6110239	E TWO SOON	-0.8957366
-0.6110239	T TWO SOON	-0.8957366
-0.6110239	O TWO SOON	-0.8957366
-0.6110239	X TWO SOON	-0.8957366
-0.6110239	Y NINE SOON	-0.8957366
-0.6110239	J NINE SOON	-0.8957366
-0.6110239	R NINE SOON	-0.8957366
-0.6110239	Q NINE SOON	-0.8957366
-0.6110239	C NINE SOON	-0.8957366
-0.6110239	P NINE SOON	-0.8957366
-0.6110239	K NINE SOON	-0.8957366
-0.6110239	G NINE SOON	-0.8957366
-0.6110239	M NINE SOON	-0.8957366
-0.6110239	N NINE SOON	-0.8957366
-0.6110239	F NINE SOON	-0.8957366
-0.6110239	A NINE SOON	-0.8957366
-0.6110239	B NINE SOON	-0.8957366
-0.6110239	I NINE SOON	-0.8957366
-0.6110239	D NINE SOON	-0.8957366
-0.6110239	Z NINE SOON	-0.8957366
-0.6110239	S NINE SOON	-0.8957366
-0.6110239	V NINE SOON	-0.8957366
-0.6110239	U NINE SOON	-0.8957366
-0.6110239	H NINE SOON	-0.8957366
-0.6110239	L NINE SOON	-0.8957366
-0.6110239	E NINE SOON	-0.8957366
-0.6110239	T NINE SOON	-0.8957366
-0.6110239	O NINE SOON	-0.8957366
-0.6110239	X NINE SOON	-0.8957366
-0.59376884	<s> BIN BLUE	-3.0119705
-0.602644	<s> SET BLUE	-2.997827
-0.6117556	<s> PLACE BLUE	-2.998256
-0.6008167	<s> LAY BLUE	-3.0156932
-1.4555317	GREEN WITH Q	-0.18628871
-1.5484678	BLUE WITH Q	-0.079967335
-1.4555317	RED WITH Q	-0.42794025
-1.4555317	WHITE WITH Q	-0.30044883
-1.4555317	GREEN AT Q	-0.42794025
-1.4555317	BLUE AT Q	-0.42794025
-1.4555317	RED AT Q	-0.18628871
-1.4555317	WHITE AT Q	-0.30044883
-1.4555317	GREEN BY Q	-0.18628871
-1.4555317	BLUE BY Q	-0.30044883
-1.4555317	RED BY Q	-0.18628871
-1.4555317	WHITE BY Q	-0.42794025
-1.4555317	GREEN IN Q	-0.42794025
-1.4555317	BLUE IN Q	-0.30044883
-1.4555317	RED IN Q	-0.42794025
-1.5484678	WHITE IN Q	-0.079967335
-1.0265054	WITH Y FOUR	-0.8957366
-1.0265054	AT Y FOUR	-0.8957366
-1.0265054	BY Y FOUR	-0.8957366
-1.0265054	IN Y FOUR	-0.8957366
-1.0265054	WITH J FOUR	-0.8957366
-1.0265054	AT J FOUR	-0.8957366
-1.0265054	BY J FOUR	-0.8957366
-1.0265054	IN J FOUR	-0.8957366
-1.0265054	WITH R FOUR	-0.8957366
-1.0265054	AT R FOUR	-0.8957366
-1.0265054	BY R FOUR	-0.8957366
-1.0265054	IN R FOUR	-0.8957366
-1.0265054	WITH Q FOUR	-0.8957366
-1.0265054	AT Q FOUR	-0.8957366
-1.0265054	BY Q FOUR	-0.8957366
-1.0265054	IN Q FOUR	-0.8957366
-1.0265054	WITH C FOUR	-0.8957366
-1.0265054	AT C FOUR	-0.8957366
-1.0265054	BY C FOUR	-0.8957366
-1.0265054	IN C FOUR	-0.8957366
-1.0265054	WITH P FOUR	-0.8957366
-1.0265054	AT P FOUR	-0.8957366
-1.0265054	BY P FOUR	-0.8957366
-1.0265054	IN P FOUR	-0.8957366
-1.0265054	WITH K FOUR	-0.8957366
-1.0265054	AT K FOUR	-0.8957366
-1.0265054	BY K FOUR	-0.8957366
-1.0265054	IN K FOUR	-0.8957366
-1.0265054	WITH G FOUR	-0.8957366
-1.0265054	AT G FOUR	-0.8957366
-1.0265054	BY G FOUR	-0.8957366
-1.0265054	IN G FOUR	-0.8957366
-1.0265054	WITH M FOUR	-0.8957366
-1.0265054	AT M FOUR	-0.8957366
-1.0265054	BY M FOUR	-0.8957366
-1.0265054	IN M FOUR	-0.8957366
-1.0265054	WITH N FOUR	-0.8957366
-1.0265054	AT N FOUR	-0.8957366
-1.0265054	BY N FOUR	-0.8957366
-1.0265054	IN N FOUR	-0.8957366
-1.0265054	WITH F FOUR	-0.8957366
-1.0265054	AT F FOUR	-0.8957366
-1.0265054	BY F FOUR	-0.8957366
-1.0265054	IN F FOUR	-0.8957366
-1.0265054	WITH A FOUR	-0.8957366
-1.0265054	AT A FOUR	-0.8957366
-1.0265054	BY A FOUR	-0.8957366
-1.0265054	IN A FOUR	-0.8957366
-1.0265054	WITH B FOUR	-0.8957366
-1.0265054	AT B FOUR	-0.8957366
-1.0265054	BY B FOUR	-0.8957366
-1.0265054	IN B FOUR	-0.8957366
-1.0265054	WITH I FOUR	-0.8957366
-1.0265054	AT I FOUR	-0.8957366
-1.0265054	BY I FOUR	-0.8957366
-1.0265054	IN I FOUR	-0.8957366
-1.0265054	WITH D FOUR	-0.8957366
-1.0265054	AT D FOUR	-0.8957366
-1.0265054	BY D FOUR	-0.8957366
-1.0265054	IN D FOUR	-0.8957366
-1.0265054	WITH Z FOUR	-0.8957366
-1.0265054	AT Z FOUR	-0.8957366
-1.0265054	BY Z FOUR	-0.8957366
-1.0265054	IN Z FOUR	-0.8957366
-1.0265054	WITH S FOUR	-0.8957366
-1.0265054	AT S FOUR	-0.8957366
-1.0265054	BY S FOUR	-0.8957366
-1.0265054	IN S FOUR	-0.8957366
-1.0265054	WITH V FOUR	-0.8957366
-1.0265054	AT V FOUR	-0.8957366
-1.0265054	BY V FOUR	-0.8957366
-1.0265054	IN V FOUR	-0.8957366
-1.0265054	WITH U FOUR	-0.8957366
-1.0265054	AT U FOUR	-0.8957366
-1.0265054	BY U FOUR	-0.8957366
-1.0265054	IN U FOUR	-0.8957366
-1.0265054	WITH H FOUR	-0.8957366
-1.0265054	AT H FOUR	-0.8957366
-1.0265054	BY H FOUR	-0.8957366
-1.0265054	IN H FOUR	-0.8957366
-1.0265054	WITH L FOUR	-0.8957366
-1.0265054	AT L FOUR	-0.8957366
-1.0265054	BY L FOUR	-0.8957366
-1.0265054	IN L FOUR	-0.8957366
-1.0265054	WITH E FOUR	-0.8957366
-1.0265054	AT E FOUR	-0.8957366
-1.0265054	BY E FOUR	-0.8957366
-1.0265054	IN E FOUR	-0.8957366
-1.0265054	WITH T FOUR	-0.8957366
-1.0265054	AT T FOUR	-0.8957366
-1.0265054	BY T FOUR	-0.8957366
-1.0265054	IN T FOUR	-0.8957366
-1.0265054	WITH O FOUR	-0.8957366
-1.0265054	AT O FOUR	-0.8957366
-1.0265054	BY O FOUR	-0.8957366
-1.0265054	IN O FOUR	-0.8957366
-1.0265054	WITH X FOUR	-0.8957366
-1.0265054	AT X FOUR	-0.8957366
-1.0265054	BY X FOUR	-0.8957366
-1.0265054	IN X FOUR	-0.8957366
-0.60068	<s> BIN RED	-3.005062
-0.60242945	<s> SET RED	-2.9980416
-0.60558105	<s> PLACE RED	-3.0044284
-0.6001991	<s> LAY RED	-3.0163105
-0.68861926	BIN GREEN IN	-0.7284846
-0.68861926	SET GREEN IN	-0.7284846
-0.68861926	PLACE GREEN IN	-0.7284846
-0.68861926	LAY GREEN IN	-0.7284846
-0.68861926	BIN BLUE IN	-0.7284846
-0.68861926	SET BLUE IN	-0.7284846
-0.68861926	PLACE BLUE IN	-0.7284846
-0.68861926	LAY BLUE IN	-0.7284846
-0.68861926	BIN RED IN	-0.7284846
-0.68861926	SET RED IN	-0.7284846
-0.68861926	PLACE RED IN	-0.7284846
-0.68861926	LAY RED IN	-0.7284846
-0.68861926	BIN WHITE IN	-0.7284846
-0.68861926	SET WHITE IN	-0.7284846
-0.68861926	PLACE WHITE IN	-0.7284846
-0.68861926	LAY WHITE IN	-0.7284846
-1.4555317	GREEN WITH C	-0.18628871
-1.4519093	BLUE WITH C	-0.30044883
-1.4555317	RED WITH C	-0.18628871
-1.4555317	WHITE WITH C	-0.42794025
-1.4555317	GREEN AT C	-0.42794025
-1.4555317	BLUE AT C	-0.30044883
-1.4555317	RED AT C	-0.42794025
-1.5514818	WHITE AT C	-0.079967335
-1.4555317	GREEN BY C	-0.42794025
-1.4555317	BLUE BY C	-0.42794025
-1.4555317	RED BY C	-0.18628871
-1.4555317	WHITE BY C	-0.30044883
-1.4555317	GREEN IN C	-0.18628871
-1.5514818	BLUE IN C	-0.079967335
-1.4555317	RED IN C	-0.42794025
-1.4519093	WHITE IN C	-0.30044883
-0.6110239	Y EIGHT NOW	-0.8957366
-0.6110239	J EIGHT NOW	-0.8957366
-0.6110239	R EIGHT NOW	-0.8957366
-0.6110239	Q EIGHT NOW	-0.8957366
-0.6110239	C EIGHT NOW	-0.8957366
-0.6110239	P EIGHT NOW	-0.8957366
-0.6110239	K EIGHT NOW	-0.8957366
-0.6110239	G EIGHT NOW	-0.8957366
-0.6110239	M EIGHT NOW	-0.8957366
-0.6110239	N EIGHT NOW	-0.8957366
-0.6110239	F EIGHT NOW	-0.8957366
-0.6110239	A EIGHT NOW	-0.8957366
-0.6110239	B EIGHT NOW	-0.8957366
-0.6110239	I EIGHT NOW	-0.8957366
-0.6110239	D EIGHT NOW	-0.8957366
-0.6110239	Z EIGHT NOW	-0.8957366
-0.6110239	S EIGHT NOW	-0.8957366
-0.6110239	V EIGHT NOW	-0.8957366
-0.6110239	U EIGHT NOW	-0.8957366
-0.6110239	H EIGHT NOW	-0.8957366
-0.6110239	L EIGHT NOW	-0.8957366
-0.6110239	E EIGHT NOW	-0.8957366
-0.6110239	T EIGHT NOW	-0.8957366
-0.6110239	O EIGHT NOW	-0.8957366
-0.6110239	X EIGHT NOW	-0.8957366
-0.6110239	Y SIX NOW	-0.8957366
-0.6110239	J SIX NOW	-0.8957366
-0.6110239	R SIX NOW	-0.8957366
-0.6110239	Q SIX NOW	-0.8957366
-0.6110239	C SIX NOW	-0.8957366
-0.6110239	P SIX NOW	-0.8957366
-0.6110239	K SIX NOW	-0.8957366
-0.6110239	G SIX NOW	-0.8957366
-0.6110239	M SIX NOW	-0.8957366
-0.6110239	N SIX NOW	-0.8957366
-0.6110239	F SIX NOW	-0.8957366
-0.6110239	A SIX NOW	-0.8957366
-0.6110239	B SIX NOW	-0.8957366
-0.6110239	I SIX NOW	-0.8957366
-0.6110239	D SIX NOW	-0.8957366
-0.6110239	Z SIX NOW	-0.8957366
-0.6110239	S SIX NOW	-0.8957366
-0.6110239	V SIX NOW	-0.8957366
-0.6110239	U SIX NOW	-0.8957366
-0.6110239	H SIX NOW	-0.8957366
-0.6110239	L SIX NOW	-0.8957366
-0.6110239	E SIX NOW	-0.8957366
-0.6110239	T SIX NOW	-0.8957366
-0.6110239	O SIX NOW	-0.8957366
-0.6110239	X SIX NOW	-0.8957366
-0.6110239	Y THREE NOW	-0.8957366
-0.6110239	J THREE NOW	-0.8957366
-0.6110239	R THREE NOW	-0.8957366
-0.6110239	Q THREE NOW	-0.8957366
-0.6110239	C THREE NOW	-0.8957366
-0.6110239	P THREE NOW	-0.8957366
-0.6110239	K THREE NOW	-0.8957366
-0.6110239	G THREE NOW	-0.8957366
-0.6110239	M THREE NOW	-0.8957366
-0.6110239	N THREE NOW	-0.8957366
-0.6110239	F THREE NOW	-0.8957366
-0.6110239	A THREE NOW	-0.8957366
-0.6110239	B THREE NOW	-0.8957366
-0.6110239	I THREE NOW	-0.8957366
-0.6110239	D THREE NOW	-0.8957366
-0.6110239	Z THREE NOW	-0.8957366
-0.6110239	S THREE NOW	-0.8957366
-0.6110239	V THREE NOW	-0.8957366
-0.6110239	U THREE NOW	-0.8957366
-0.6110239	H THREE NOW	-0.8957366
-0.6110239	L THREE NOW	-0.8957366
-0.6110239	E THREE NOW	-0.8957366
-0.6110239	T THREE NOW	-0.8957366
-0.6110239	O THREE NOW	-0.8957366
-0.6110239	X THREE NOW	-0.8957366
-0.6110239	Y SEVEN NOW	-0.8957366
-0.6110239	J SEVEN NOW	-0.8957366
-0.6110239	R SEVEN NOW	-0.8957366
-0.6110239	Q SEVEN NOW	-0.8957366
-0.6110239	C SEVEN NOW	-0.8957366
-0.6110239	P SEVEN NOW	-0.8957366
-0.6110239	K SEVEN NOW	-0.8957366
-0.6110239	G SEVEN NOW	-0.8957366
-0.6110239	M SEVEN NOW	-0.8957366
-0.6110239	N SEVEN NOW	-0.8957366
-0.6110239	F SEVEN NOW	-0.8957366
-0.6110239	A SEVEN NOW	-0.8957366
-0.6110239	B SEVEN NOW	-0.8957366
-0.6110239	I SEVEN NOW	-0.8957366
-0.6110239	D SEVEN NOW	-0.8957366
-0.6110239	Z SEVEN NOW	-0.8957366
-0.6110239	S SEVEN NOW	-0.8957366
-0.6110239	V SEVEN NOW	-0.8957366
-0.6110239	U SEVEN NOW	-0.8957366
-0.6110239	H SEVEN NOW	-0.8957366
-0.6110239	L SEVEN NOW	-0.8957366
-0.6110239	E SEVEN NOW	-0.8957366
-0.6110239	T SEVEN NOW	-0.8957366
-0.6110239	O SEVEN NOW	-0.8957366
-0.6110239	X SEVEN NOW	-0.8957366
-0.6110239	Y FOUR NOW	-0.8957366
-0.6110239	J FOUR NOW	-0.8957366
-0.6110239	R FOUR NOW	-0.8957366
-0.6110239	Q FOUR NOW	-0.8957366
-0.6110239	C FOUR NOW	-0.8957366
-0.6110239	P FOUR NOW	-0.8957366
-0.6110239	K FOUR NOW	-0.8957366
-0.6110239	G FOUR NOW	-0.8957366
-0.6110239	M FOUR NOW	-0.8957366
-0.6110239	N FOUR NOW	-0.8957366
-0.6110239	F FOUR NOW	-0.8957366
-0.6110239	A FOUR NOW	-0.8957366
-0.6110239	B FOUR NOW	-0.8957366
-0.6110239	I FOUR NOW	-0.8957366
-0.6110239	D FOUR NOW	-0.8957366
-0.6110239	Z FOUR NOW	-0.8957366
-0.6110239	S FOUR NOW	-0.8957366
-0.6110239	V FOUR NOW	-0.8957366
-0.6110239	U FOUR NOW	-0.8957366
-0.6110239	H FOUR NOW	-0.8957366
-0.6110239	L FOUR NOW	-0.8957366
-0.6110239	E FOUR NOW	-0.8957366
-0.6110239	T FOUR NOW	-0.8957366
-0.6110239	O FOUR NOW	-0.8957366
-0.6110239	X FOUR NOW	-0.8957366
-0.6110239	Y FIVE NOW	-0.8957366
-0.6110239	J FIVE NOW	-0.8957366
-0.6110239	R FIVE NOW	-0.8957366
-0.6110239	Q FIVE NOW	-0.8957366
-0.6110239	C FIVE NOW	-0.8957366
-0.6110239	P FIVE NOW	-0.8957366
-0.6110239	K FIVE NOW	-0.8957366
-0.6110239	G FIVE NOW	-0.8957366
-0.6110239	M FIVE NOW	-0.8957366
-0.6110239	N FIVE NOW	-0.8957366
-0.6110239	F FIVE NOW	-0.8957366
-0.6110239	A FIVE NOW	-0.8957366
-0.6110239	B FIVE NOW	-0.8957366
-0.6110239	I FIVE NOW	-0.8957366
-0.6110239	D FIVE NOW	-0.8957366
-0.6110239	Z FIVE NOW	-0.8957366
-0.6110239	S FIVE NOW	-0.8957366
-0.6110239	V FIVE NOW	-0.8957366
-0.6110239	U FIVE NOW	-0.8957366
-0.6110239	H FIVE NOW	-0.8957366
-0.6110239	L FIVE NOW	-0.8957366
-0.6110239	E FIVE NOW	-0.8957366
-0.6110239	T FIVE NOW	-0.8957366
-0.6110239	O FIVE NOW	-0.8957366
-0.6110239	X FIVE NOW	-0.8957366
-0.6110239	Y ZERO NOW	-0.8957366
-0.6110239	J ZERO NOW	-0.8957366
-0.6110239	R ZERO NOW	-0.8957366
-0.6110239	Q ZERO NOW	-0.8957366
-0.6110239	C ZERO NOW	-0.8957366
-0.6110239	P ZERO NOW	-0.8957366
-0.6110239	K ZERO NOW	-0.8957366
-0.6110239	G ZERO NOW	-0.8957366
-0.6110239	M ZERO NOW	-0.8957366
-0.6110239	N ZERO NOW	-0.8957366
-0.6110239	F ZERO NOW	-0.8957366
-0.6110239	A ZERO NOW	-0.8957366
-0.6110239	B ZERO NOW	-0.8957366
-0.6110239	I ZERO NOW	-0.8957366
-0.6110239	D ZERO NOW	-0.8957366
-0.6110239	Z ZERO NOW	-0.8957366
-0.6110239	S ZERO NOW	-0.8957366
-0.6110239	V ZERO NOW	-0.8957366
-0.6110239	U ZERO NOW	-0.8957366
-0.6110239	H ZERO NOW	-0.8957366
-0.6110239	L ZERO NOW	-0.8957366
-0.6110239	E ZERO NOW	-0.8957366
-0.6110239	T ZERO NOW	-0.8957366
-0.6110239	O ZERO NOW	-0.8957366
-0.6110239	X ZERO NOW	-0.8957366
-0.6110239	Y ONE NOW	-0.8957366
-0.6110239	J ONE NOW	-0.8957366
-0.6110239	R ONE NOW	-0.8957366
-0.6110239	Q ONE NOW	-0.8957366
-0.6110239	C ONE NOW	-0.8957366
-0.6110239	P ONE NOW	-0.8957366
-0.6110239	K ONE NOW	-0.8957366
-0.6110239	G ONE NOW	-0.8957366
-0.6110239	M ONE NOW	-0.8957366
-0.6110239	N ONE NOW	-0.8957366
-0.6110239	F ONE NOW	-0.8957366
-0.6110239	A ONE NOW	-0.8957366
-0.6110239	B ONE NOW	-0.8957366
-0.6110239	I ONE NOW	-0.8957366
-0.6110239	D ONE NOW	-0.8957366
-0.6110239	Z ONE NOW	-0.8957366
-0.6110239	S ONE NOW	-0.8957366
-0.6110239	V ONE NOW	-0.8957366
-0.6110239	U ONE NOW	-0.8957366
-0.6110239	H ONE NOW	-0.8957366
-0.6110239	L ONE NOW	-0.8957366
-0.6110239	E ONE NOW	-0.8957366
-0.6110239	T ONE NOW	-0.8957366
-0.6110239	O ONE NOW	-0.8957366
-0.6110239	X ONE NOW	-0.8957366
-0.6110239	Y TWO NOW	-0.8957366
-0.6110239	J TWO NOW	-0.8957366
-0.6110239	R TWO NOW	-0.8957366
-0.6110239	Q TWO NOW	-0.8957366
-0.6110239	C TWO NOW	-0.8957366
-0.6110239	P TWO NOW	-0.8957366
-0.6110239	K TWO NOW	-0.8957366
-0.6110239	G TWO NOW	-0.8957366
-0.6110239	M TWO NOW	-0.8957366
-0.6110239	N TWO NOW	-0.8957366
-0.6110239	F TWO NOW	-0.8957366
-0.6110239	A TWO NOW	-0.8957366
-0.6110239	B TWO NOW	-0.8957366
-0.6110239	I TWO NOW	-0.8957366
-0.6110239	D TWO NOW	-0.8957366
-0.6110239	Z TWO NOW	-0.8957366
-0.6110239	S TWO NOW	-0.8957366
-0.6110239	V TWO NOW	-0.8957366
-0.6110239	U TWO NOW	-0.8957366
-0.6110239	H TWO NOW	-0.8957366
-0.6110239	L TWO NOW	-0.8957366
-0.6110239	E TWO NOW	-0.8957366
-0.6110239	T TWO NOW	-0.8957366
-0.6110239	O TWO NOW	-0.8957366
-0.6110239	X TWO NOW	-0.8957366
-0.6110239	Y NINE NOW	-0.8957366
-0.6110239	J NINE NOW	-0.8957366
-0.6110239	R NINE NOW	-0.8957366
-0.6110239	Q NINE NOW	-0.8957366
-0.6110239	C NINE NOW	-0.8957366
-0.6110239	P NINE NOW	-0.8957366
-0.6110239	K NINE NOW	-0.8957366
-0.6110239	G NINE NOW	-0.8957366
-0.6110239	M NINE NOW	-0.8957366
-0.6110239	N NINE NOW	-0.8957366
-0.6110239	F NINE NOW	-0.8957366
-0.6110239	A NINE NOW	-0.8957366
-0.6110239	B NINE NOW	-0.8957366
-0.6110239	I NINE NOW	-0.8957366
-0.6110239	D NINE NOW	-0.8957366
-0.6110239	Z NINE NOW	-0.8957366
-0.6110239	S NINE NOW	-0.8957366
-0.6110239	V NINE NOW	-0.8957366
-0.6110239	U NINE NOW	-0.8957366
-0.6110239	H NINE NOW	-0.8957366
-0.6110239	L NINE NOW	-0.8957366
-0.6110239	E NINE NOW	-0.8957366
-0.6110239	T NINE NOW	-0.8957366
-0.6110239	O NINE NOW	-0.8957366
-0.6110239	X NINE NOW	-0.8957366
-1.4555317	GREEN WITH P	-0.30044883
-1.4519093	BLUE WITH P	-0.42794025
-1.5514818	RED WITH P	-0.079967335
-1.4555317	WHITE WITH P	-0.42794025
-1.4555317	GREEN AT P	-0.30044883
-1.4555317	BLUE AT P	-0.18628871
-1.4555317	RED AT P	-0.42794025
-1.4555317	WHITE AT P	-0.18628871
-1.4555317	GREEN BY P	-0.42794025
-1.4555317	BLUE BY P	-0.42794025
-1.4555317	RED BY P	-0.30044883
-1.4555317	WHITE BY P	-0.18628871
-1.5514818	GREEN IN P	-0.079967335
-1.4555317	BLUE IN P	-0.18628871
-1.4555317	RED IN P	-0.30044883
-1.4519093	WHITE IN P	-0.42794025
-1.0265054	WITH Y FIVE	-0.8957366
-1.0265054	AT Y FIVE	-0.8957366
-1.0265054	BY Y FIVE	-0.8957366
-1.0265054	IN Y FIVE	-0.8957366
-1.0265054	WITH J FIVE	-0.8957366
-1.0265054	AT J FIVE	-0.8957366
-1.0265054	BY J FIVE	-0.8957366
-1.0265054	IN J FIVE	-0.8957366
-1.0265054	WITH R FIVE	-0.8957366
-1.0265054	AT R FIVE	-0.8957366
-1.0265054	BY R FIVE	-0.8957366
-1.0265054	IN R FIVE	-0.8957366
-1.0265054	WITH Q FIVE	-0.8957366
-1.0265054	AT Q FIVE	-0.8957366
-1.0265054	BY Q FIVE	-0.8957366
-1.0265054	IN Q FIVE	-0.8957366
-1.0265054	WITH C FIVE	-0.8957366
-1.0265054	AT C FIVE	-0.8957366
-1.0265054	BY C FIVE	-0.8957366
-1.0265054	IN C FIVE	-0.8957366
-1.0265054	WITH P FIVE	-0.8957366
-1.0265054	AT P FIVE	-0.8957366
-1.0265054	BY P FIVE	-0.8957366
-1.0265054	IN P FIVE	-0.8957366
-1.0265054	WITH K FIVE	-0.8957366
-1.0265054	AT K FIVE	-0.8957366
-1.0265054	BY K FIVE	-0.8957366
-1.0265054	IN K FIVE	-0.8957366
-1.0265054	WITH G FIVE	-0.8957366
-1.0265054	AT G FIVE	-0.8957366
-1.0265054	BY G FIVE	-0.8957366
-1.0265054	IN G FIVE	-0.8957366
-1.0265054	WITH M FIVE	-0.8957366
-1.0265054	AT M FIVE	-0.8957366
-1.0265054	BY M FIVE	-0.8957366
-1.0265054	IN M FIVE	-0.8957366
-1.0265054	WITH N FIVE	-0.8957366
-1.0265054	AT N FIVE	-0.8957366
-1.0265054	BY N FIVE	-0.8957366
-1.0265054	IN N FIVE	-0.8957366
-1.0265054	WITH F FIVE	-0.8957366
-1.0265054	AT F FIVE	-0.8957366
-1.0265054	BY F FIVE	-0.8957366
-1.0265054	IN F FIVE	-0.8957366
-1.0265054	WITH A FIVE	-0.8957366
-1.0265054	AT A FIVE	-0.8957366
-1.0265054	BY A FIVE	-0.8957366
-1.0265054	IN A FIVE	-0.8957366
-1.0265054	WITH B FIVE	-0.8957366
-1.0265054	AT B FIVE	-0.8957366
-1.0265054	BY B FIVE	-0.8957366
-1.0265054	IN B FIVE	-0.8957366
-1.0265054	WITH I FIVE	-0.8957366
-1.0265054	AT I FIVE	-0.8957366
-1.0265054	BY I FIVE	-0.8957366
-1.0265054	IN I FIVE	-0.8957366
-1.0265054	WITH D FIVE	-0.8957366
-1.0265054	AT D FIVE	-0.8957366
-1.0265054	BY D FIVE	-0.8957366
-1.0265054	IN D FIVE	-0.8957366
-1.0265054	WITH Z FIVE	-0.8957366
-1.0265054	AT Z FIVE	-0.8957366
-1.0265054	BY Z FIVE	-0.8957366
-1.0265054	IN Z FIVE	-0.8957366
-1.0265054	WITH S FIVE	-0.8957366
-1.0265054	AT S FIVE	-0.8957366
-1.0265054	BY S FIVE	-0.8957366
-1.0265054	IN S FIVE	-0.8957366
-1.0265054	WITH V FIVE	-0.8957366
-1.0265054	AT V FIVE	-0.8957366
-1.0265054	BY V FIVE	-0.8957366
-1.0265054	IN V FIVE	-0.8957366
-1.0265054	WITH U FIVE	-0.8957366
-1.0265054	AT U FIVE	-0.8957366
-1.0265054	BY U FIVE	-0.8957366
-1.0265054	IN U FIVE	-0.8957366
-1.0265054	WITH H FIVE	-0.8957366
-1.0265054	AT H FIVE	-0.8957366
-1.0265054	BY H FIVE	-0.8957366
-1.0265054	IN H FIVE	-0.8957366
-1.0265054	WITH L FIVE	-0.8957366
-1.0265054	AT L FIVE	-0.8957366
-1.0265054	BY L FIVE	-0.8957366
-1.0265054	IN L FIVE	-0.8957366
-1.0265054	WITH E FIVE	-0.8957366
-1.0265054	AT E FIVE	-0.8957366
-1.0265054	BY E FIVE	-0.8957366
-1.0265054	IN E FIVE	-0.8957366
-1.0265054	WITH T FIVE	-0.8957366
-1.0265054	AT T FIVE	-0.8957366
-1.0265054	BY T FIVE	-0.8957366
-1.0265054	IN T FIVE	-0.8957366
-1.0265054	WITH O FIVE	-0.8957366
-1.0265054	AT O FIVE	-0.8957366
-1.0265054	BY O FIVE	-0.8957366
-1.0265054	IN O FIVE	-0.8957366
-1.0265054	WITH X FIVE	-0.8957366
-1.0265054	AT X FIVE	-0.8957366
-1.0265054	BY X FIVE	-0.8957366
-1.0265054	IN X FIVE	-0.8957366
-1.4555317	GREEN WITH K	-0.18628871
-1.4519093	BLUE WITH K	-0.30044883
-1.4555317	RED WITH K	-0.18628871
-1.4555317	WHITE WITH K	-0.42794025
-1.4555317	GREEN AT K	-0.42794025
-1.4555317	BLUE AT K	-0.30044883
-1.4555317	RED AT K	-0.42794025
-1.5514818	WHITE AT K	-0.079967335
-1.4555317	GREEN BY K	-0.42794025
-1.4555317	BLUE BY K	-0.42794025
-1.4555317	RED BY K	-0.18628871
-1.4555317	WHITE BY K	-0.30044883
-1.4555317	GREEN IN K	-0.18628871
-1.5514818	BLUE IN K	-0.079967335
-1.4555317	RED IN K	-0.42794025
-1.4519093	WHITE IN K	-0.30044883
-1.4555317	GREEN WITH G	-0.42794025
-1.4519093	BLUE WITH G	-0.30044883
-1.4555317	RED WITH G	-0.42794025
-1.5514818	WHITE WITH G	-0.079967335
-1.4555317	GREEN AT G	-0.18628871
-1.4555317	BLUE AT G	-0.30044883
-1.4555317	RED AT G	-0.18628871
-1.4555317	WHITE AT G	-0.42794025
-1.4555317	GREEN BY G	-0.18628871
-1.5514818	BLUE BY G	-0.079967335
-1.4555317	RED BY G	-0.42794025
-1.4555317	WHITE BY G	-0.30044883
-1.4555317	GREEN IN G	-0.42794025
-1.4555317	BLUE IN G	-0.42794025
-1.4555317	RED IN G	-0.18628871
-1.4519093	WHITE IN G	-0.30044883
-1.4555317	GREEN WITH M	-0.42794025
-1.4519093	BLUE WITH M	-0.42794025
-1.4555317	RED WITH M	-0.18628871
-1.4555317	WHITE WITH M	-0.30044883
-1.4555317	GREEN AT M	-0.18628871
-1.5514818	BLUE AT M	-0.079967335
-1.4555317	RED AT M	-0.42794025
-1.4555317	WHITE AT M	-0.30044883
-1.4555317	GREEN BY M	-0.42794025
-1.4555317	BLUE BY M	-0.30044883
-1.4555317	RED BY M	-0.42794025
-1.5514818	WHITE BY M	-0.079967335
-1.4555317	GREEN IN M	-0.18628871
-1.4555317	BLUE IN M	-0.30044883
-1.4555317	RED IN M	-0.18628871
-1.4519093	WHITE IN M	-0.42794025
-1.0265054	WITH Y ZERO	-0.8957366
-1.0265054	AT Y ZERO	-0.8957366
-1.0265054	BY Y ZERO	-0.8957366
-1.0265054	IN Y ZERO	-0.8957366
-1.0265054	WITH J ZERO	-0.8957366
-1.0265054	AT J ZERO	-0.8957366
-1.0265054	BY J ZERO	-0.8957366
-1.0265054	IN J ZERO	-0.8957366
-1.0265054	WITH R ZERO	-0.8957366
-1.0265054	AT R ZERO	-0.8957366
-1.0265054	BY R ZERO	-0.8957366
-1.0265054	IN R ZERO	-0.8957366
-1.0265054	WITH Q ZERO	-0.8957366
-1.0265054	AT Q ZERO	-0.8957366
-1.0265054	BY Q ZERO	-0.8957366
-1.0265054	IN Q ZERO	-0.8957366
-1.0265054	WITH C ZERO	-0.8957366
-1.0265054	AT C ZERO	-0.8957366
-1.0265054	BY C ZERO	-0.8957366
-1.0265054	IN C ZERO	-0.8957366
-1.0265054	WITH P ZERO	-0.8957366
-1.0265054	AT P ZERO	-0.8957366
-1.0265054	BY P ZERO	-0.8957366
-1.0265054	IN P ZERO	-0.8957366
-1.0265054	WITH K ZERO	-0.8957366
-1.0265054	AT K ZERO	-0.8957366
-1.0265054	BY K ZERO	-0.8957366
-1.0265054	IN K ZERO	-0.8957366
-1.0265054	WITH G ZERO	-0.8957366
-1.0265054	AT G ZERO	-0.8957366
-1.0265054	BY G ZERO	-0.8957366
-1.0265054	IN G ZERO	-0.8957366
-1.0265054	WITH M ZERO	-0.8957366
-1.0265054	AT M ZERO	-0.8957366
-1.0265054	BY M ZERO	-0.8957366
-1.0265054	IN M ZERO	-0.8957366
-1.0265054	WITH N ZERO	-0.8957366
-1.0265054	AT N ZERO	-0.8957366
-1.0265054	BY N ZERO	-0.8957366
-1.0265054	IN N ZERO	-0.8957366
-1.0265054	WITH F ZERO	-0.8957366
-1.0265054	AT F ZERO	-0.8957366
-1.0265054	BY F ZERO	-0.8957366
-1.0265054	IN F ZERO	-0.8957366
-1.0265054	WITH A ZERO	-0.8957366
-1.0265054	AT A ZERO	-0.8957366
-1.0265054	BY A ZERO	-0.8957366
-1.0265054	IN A ZERO	-0.8957366
-1.0265054	WITH B ZERO	-0.8957366
-1.0265054	AT B ZERO	-0.8957366
-1.0265054	BY B ZERO	-0.8957366
-1.0265054	IN B ZERO	-0.8957366
-1.0265054	WITH I ZERO	-0.8957366
-1.0265054	AT I ZERO	-0.8957366
-1.0265054	BY I ZERO	-0.8957366
-1.0265054	IN I ZERO	-0.8957366
-1.0265054	WITH D ZERO	-0.8957366
-1.0265054	AT D ZERO	-0.8957366
-1.0265054	BY D ZERO	-0.8957366
-1.0265054	IN D ZERO	-0.8957366
-1.0265054	WITH Z ZERO	-0.8957366
-1.0265054	AT Z ZERO	-0.8957366
-1.0265054	BY Z ZERO	-0.8957366
-1.0265054	IN Z ZERO	-0.8957366
-1.0265054	WITH S ZERO	-0.8957366
-1.0265054	AT S ZERO	-0.8957366
-1.0265054	BY S ZERO	-0.8957366
-1.0265054	IN S ZERO	-0.8957366
-1.0265054	WITH V ZERO	-0.8957366
-1.0265054	AT V ZERO	-0.8957366
-1.0265054	BY V ZERO	-0.8957366
-1.0265054	IN V ZERO	-0.8957366
-1.0265054	WITH U ZERO	-0.8957366
-1.0265054	AT U ZERO	-0.8957366
-1.0265054	BY U ZERO	-0.8957366
-1.0265054	IN U ZERO	-0.8957366
-1.0265054	WITH H ZERO	-0.8957366
-1.0265054	AT H ZERO	-0.8957366
-1.0265054	BY H ZERO	-0.8957366
-1.0265054	IN H ZERO	-0.8957366
-1.0265054	WITH L ZERO	-0.8957366
-1.0265054	AT L ZERO	-0.8957366
-1.0265054	BY L ZERO	-0.8957366
-1.0265054	IN L ZERO	-0.8957366
-1.0265054	WITH E ZERO	-0.8957366
-1.0265054	AT E ZERO	-0.8957366
-1.0265054	BY E ZERO	-0.8957366
-1.0265054	IN E ZERO	-0.8957366
-1.0265054	WITH T ZERO	-0.8957366
-1.0265054	AT T ZERO	-0.8957366
-1.0265054	BY T ZERO	-0.8957366
-1.0265054	IN T ZERO	-0.8957366
-1.0265054	WITH O ZERO	-0.8957366
-1.0265054	AT O ZERO	-0.8957366
-1.0265054	BY O ZERO	-0.8957366
-1.0265054	IN O ZERO	-0.8957366
-1.0265054	WITH X ZERO	-0.8957366
-1.0265054	AT X ZERO	-0.8957366
-1.0265054	BY X ZERO	-0.8957366
-1.0265054	IN X ZERO	-0.8957366
-0.6070596	<s> BIN WHITE	-2.9986844
-0.60307354	<s> SET WHITE	-2.997398
-0.5980363	<s> PLACE WHITE	-3.0119705
-0.6008167	<s> LAY WHITE	-3.0156932
-1.5514818	GREEN WITH N	-0.079967335
-1.4519093	BLUE WITH N	-0.18628871
-1.4555317	RED WITH N	-0.30044883
-1.4555317	WHITE WITH N	-0.42794025
-1.4555317	GREEN AT N	-0.42794025
-1.4555317	BLUE AT N	-0.42794025
-1.4555317	RED AT N	-0.30044883
-1.4555317	WHITE AT N	-0.18628871
-1.4555317	GREEN BY N	-0.30044883
-1.4555317	BLUE BY N	-0.42794025
-1.5514818	RED BY N	-0.079967335
-1.4555317	WHITE BY N	-0.42794025
-1.4555317	GREEN IN N	-0.30044883
-1.4555317	BLUE IN N	-0.18628871
-1.4555317	RED IN N	-0.42794025
-1.4519093	WHITE IN N	-0.18628871
-1.5514818	GREEN WITH F	-0.079967335
-1.4519093	BLUE WITH F	-0.18628871
-1.4555317	RED WITH F	-0.30044883
-1.4555317	WHITE WITH F	-0.42794025
-1.4555317	GREEN AT F	-0.42794025
-1.4555317	BLUE AT F	-0.42794025
-1.4555317	RED AT F	-0.30044883
-1.4555317	WHITE AT F	-0.18628871
-1.4555317	GREEN BY F	-0.30044883
-1.4555317	BLUE BY F	-0.42794025
-1.5514818	RED BY F	-0.079967335
-1.4555317	WHITE BY F	-0.42794025
-1.4555317	GREEN IN F	-0.30044883
-1.4555317	BLUE IN F	-0.18628871
-1.4555317	RED IN F	-0.42794025
-1.4519093	WHITE IN F	-0.18628871
-1.4555317	GREEN WITH A	-0.18628871
-1.5484678	BLUE WITH A	-0.079967335
-1.4555317	RED WITH A	-0.42794025
-1.4555317	WHITE WITH A	-0.30044883
-1.4555317	GREEN AT A	-0.42794025
-1.4555317	BLUE AT A	-0.42794025
-1.4555317	RED AT A	-0.18628871
-1.4555317	WHITE AT A	-0.30044883
-1.4555317	GREEN BY A	-0.18628871
-1.4555317	BLUE BY A	-0.30044883
-1.4555317	RED BY A	-0.18628871
-1.4555317	WHITE BY A	-0.42794025
-1.4555317	GREEN IN A	-0.42794025
-1.4555317	BLUE IN A	-0.30044883
-1.4555317	RED IN A	-0.42794025
-1.5484678	WHITE IN A	-0.079967335
-1.0265054	WITH Y ONE	-0.8957366
-1.0265054	AT Y ONE	-0.8957366
-1.0265054	BY Y ONE	-0.8957366
-1.0265054	IN Y ONE	-0.8957366
-1.0265054	WITH J ONE	-0.8957366
-1.0265054	AT J ONE	-0.8957366
-1.0265054	BY J ONE	-0.8957366
-1.0265054	IN J ONE	-0.8957366
-1.0265054	WITH R ONE	-0.8957366
-1.0265054	AT R ONE	-0.8957366
-1.0265054	BY R ONE	-0.8957366
-1.0265054	IN R ONE	-0.8957366
-1.0265054	WITH Q ONE	-0.8957366
-1.0265054	AT Q ONE	-0.8957366
-1.0265054	BY Q ONE	-0.8957366
-1.0265054	IN Q ONE	-0.8957366
-1.0265054	WITH C ONE	-0.8957366
-1.0265054	AT C ONE	-0.8957366
-1.0265054	BY C ONE	-0.8957366
-1.0265054	IN C ONE	-0.8957366
-1.0265054	WITH P ONE	-0.8957366
-1.0265054	AT P ONE	-0.8957366
-1.0265054	BY P ONE	-0.8957366
-1.0265054	IN P ONE	-0.8957366
-1.0265054	WITH K ONE	-0.8957366
-1.0265054	AT K ONE	-0.8957366
-1.0265054	BY K ONE	-0.8957366
-1.0265054	IN K ONE	-0.8957366
-1.0265054	WITH G ONE	-0.8957366
-1.0265054	AT G ONE	-0.8957366
-1.0265054	BY G ONE	-0.8957366
-1.0265054	IN G ONE	-0.8957366
-1.0265054	WITH M ONE	-0.8957366
-1.0265054	AT M ONE	-0.8957366
-1.0265054	BY M ONE	-0.8957366
-1.0265054	IN M ONE	-0.8957366
-1.0265054	WITH N ONE	-0.8957366
-1.0265054	AT N ONE	-0.8957366
-1.0265054	BY N ONE	-0.8957366
-1.0265054	IN N ONE	-0.8957366
-1.0265054	WITH F ONE	-0.8957366
-1.0265054	AT F ONE	-0.8957366
-1.0265054	BY F ONE	-0.8957366
-1.0265054	IN F ONE	-0.8957366
-1.0265054	WITH A ONE	-0.8957366
-1.0265054	AT A ONE	-0.8957366
-1.0265054	BY A ONE	-0.8957366
-1.0265054	IN A ONE	-0.8957366
-1.0265054	WITH B ONE	-0.8957366
-1.0265054	AT B ONE	-0.8957366
-1.0265054	BY B ONE	-0.8957366
-1.0265054	IN B ONE	-0.8957366
-1.0265054	WITH I ONE	-0.8957366
-1.0265054	AT I ONE	-0.8957366
-1.0265054	BY I ONE	-0.8957366
-1.0265054	IN I ONE	-0.8957366
-1.0265054	WITH D ONE	-0.8957366
-1.0265054	AT D ONE	-0.8957366
-1.0265054	BY D ONE	-0.8957366
-1.0265054	IN D ONE	-0.8957366
-1.0265054	WITH Z ONE	-0.8957366
-1.0265054	AT Z ONE	-0.8957366
-1.0265054	BY Z ONE	-0.8957366
-1.0265054	IN Z ONE	-0.8957366
-1.0265054	WITH S ONE	-0.8957366
-1.0265054	AT S ONE	-0.8957366
-1.0265054	BY S ONE	-0.8957366
-1.0265054	IN S ONE	-0.8957366
-1.0265054	WITH V ONE	-0.8957366
-1.0265054	AT V ONE	-0.8957366
-1.0265054	BY V ONE	-0.8957366
-1.0265054	IN V ONE	-0.8957366
-1.0265054	WITH U ONE	-0.8957366
-1.0265054	AT U ONE	-0.8957366
-1.0265054	BY U ONE	-0.8957366
-1.0265054	IN U ONE	-0.8957366
-1.0265054	WITH H ONE	-0.8957366
-1.0265054	AT H ONE	-0.8957366
-1.0265054	BY H ONE	-0.8957366
-1.0265054	IN H ONE	-0.8957366
-1.0265054	WITH L ONE	-0.8957366
-1.0265054	AT L ONE	-0.8957366
-1.0265054	BY L ONE	-0.8957366
-1.0265054	IN L ONE	-0.8957366
-1.0265054	WITH E ONE	-0.8957366
-1.0265054	AT E ONE	-0.8957366
-1.0265054	BY E ONE	-0.8957366
-1.0265054	IN E ONE	-0.8957366
-1.0265054	WITH T ONE	-0.8957366
-1.0265054	AT T ONE	-0.8957366
-1.0265054	BY T ONE	-0.8957366
-1.0265054	IN T ONE	-0.8957366
-1.0265054	WITH O ONE	-0.8957366
-1.0265054	AT O ONE	-0.8957366
-1.0265054	BY O ONE	-0.8957366
-1.0265054	IN O ONE	-0.8957366
-1.0265054	WITH X ONE	-0.8957366
-1.0265054	AT X ONE	-0.8957366
-1.0265054	BY X ONE	-0.8957366
-1.0265054	IN X ONE	-0.8957366
-1.4555317	GREEN WITH B	-0.42794025
-1.4519093	BLUE WITH B	-0.42794025
-1.4555317	RED WITH B	-0.30044883
-1.4555317	WHITE WITH B	-0.18628871
-1.5514818	GREEN AT B	-0.079967335
-1.4555317	BLUE AT B	-0.18628871
-1.4555317	RED AT B	-0.30044883
-1.4555317	WHITE AT B	-0.42794025
-1.4555317	GREEN BY B	-0.30044883
-1.4555317	BLUE BY B	-0.18628871
-1.4555317	RED BY B	-0.42794025
-1.4555317	WHITE BY B	-0.18628871
-1.4555317	GREEN IN B	-0.30044883
-1.4555317	BLUE IN B	-0.42794025
-1.5514818	RED IN B	-0.079967335
-1.4519093	WHITE IN B	-0.42794025
-1.4555317	GREEN WITH I	-0.18628871
-1.5484678	BLUE WITH I	-0.079967335
-1.4555317	RED WITH I	-0.42794025
-1.4555317	WHITE WITH I	-0.30044883
-1.4555317	GREEN AT I	-0.42794025
-1.4555317	BLUE AT I	-0.42794025
-1.4555317	RED AT I	-0.18628871
-1.4555317	WHITE AT I	-0.30044883
-1.4555317	GREEN BY I	-0.18628871
-1.4555317	BLUE BY I	-0.30044883
-1.4555317	RED BY I	-0.18628871
-1.4555317	WHITE BY I	-0.42794025
-1.4555317	GREEN IN I	-0.42794025
-1.4555317	BLUE IN I	-0.30044883
-1.4555317	RED IN I	-0.42794025
-1.5484678	WHITE IN I	-0.079967335
-1.0265054	WITH Y TWO	-0.8957366
-1.0265054	AT Y TWO	-0.8957366
-1.0265054	BY Y TWO	-0.8957366
-1.0265054	IN Y TWO	-0.8957366
-1.0265054	WITH J TWO	-0.8957366
-1.0265054	AT J TWO	-0.8957366
-1.0265054	BY J TWO	-0.8957366
-1.0265054	IN J TWO	-0.8957366
-1.0265054	WITH R TWO	-0.8957366
-1.0265054	AT R TWO	-0.8957366
-1.0265054	BY R TWO	-0.8957366
-1.0265054	IN R TWO	-0.8957366
-1.0265054	WITH Q TWO	-0.8957366
-1.0265054	AT Q TWO	-0.8957366
-1.0265054	BY Q TWO	-0.8957366
-1.0265054	IN Q TWO	-0.8957366
-1.0265054	WITH C TWO	-0.8957366
-1.0265054	AT C TWO	-0.8957366
-1.0265054	BY C TWO	-0.8957366
-1.0265054	IN C TWO	-0.8957366
-1.0265054	WITH P TWO	-0.8957366
-1.0265054	AT P TWO	-0.8957366
-1.0265054	BY P TWO	-0.8957366
-1.0265054	IN P TWO	-0.8957366
-1.0265054	WITH K TWO	-0.8957366
-1.0265054	AT K TWO	-0.8957366
-1.0265054	BY K TWO	-0.8957366
-1.0265054	IN K TWO	-0.8957366
-1.0265054	WITH G TWO	-0.8957366
-1.0265054	AT G TWO	-0.8957366
-1.0265054	BY G TWO	-0.8957366
-1.0265054	IN G TWO	-0.8957366
-1.0265054	WITH M TWO	-0.8957366
-1.0265054	AT M TWO	-0.8957366
-1.0265054	BY M TWO	-0.8957366
-1.0265054	IN M TWO	-0.8957366
-1.0265054	WITH N TWO	-0.8957366
-1.0265054	AT N TWO	-0.8957366
-1.0265054	BY N TWO	-0.8957366
-1.0265054	IN N TWO	-0.8957366
-1.0265054	WITH F TWO	-0.8957366
-1.0265054	AT F TWO	-0.8957366
-1.0265054	BY F TWO	-0.8957366
-1.0265054	IN F TWO	-0.8957366
-1.0265054	WITH A TWO	-0.8957366
-1.0265054	AT A TWO	-0.8957366
-1.0265054	BY A TWO	-0.8957366
-1.0265054	IN A TWO	-0.8957366
-1.0265054	WITH B TWO	-0.8957366
-1.0265054	AT B TWO	-0.8957366
-1.0265054	BY B TWO	-0.8957366
-1.0265054	IN B TWO	-0.8957366
-1.0265054	WITH I TWO	-0.8957366
-1.0265054	AT I TWO	-0.8957366
-1.0265054	BY I TWO	-0.8957366
-1.0265054	IN I TWO	-0.8957366
-1.0265054	WITH D TWO	-0.8957366
-1.0265054	AT D TWO	-0.8957366
-1.0265054	BY D TWO	-0.8957366
-1.0265054	IN D TWO	-0.8957366
-1.0265054	WITH Z TWO	-0.8957366
-1.0265054	AT Z TWO	-0.8957366
-1.0265054	BY Z TWO	-0.8957366
-1.0265054	IN Z TWO	-0.8957366
-1.0265054	WITH S TWO	-0.8957366
-1.0265054	AT S TWO	-0.8957366
-1.0265054	BY S TWO	-0.8957366
-1.0265054	IN S TWO	-0.8957366
-1.0265054	WITH V TWO	-0.8957366
-1.0265054	AT V TWO	-0.8957366
-1.0265054	BY V TWO	-0.8957366
-1.0265054	IN V TWO	-0.8957366
-1.0265054	WITH U TWO	-0.8957366
-1.0265054	AT U TWO	-0.8957366
-1.0265054	BY U TWO	-0.8957366
-1.0265054	IN U TWO	-0.8957366
-1.0265054	WITH H TWO	-0.8957366
-1.0265054	AT H TWO	-0.8957366
-1.0265054	BY H TWO	-0.8957366
-1.0265054	IN H TWO	-0.8957366
-1.0265054	WITH L TWO	-0.8957366
-1.0265054	AT L TWO	-0.8957366
-1.0265054	BY L TWO	-0.8957366
-1.0265054	IN L TWO	-0.8957366
-1.0265054	WITH E TWO	-0.8957366
-1.0265054	AT E TWO	-0.8957366
-1.0265054	BY E TWO	-0.8957366
-1.0265054	IN E TWO	-0.8957366
-1.0265054	WITH T TWO	-0.8957366
-1.0265054	AT T TWO	-0.8957366
-1.0265054	BY T TWO	-0.8957366
-1.0265054	IN T TWO	-0.8957366
-1.0265054	WITH O TWO	-0.8957366
-1.0265054	AT O TWO	-0.8957366
-1.0265054	BY O TWO	-0.8957366
-1.0265054	IN O TWO	-0.8957366
-1.0265054	WITH X TWO	-0.8957366
-1.0265054	AT X TWO	-0.8957366
-1.0265054	BY X TWO	-0.8957366
-1.0265054	IN X TWO	-0.8957366
-1.4555317	GREEN WITH D	-0.30044883
-1.4519093	BLUE WITH D	-0.18628871
-1.4555317	RED WITH D	-0.42794025
-1.4555317	WHITE WITH D	-0.18628871
-1.4555317	GREEN AT D	-0.30044883
-1.4555317	BLUE AT D	-0.42794025
-1.5514818	RED AT D	-0.079967335
-1.4555317	WHITE AT D	-0.42794025
-1.5514818	GREEN BY D	-0.079967335
-1.4555317	BLUE BY D	-0.18628871
-1.4555317	RED BY D	-0.30044883
-1.4555317	WHITE BY D	-0.42794025
-1.4555317	GREEN IN D	-0.42794025
-1.4555317	BLUE IN D	-0.42794025
-1.4555317	RED IN D	-0.30044883
-1.4519093	WHITE IN D	-0.18628871
-1.4555317	GREEN WITH Z	-0.18628871
-1.5484678	BLUE WITH Z	-0.079967335
-1.4555317	RED WITH Z	-0.42794025
-1.4555317	WHITE WITH Z	-0.30044883
-1.4555317	GREEN AT Z	-0.42794025
-1.4555317	BLUE AT Z	-0.42794025
-1.4555317	RED AT Z	-0.18628871
-1.4555317	WHITE AT Z	-0.30044883
-1.4555317	GREEN BY Z	-0.18628871
-1.4555317	BLUE BY Z	-0.30044883
-1.4555317	RED BY Z	-0.18628871
-1.4555317	WHITE BY Z	-0.42794025
-1.4555317	GREEN IN Z	-0.42794025
-1.4555317	BLUE IN Z	-0.30044883
-1.4555317	RED IN Z	-0.42794025
-1.5484678	WHITE IN Z	-0.079967335
-1.0265054	WITH Y NINE	-0.8957366
-1.0265054	AT Y NINE	-0.8957366
-1.0265054	BY Y NINE	-0.8957366
-1.0265054	IN Y NINE	-0.8957366
-1.0265054	WITH J NINE	-0.8957366
-1.0265054	AT J NINE	-0.8957366
-1.0265054	BY J NINE	-0.8957366
-1.0265054	IN J NINE	-0.8957366
-1.0265054	WITH R NINE	-0.8957366
-1.0265054	AT R NINE	-0.8957366
-1.0265054	BY R NINE	-0.8957366
-1.0265054	IN R NINE	-0.8957366
-1.0265054	WITH Q NINE	-0.8957366
-1.0265054	AT Q NINE	-0.8957366
-1.0265054	BY Q NINE	-0.8957366
-1.0265054	IN Q NINE	-0.8957366
-1.0265054	WITH C NINE	-0.8957366
-1.0265054	AT C NINE	-0.8957366
-1.0265054	BY C NINE	-0.8957366
-1.0265054	IN C NINE	-0.8957366
-1.0265054	WITH P NINE	-0.8957366
-1.0265054	AT P NINE	-0.8957366
-1.0265054	BY P NINE	-0.8957366
-1.0265054	IN P NINE	-0.8957366
-1.0265054	WITH K NINE	-0.8957366
-1.0265054	AT K NINE	-0.8957366
-1.0265054	BY K NINE	-0.8957366
-1.0265054	IN K NINE	-0.8957366
-1.0265054	WITH G NINE	-0.8957366
-1.0265054	AT G NINE	-0.8957366
-1.0265054	BY G NINE	-0.8957366
-1.0265054	IN G NINE	-0.8957366
-1.0265054	WITH M NINE	-0.8957366
-1.0265054	AT M NINE	-0.8957366
-1.0265054	BY M NINE	-0.8957366
-1.0265054	IN M NINE	-0.8957366
-1.0265054	WITH N NINE	-0.8957366
-1.0265054	AT N NINE	-0.8957366
-1.0265054	BY N NINE	-0.8957366
-1.0265054	IN N NINE	-0.8957366
-1.0265054	WITH F NINE	-0.8957366
-1.0265054	AT F NINE	-0.8957366
-1.0265054	BY F NINE	-0.8957366
-1.0265054	IN F NINE	-0.8957366
-1.0265054	WITH A NINE	-0.8957366
-1.0265054	AT A NINE	-0.8957366
-1.0265054	BY A NINE	-0.8957366
-1.0265054	IN A NINE	-0.8957366
-1.0265054	WITH B NINE	-0.8957366
-1.0265054	AT B NINE	-0.8957366
-1.0265054	BY B NINE	-0.8957366
-1.0265054	IN B NINE	-0.8957366
-1.0265054	WITH I NINE	-0.8957366
-1.0265054	AT I NINE	-0.8957366
-1.0265054	BY I NINE	-0.8957366
-1.0265054	IN I NINE	-0.8957366
-1.0265054	WITH D NINE	-0.8957366
-1.0265054	AT D NINE	-0.8957366
-1.0265054	BY D NINE	-0.8957366
-1.0265054	IN D NINE	-0.8957366
-1.0265054	WITH Z NINE	-0.8957366
-1.0265054	AT Z NINE	-0.8957366
-1.0265054	BY Z NINE	-0.8957366
-1.0265054	IN Z NINE	-0.8957366
-1.0265054	WITH S NINE	-0.8957366
-1.0265054	AT S NINE	-0.8957366
-1.0265054	BY S NINE	-0.8957366
-1.0265054	IN S NINE	-0.8957366
-1.0265054	WITH V NINE	-0.8957366
-1.0265054	AT V NINE	-0.8957366
-1.0265054	BY V NINE	-0.8957366
-1.0265054	IN V NINE	-0.8957366
-1.0265054	WITH U NINE	-0.8957366
-1.0265054	AT U NINE	-0.8957366
-1.0265054	BY U NINE	-0.8957366
-1.0265054	IN U NINE	-0.8957366
-1.0265054	WITH H NINE	-0.8957366
-1.0265054	AT H NINE	-0.8957366
-1.0265054	BY H NINE	-0.8957366
-1.0265054	IN H NINE	-0.8957366
-1.0265054	WITH L NINE	-0.8957366
-1.0265054	AT L NINE	-0.8957366
-1.0265054	BY L NINE	-0.8957366
-1.0265054	IN L NINE	-0.8957366
-1.0265054	WITH E NINE	-0.8957366
-1.0265054	AT E NINE	-0.8957366
-1.0265054	BY E NINE	-0.8957366
-1.0265054	IN E NINE	-0.8957366
-1.0265054	WITH T NINE	-0.8957366
-1.0265054	AT T NINE	-0.8957366
-1.0265054	BY T NINE	-0.8957366
-1.0265054	IN T NINE	-0.8957366
-1.0265054	WITH O NINE	-0.8957366
-1.0265054	AT O NINE	-0.8957366
-1.0265054	BY O NINE	-0.8957366
-1.0265054	IN O NINE	-0.8957366
-1.0265054	WITH X NINE	-0.8957366
-1.0265054	AT X NINE	-0.8957366
-1.0265054	BY X NINE	-0.8957366
-1.0265054	IN X NINE	-0.8957366
-1.4555317	GREEN WITH S	-0.18628871
-1.4519093	BLUE WITH S	-0.30044883
-1.4555317	RED WITH S	-0.18628871
-1.4555317	WHITE WITH S	-0.42794025
-1.4555317	GREEN AT S	-0.42794025
-1.4555317	BLUE AT S	-0.30044883
-1.4555317	RED AT S	-0.42794025
-1.5514818	WHITE AT S	-0.079967335
-1.4555317	GREEN BY S	-0.42794025
-1.4555317	BLUE BY S	-0.42794025
-1.4555317	RED BY S	-0.18628871
-1.4555317	WHITE BY S	-0.30044883
-1.4555317	GREEN IN S	-0.18628871
-1.5514818	BLUE IN S	-0.079967335
-1.4555317	RED IN S	-0.42794025
-1.4519093	WHITE IN S	-0.30044883
-1.5514818	GREEN WITH V	-0.079967335
-1.4519093	BLUE WITH V	-0.18628871
-1.4555317	RED WITH V	-0.30044883
-1.4555317	WHITE WITH V	-0.42794025
-1.4555317	GREEN AT V	-0.42794025
-1.4555317	BLUE AT V	-0.42794025
-1.4555317	RED AT V	-0.30044883
-1.4555317	WHITE AT V	-0.18628871
-1.4555317	GREEN BY V	-0.30044883
-1.4555317	BLUE BY V	-0.42794025
-1.5514818	RED BY V	-0.079967335
-1.4555317	WHITE BY V	-0.42794025
-1.4555317	GREEN IN V	-0.30044883
-1.4555317	BLUE IN V	-0.18628871
-1.4555317	RED IN V	-0.42794025
-1.4519093	WHITE IN V	-0.18628871
-1.4555317	GREEN WITH U	-0.42794025
-1.4519093	BLUE WITH U	-0.42794025
-1.4555317	RED WITH U	-0.18628871
-1.4555317	WHITE WITH U	-0.30044883
-1.4555317	GREEN AT U	-0.18628871
-1.5514818	BLUE AT U	-0.079967335
-1.4555317	RED AT U	-0.42794025
-1.4555317	WHITE AT U	-0.30044883
-1.4555317	GREEN BY U	-0.42794025
-1.4555317	BLUE BY U	-0.30044883
-1.4555317	RED BY U	-0.42794025
-1.5514818	WHITE BY U	-0.079967335
-1.4555317	GREEN IN U	-0.18628871
-1.4555317	BLUE IN U	-0.30044883
-1.4555317	RED IN U	-0.18628871
-1.4519093	WHITE IN U	-0.42794025
-1.4555317	GREEN WITH H	-0.30044883
-1.4519093	BLUE WITH H	-0.42794025
-1.5514818	RED WITH H	-0.079967335
-1.4555317	WHITE WITH H	-0.42794025
-1.4555317	GREEN AT H	-0.30044883
-1.4555317	BLUE AT H	-0.18628871
-1.4555317	RED AT H	-0.42794025
-1.4555317	WHITE AT H	-0.18628871
-1.4555317	GREEN BY H	-0.42794025
-1.4555317	BLUE BY H	-0.42794025
-1.4555317	RED BY H	-0.30044883
-1.4555317	WHITE BY H	-0.18628871
-1.5514818	GREEN IN H	-0.079967335
-1.4555317	BLUE IN H	-0.18628871
-1.4555317	RED IN H	-0.30044883
-1.4519093	WHITE IN H	-0.42794025
-1.4555317	GREEN WITH L	-0.30044883
-1.4519093	BLUE WITH L	-0.18628871
-1.4555317	RED WITH L	-0.42794025
-1.4555317	WHITE WITH L	-0.18628871
-1.4555317	GREEN AT L	-0.30044883
-1.4555317	BLUE AT L	-0.42794025
-1.5514818	RED AT L	-0.079967335
-1.4555317	WHITE AT L	-0.42794025
-1.5514818	GREEN BY L	-0.079967335
-1.4555317	BLUE BY L	-0.18628871
-1.4555317	RED BY L	-0.30044883
-1.4555317	WHITE BY L	-0.42794025
-1.4555317	GREEN IN L	-0.42794025
-1.4555317	BLUE IN L	-0.42794025
-1.4555317	RED IN L	-0.30044883
-1.4519093	WHITE IN L	-0.18628871
-1.4555317	GREEN WITH E	-0.42794025
-1.4519093	BLUE WITH E	-0.42794025
-1.4555317	RED WITH E	-0.18628871
-1.4555317	WHITE WITH E	-0.30044883
-1.4555317	GREEN AT E	-0.18628871
-1.5514818	BLUE AT E	-0.079967335
-1.4555317	RED AT E	-0.42794025
-1.4555317	WHITE AT E	-0.30044883
-1.4555317	GREEN BY E	-0.42794025
-1.4555317	BLUE BY E	-0.30044883
-1.4555317	RED BY E	-0.42794025
-1.5514818	WHITE BY E	-0.079967335
-1.4555317	GREEN IN E	-0.18628871
-1.4555317	BLUE IN E	-0.30044883
-1.4555317	RED IN E	-0.18628871
-1.4519093	WHITE IN E	-0.42794025
-1.4555317	GREEN WITH T	-0.30044883
-1.4519093	BLUE WITH T	-0.18628871
-1.4555317	RED WITH T	-0.42794025
-1.4555317	WHITE WITH T	-0.18628871
-1.4555317	GREEN AT T	-0.30044883
-1.4555317	BLUE AT T	-0.42794025
-1.5514818	RED AT T	-0.079967335
-1.4555317	WHITE AT T	-0.42794025
-1.5514818	GREEN BY T	-0.079967335
-1.4555317	BLUE BY T	-0.18628871
-1.4555317	RED BY T	-0.30044883
-1.4555317	WHITE BY T	-0.42794025
-1.4555317	GREEN IN T	-0.42794025
-1.4555317	BLUE IN T	-0.42794025
-1.4555317	RED IN T	-0.30044883
-1.4519093	WHITE IN T	-0.18628871
-1.4555317	GREEN WITH O	-0.42794025
-1.4519093	BLUE WITH O	-0.30044883
-1.4555317	RED WITH O	-0.42794025
-1.5514818	WHITE WITH O	-0.079967335
-1.4555317	GREEN AT O	-0.18628871
-1.4555317	BLUE AT O	-0.30044883
-1.4555317	RED AT O	-0.18628871
-1.4555317	WHITE AT O	-0.42794025
-1.4555317	GREEN BY O	-0.18628871
-1.5514818	BLUE BY O	-0.079967335
-1.4555317	RED BY O	-0.42794025
-1.4555317	WHITE BY O	-0.30044883
-1.4555317	GREEN IN O	-0.42794025
-1.4555317	BLUE IN O	-0.42794025
-1.4555317	RED IN O	-0.18628871
-1.4519093	WHITE IN O	-0.30044883
-1.4555317	GREEN WITH X	-0.42794025
-1.4519093	BLUE WITH X	-0.30044883
-1.4555317	RED WITH X	-0.42794025
-1.5514818	WHITE WITH X	-0.079967335
-1.4555317	GREEN AT X	-0.18628871
-1.4555317	BLUE AT X	-0.30044883
-1.4555317	RED AT X	-0.18628871
-1.4555317	WHITE AT X	-0.42794025
-1.4555317	GREEN BY X	-0.18628871
-1.5514818	BLUE BY X	-0.079967335
-1.4555317	RED BY X	-0.42794025
-1.4555317	WHITE BY X	-0.30044883
-1.4555317	GREEN IN X	-0.42794025
-1.4555317	BLUE IN X	-0.42794025
-1.4555317	RED IN X	-0.18628871
-1.4519093	WHITE IN X	-0.30044883

\4-grams:
-0.0004927082	Y EIGHT PLEASE </s>	0
-0.0004927082	J EIGHT PLEASE </s>	0
-0.0004927082	R EIGHT PLEASE </s>	0
-0.0004927082	Q EIGHT PLEASE </s>	0
-0.0004927082	C EIGHT PLEASE </s>	0
-0.0004927082	P EIGHT PLEASE </s>	0
-0.0004927082	K EIGHT PLEASE </s>	0
-0.0004927082	G EIGHT PLEASE </s>	0
-0.0004927082	M EIGHT PLEASE </s>	0
-0.0004927082	N EIGHT PLEASE </s>	0
-0.0004927082	F EIGHT PLEASE </s>	0
-0.0004927082	A EIGHT PLEASE </s>	0
-0.0004927082	B EIGHT PLEASE </s>	0
-0.0004927082	I EIGHT PLEASE </s>	0
-0.0004927082	D EIGHT PLEASE </s>	0
-0.0004927082	Z EIGHT PLEASE </s>	0
-0.0004927082	S EIGHT PLEASE </s>	0
-0.0004927082	V EIGHT PLEASE </s>	0
-0.0004927082	U EIGHT PLEASE </s>	0
-0.0004927082	H EIGHT PLEASE </s>	0
-0.0004927082	L EIGHT PLEASE </s>	0
-0.0004927082	E EIGHT PLEASE </s>	0
-0.0004927082	T EIGHT PLEASE </s>	0
-0.0004927082	O EIGHT PLEASE </s>	0
-0.0004927082	X EIGHT PLEASE </s>	0
-0.0004927082	Y SIX PLEASE </s>	0
-0.0004927082	J SIX PLEASE </s>	0
