\data\
ngram 1=29
ngram 2=300
ngram 3=1167
ngram 4=2400
ngram 5=4797

\1-grams:
-2.3168242	<unk>	0
0	<s>	-3.7403626
-2.0078254	</s>	0
-1.6353596	B	-0.41017446
-1.4378488	I	-0.47712123
-1.0801129	N	-0.5788301
-1.6353596	G	-0.41753554
-1.6353596	R	-0.48337018
-1.0801129	E	-0.58087075
-1.7028651	W	-0.3521825
-1.0801129	T	-0.64425766
-1.7028651	H	-0.38021123
-1.7028651	Y	-0.4234364
-1.5254716	P	-0.46488678
-1.6353596	L	-0.42596874
-1.4378488	A	-0.4717262
-1.0630437	S	-0.81844586
-1.880917	J	-0.42596874
-1.7828295	X	-0.44445214
-1.7828295	C	-0.44120872
-1.7028651	V	-0.45593196
-1.0630437	O	-0.64051825
-1.7028651	U	-0.43572855
-1.880917	Q	-0.42596874
-1.0801129	F	-0.7900505
-1.7828295	D	-0.40823996
-1.880917	K	-0.42596874
-1.880917	M	-0.42596874
-1.0801129	Z	-0.66900676

\2-grams:
-1.8671234	N </s>	0
-2.0541315	E </s>	0
-1.2224236	W </s>	0
-0.6046133	<s> B	-3.7378814
-1.7671115	N B	-0.30103
-1.605056	E B	-0.30103
-1.8382739	T B	-0.30103
-1.697572	H B	-0.30103
-1.5804131	Y B	-0.30103
-1.6078339	D B	-0.30103
-1.551623	B I	-0.30103
-0.57208407	N I	-0.8381492
-0.5180874	E I	-1.0334238
-0.7378252	W I	-0.30103
-1.889174	T I	-0.30103
-1.443255	H I	-0.30103
-1.6471428	Y I	-0.30103
-1.6052904	A I	-0.30103
-0.5185418	S I	-1.2218487
-0.49014646	F I	-1.2218487
-1.5246462	D I	-0.30103
-0.9923273	B N	-0.42596874
-0.6813654	I N	-0.33361736
-1.1464145	N N	-0.33881855
-0.97747314	G N	-0.42596874
-0.8950956	R N	-0.39794
-1.1074706	E N	-0.3631779
-1.2901263	T N	-0.33881855
-1.0618249	H N	-0.34242266
-1.0325975	Y N	-0.34242266
-1.000266	P N	-0.42596874
-0.96134794	L N	-0.42596874
-1.0430409	A N	-0.42596874
-1.353825	S N	-0.42596874
-0.9191256	J N	-0.42596874
-0.85617757	X N	-0.39794
-0.9343656	C N	-0.42596874
-0.9490888	V N	-0.42596874
-0.362229	O N	-0.8519375
-0.9437684	U N	-0.42596874
-0.9191256	Q N	-0.42596874
-1.3254297	F N	-0.42596874
-0.9562161	D N	-0.42596874
-0.9191256	K N	-0.42596874
-0.9191256	M N	-0.42596874
-1.1621636	Z N	-0.42596874
-1.6654027	I G	-0.30103
-1.935495	N G	-0.30103
-1.909103	E G	-0.30103
-1.8382739	T G	-0.30103
-1.697572	H G	-0.30103
-1.5804131	Y G	-0.30103
-0.9196812	A G	-0.60206
-1.935495	N R	-0.30103
-1.0841639	G R	-0.42596874
-1.7309982	E R	-0.30103
-1.8382739	T R	-0.30103
-1.697572	H R	-0.30103
-1.5804131	Y R	-0.30103
-1.5993454	U R	-0.30103
-0.9923273	B E	-0.42596874
-1.0125004	I E	-0.42596874
-1.1464145	N E	-0.32735893
-0.97747314	G E	-0.42596874
-0.8071714	R E	-0.39794
-1.183241	E E	-0.35902193
-1.2180259	T E	-0.3631779
-1.0618249	H E	-0.34242266
-1.0325975	Y E	-0.34242266
-1.000266	P E	-0.42596874
-0.85214436	L E	-0.39794
-1.0430409	A E	-0.42596874
-0.49112344	S E	-0.8893017
-0.9191256	J E	-0.42596874
-0.9665411	X E	-0.42596874
-0.8216061	C E	-0.35902193
-0.74689424	V E	-0.3521825
-1.2118329	O E	-0.42596874
-0.83221984	U E	-0.42596874
-0.9191256	Q E	-0.42596874
-1.3254297	F E	-0.42596874
-0.9562161	D E	-0.42596874
-0.9191256	K E	-0.42596874
-0.9191256	M E	-0.42596874
-0.30328485	Z E	-0.9852767
-1.7900391	N W	-0.30103
-1.6206378	E W	-0.30103
-0.6534727	T W	-1.1139433
-1.7891885	Y W	-0.30103
-1.8857231	O W	-0.30103
-1.6313832	D W	-0.30103
-0.9923273	B T	-0.42596874
-0.9032968	I T	-0.45593196
-1.2190173	N T	-0.3631779
-0.97747314	G T	-0.42596874
-1.0054592	R T	-0.42596874
-1.183241	E T	-0.42596874
-1.2901263	T T	-0.3631779
-0.9683311	H T	-0.3493347
-1.0325975	Y T	-0.3631779
-1.000266	P T	-0.42596874
-0.96134794	L T	-0.42596874
-0.8521236	A T	-0.32274926
-1.353825	S T	-0.42596874
-0.9191256	J T	-0.42596874
-0.9665411	X T	-0.42596874
-0.9343656	C T	-0.42596874
-0.9490888	V T	-0.42596874
-1.2118329	O T	-0.42596874
-0.9437684	U T	-0.42596874
-0.9191256	Q T	-0.42596874
-1.3254297	F T	-0.42596874
-0.9562161	D T	-0.42596874
-0.9191256	K T	-0.42596874
-0.9191256	M T	-0.42596874
-1.1621636	Z T	-0.42596874
-1.9697187	N H	-0.30103
-1.6519939	G H	-0.30103
-0.542743	W H	-0.42596874
-0.6534727	T H	-0.5177391
-1.7287256	H H	-0.30103
-1.7891885	Y H	-0.30103
-1.3064929	B Y	-0.30103
-1.9697187	N Y	-0.30103
-2.039712	T Y	-0.30103
-1.7287256	H Y	-0.30103
-1.7891885	Y Y	-0.30103
-1.7169311	A Y	-0.30103
-0.6003431	<s> P	-3.7421489
-1.7245964	N P	-0.30103
-1.618268	R P	-0.30103
-1.5754757	E P	-0.30103
-1.7952209	T P	-0.30103
-1.6412609	H P	-0.30103
-1.698528	Y P	-0.30103
-1.57935	X P	-0.30103
-1.6239215	O P	-0.30103
-0.5938399	<s> L	-3.7486532
-1.1054121	B L	-0.42596874
-1.935495	N L	-0.30103
-2.0051405	T L	-0.30103
-1.697572	H L	-0.30103
-1.7568195	Y L	-0.30103
-0.78230125	P L	-0.54406804
-1.6858747	N A	-0.30103
-1.5427661	G A	-0.30103
-1.5804629	R A	-0.30103
-1.1815885	E A	-0.30103
-1.7560533	T A	-0.30103
-1.5914202	H A	-0.30103
-1.6471428	Y A	-0.30103
-1.3474343	L A	-0.30103
-1.5415448	X A	-0.30103
-1.5969117	O A	-0.30103
-1.5246462	D A	-0.30103
-0.6098671	<s> S	-3.732608
-0.98683107	B S	-0.42596874
-1.0075622	I S	-0.42596874
-1.1410985	N S	-0.39120662
-0.9722493	G S	-0.42596874
-0.8913757	R S	-0.41017446
-1.1026307	E S	-0.38818017
-1.2837679	T S	-0.39120662
-1.0549253	H S	-0.36797678
-1.026751	Y S	-0.39794
-0.9953277	P S	-0.42596874
-0.9564097	L S	-0.42596874
-0.93296736	A S	-0.47712123
-1.3488868	S S	-0.42596874
-0.9146425	J S	-0.42596874
-0.85245764	X S	-0.41017446
-0.92988247	C S	-0.42596874
-0.94460577	V S	-0.42596874
-1.0174537	O S	-0.39794
-0.9391298	U S	-0.42596874
-0.9146425	Q S	-0.42596874
-1.3204914	F S	-0.42596874
-0.9511334	D S	-0.42596874
-0.9146425	K S	-0.42596874
-0.9146425	M S	-0.42596874
-1.1576806	Z S	-0.42596874
-2.0475032	N J	-0.30103
-2.118398	T J	-0.30103
-1.7986625	H J	-0.30103
-1.8622088	Y J	-0.30103
-1.712536	I X	-0.30103
-2.006872	N X	-0.30103
-2.0772753	T X	-0.30103
-1.7622877	H X	-0.30103
-1.8241658	Y X	-0.30103
-2.006872	N C	-0.30103
-2.0772753	T C	-0.30103
-1.7622877	H C	-0.30103
-1.8241658	Y C	-0.30103
-1.7431685	A C	-0.30103
-1.6883302	I V	-0.30103
-1.9697187	N V	-0.30103
-1.941076	E V	-0.30103
-2.039712	T V	-0.30103
-1.7287256	H V	-0.30103
-1.7891885	Y V	-0.30103
-0.98683107	B O	-0.42596874
-1.0075622	I O	-0.42596874
-0.9778702	N O	-0.45229766
-0.9722493	G O	-0.42596874
-0.8913757	R O	-0.42596874
-1.2679834	E O	-0.42596874
-1.0268966	W O	-0.30103
-1.2837679	T O	-0.38818017
-1.0549253	H O	-0.3467875
-1.026751	Y O	-0.38818017
-0.9953277	P O	-0.42596874
-0.9564097	L O	-0.42596874
-1.0376793	A O	-0.42596874
-1.0203792	S O	-0.5228787
-0.9146425	J O	-0.42596874
-0.96175086	X O	-0.42596874
-0.92988247	C O	-0.42596874
-0.94460577	V O	-0.42596874
-1.1017594	O O	-0.5228787
-0.9391298	U O	-0.42596874
-0.9146425	Q O	-0.42596874
-0.4793951	F O	-0.9852767
-0.9511334	D O	-0.42596874
-0.9146425	K O	-0.42596874
-0.9146425	M O	-0.42596874
-1.1576806	Z O	-0.42596874
-1.9697187	N U	-0.30103
-2.039712	T U	-0.30103
-1.7287256	H U	-0.30103
-1.7891885	Y U	-0.30103
-1.6371777	L U	-0.30103
-1.8857231	O U	-0.30103
-2.0475032	N Q	-0.30103
-2.118398	T Q	-0.30103
-1.7986625	H Q	-0.30103
-1.8622088	Y Q	-0.30103
-0.9923273	B F	-0.42596874
-1.0125004	I F	-0.42596874
-1.2190173	N F	-0.39794
-0.97747314	G F	-0.42596874
-1.0054592	R F	-0.42596874
-1.2750845	E F	-0.42596874
-1.2901263	T F	-0.39794
-1.0618249	H F	-0.36797678
-1.0325975	Y F	-0.39794
-1.000266	P F	-0.42596874
-0.96134794	L F	-0.42596874
-1.0430409	A F	-0.42596874
-1.353825	S F	-0.42596874
-0.9191256	J F	-0.42596874
-0.9665411	X F	-0.42596874
-0.9343656	C F	-0.42596874
-0.9490888	V F	-0.42596874
-1.2118329	O F	-0.42596874
-0.9437684	U F	-0.42596874
-0.9191256	Q F	-0.42596874
-1.3254297	F F	-0.42596874
-0.9562161	D F	-0.42596874
-0.9191256	K F	-0.42596874
-0.9191256	M F	-0.42596874
-1.1621636	Z F	-0.42596874
-2.006872	N D	-0.30103
-1.9755913	E D	-0.30103
-2.0772753	T D	-0.30103
-1.7622877	H D	-0.30103
-1.8241658	Y D	-0.30103
-2.0475032	N K	-0.30103
-2.118398	T K	-0.30103
-1.7986625	H K	-0.30103
-1.8622088	Y K	-0.30103
-2.0475032	N M	-0.30103
-2.118398	T M	-0.30103
-1.7986625	H M	-0.30103
-1.8622088	Y M	-0.30103
-0.9923273	B Z	-0.42596874
-1.0125004	I Z	-0.42596874
-1.2190173	N Z	-0.38818017
-0.97747314	G Z	-0.42596874
-1.0054592	R Z	-0.42596874
-1.2750845	E Z	-0.42596874
-1.2901263	T Z	-0.38818017
-1.0618249	H Z	-0.3467875
-1.0325975	Y Z	-0.38818017
-1.000266	P Z	-0.42596874
-0.96134794	L Z	-0.42596874
-1.0430409	A Z	-0.42596874
-1.353825	S Z	-0.42596874
-0.9191256	J Z	-0.42596874
-0.9665411	X Z	-0.42596874
-0.9343656	C Z	-0.42596874
-0.9490888	V Z	-0.42596874
-1.2118329	O Z	-0.42596874
-0.9437684	U Z	-0.42596874
-0.9191256	Q Z	-0.42596874
-1.3254297	F Z	-0.42596874
-0.9562161	D Z	-0.42596874
-0.9191256	K Z	-0.42596874
-0.9191256	M Z	-0.42596874
-1.1621636	Z Z	-0.42596874

\3-grams:
-1.9092865	I N </s>	0
-1.7561045	O N </s>	0
-1.7627543	S E </s>	0
-0.27575666	O W </s>	0
-1.4196403	I N B	-0.30103
-1.389963	E N B	-0.30103
-1.3556384	T E B	-0.30103
-1.1345271	C E B	-0.30103
-1.1438118	U E B	-0.30103
-1.3268993	E T B	-0.30103
-1.5986906	A T B	-0.30103
-1.8233423	T H B	-0.30103
-1.4796628	B Y B	-0.30103
-0.8596842	A Y B	-0.30103
-0.8622191	E D B	-0.30103
-0.00007719882	<s> B I	-3.7378814
-0.13939288	B N I	-0.42596874
-0.74844086	I N I	-0.35902193
-0.48003453	N N I	-0.42596874
-0.13939288	G N I	-0.42596874
-0.21670684	R N I	-0.42596874
-0.45666695	E N I	-0.5228787
-0.48003453	T N I	-0.42596874
-0.45713782	H N I	-0.42596874
-0.45713782	Y N I	-0.42596874
-0.13939288	P N I	-0.42596874
-0.13939288	L N I	-0.42596874
-0.13939288	A N I	-0.42596874
-0.13939288	S N I	-0.42596874
-0.13939288	J N I	-0.42596874
-0.21670684	X N I	-0.42596874
-0.13939288	C N I	-0.42596874
-0.13939288	V N I	-0.42596874
-0.9363158	O N I	-0.42596874
-0.13939288	U N I	-0.42596874
-0.13939288	Q N I	-0.42596874
-0.13939288	F N I	-0.42596874
-0.13939288	D N I	-0.42596874
-0.13939288	K N I	-0.42596874
-0.13939288	M N I	-0.42596874
-0.13939288	Z N I	-0.42596874
-0.13150367	B E I	-0.42596874
-0.13150367	I E I	-0.42596874
-0.5378994	N E I	-0.42596874
-0.13150367	G E I	-0.42596874
-0.43023852	R E I	-0.42596874
-0.35143894	E E I	-0.42596874
-0.43797433	T E I	-0.39794
-0.43752974	H E I	-0.42596874
-0.43752974	Y E I	-0.42596874
-0.13150367	P E I	-0.42596874
-0.20667684	L E I	-0.42596874
-0.13150367	A E I	-0.42596874
-0.9216002	S E I	-0.42596874
-0.13150367	J E I	-0.42596874
-0.13150367	X E I	-0.42596874
-0.35143894	C E I	-0.42596874
-0.384481	V E I	-0.42596874
-0.13150367	O E I	-0.42596874
-0.25865296	U E I	-0.39794
-0.13150367	Q E I	-0.42596874
-0.13150367	F E I	-0.42596874
-0.13150367	D E I	-0.42596874
-0.13150367	K E I	-0.42596874
-0.13150367	M E I	-0.42596874
-0.9296456	Z E I	-0.42596874
-0.4666833	N W I	-0.30103
-0.3718409	E W I	-0.30103
-0.22808798	D W I	-0.30103
-1.6120518	A T I	-0.30103
-0.19482975	W H I	-0.42596874
-1.7018396	T H I	-0.30103
-1.504907	B Y I	-0.30103
-0.29038465	G A I	-0.30103
-0.37045884	B S I	-0.42596874
-0.37045884	I S I	-0.42596874
-0.5538542	N S I	-0.42596874
-0.37045884	G S I	-0.42596874
-0.4027269	R S I	-0.42596874
-0.45440626	E S I	-0.42596874
-0.5538542	T S I	-0.42596874
-0.51083887	H S I	-0.42596874
-0.5408021	Y S I	-0.42596874
-0.37045884	P S I	-0.42596874
-0.37045884	L S I	-0.42596874
-0.42161134	A S I	-0.42596874
-0.37045884	S S I	-0.42596874
-0.37045884	J S I	-0.42596874
-0.4027269	X S I	-0.42596874
-0.37045884	C S I	-0.42596874
-0.37045884	V S I	-0.42596874
-0.43038696	O S I	-0.42596874
-0.37045884	U S I	-0.42596874
-0.37045884	Q S I	-0.42596874
-0.37045884	F S I	-0.42596874
-0.37045884	D S I	-0.42596874
-0.37045884	K S I	-0.42596874
-0.37045884	M S I	-0.42596874
-0.37045884	Z S I	-0.42596874
-0.36270374	B F I	-0.42596874
-0.36270374	I F I	-0.42596874
-0.5286195	N F I	-0.42596874
-0.36270374	G F I	-0.42596874
-0.36270374	R F I	-0.42596874
-0.36270374	E F I	-0.42596874
-0.5286195	T F I	-0.42596874
-0.49865633	H F I	-0.42596874
-0.5286195	Y F I	-0.42596874
-0.36270374	P F I	-0.42596874
-0.36270374	L F I	-0.42596874
-0.36270374	A F I	-0.42596874
-0.36270374	S F I	-0.42596874
-0.36270374	J F I	-0.42596874
-0.36270374	X F I	-0.42596874
-0.36270374	C F I	-0.42596874
-0.36270374	V F I	-0.42596874
-0.36270374	O F I	-0.42596874
-0.36270374	U F I	-0.42596874
-0.36270374	Q F I	-0.42596874
-0.36270374	F F I	-0.42596874
-0.36270374	D F I	-0.42596874
-0.36270374	K F I	-0.42596874
-0.36270374	M F I	-0.42596874
-0.36270374	Z F I	-0.42596874
-0.854061	E D I	-0.30103
-0.97286755	N B N	-0.30103
-0.9454206	T B N	-0.30103
-0.9125033	H B N	-0.30103
-0.9454206	Y B N	-0.30103
-0.21886465	B I N	-0.30103
-0.103309706	N I N	-0.552842
-1.2493247	E I N	-0.30103
-0.7555609	T I N	-0.30103
-0.7782288	H I N	-0.30103
-0.7555609	Y I N	-0.30103
-0.21886465	A I N	-0.30103
-0.21886465	D I N	-0.30103
-1.2908745	I N N	-0.30103
-1.1285253	N N N	-0.30103
-1.1920234	E N N	-0.30103
-1.1285253	T N N	-0.30103
-1.1084588	H N N	-0.30103
-1.1084588	Y N N	-0.30103
-0.938691	N G N	-0.30103
-0.938691	T G N	-0.30103
-0.9062614	H G N	-0.30103
-0.938691	Y G N	-0.30103
-0.8693777	N R N	-0.30103
-0.8990744	T R N	-0.30103
-0.8693777	H R N	-0.30103
-0.8990744	Y R N	-0.30103
-0.72431755	U R N	-0.30103
-1.0196958	N E N	-0.30103
-1.0147569	E E N	-0.30103
-1.1728429	T E N	-0.30103
-1.0918121	H E N	-0.30103
-1.0918121	Y E N	-0.30103
-0.83620524	V E N	-0.30103
-1.2553092	N T N	-0.30103
-1.2553092	T T N	-0.30103
-1.121658	H T N	-0.30103
-1.2553092	Y T N	-0.30103
-1.3697982	A T N	-0.30103
-0.9400802	N H N	-0.30103
-1.354713	T H N	-0.30103
-0.9400802	H H N	-0.30103
-0.9400802	Y H N	-0.30103
-1.1779337	B Y N	-0.30103
-0.9288067	N Y N	-0.30103
-0.9288067	T Y N	-0.30103
-0.9288067	H Y N	-0.30103
-0.9288067	Y Y N	-0.30103
-0.94896567	N P N	-0.30103
-0.94896567	T P N	-0.30103
-0.9157886	H P N	-0.30103
-0.9157886	Y P N	-0.30103
-0.89934486	N L N	-0.30103
-0.89934486	T L N	-0.30103
-0.89934486	H L N	-0.30103
-0.89934486	Y L N	-0.30103
-0.99637616	N A N	-0.30103
-0.9674523	T A N	-0.30103
-0.93288845	H A N	-0.30103
-0.93288845	Y A N	-0.30103
-1.3077049	N S N	-0.30103
-1.3077049	T S N	-0.30103
-1.262092	H S N	-0.30103
-1.2920552	Y S N	-0.30103
-0.88053644	N J N	-0.30103
-0.88053644	T J N	-0.30103
-0.88053644	H J N	-0.30103
-0.88053644	Y J N	-0.30103
-0.7107916	I X N	-0.30103
-0.85060245	N X N	-0.30103
-0.85060245	T X N	-0.30103
-0.85060245	H X N	-0.30103
-0.85060245	Y X N	-0.30103
-0.88744223	N C N	-0.30103
-0.88744223	T C N	-0.30103
-0.88744223	H C N	-0.30103
-0.88744223	Y C N	-0.30103
-0.89398825	N V N	-0.30103
-0.89398825	T V N	-0.30103
-0.89398825	H V N	-0.30103
-0.89398825	Y V N	-0.30103
-0.10355346	B O N	-0.42596874
-0.10355346	I O N	-0.42596874
-0.44471437	N O N	-0.39794
-0.10355346	G O N	-0.42596874
-0.22159156	R O N	-0.39794
-0.10355346	E O N	-0.42596874
-0.4657954	W O N	-0.30103
-0.30465645	T O N	-0.39794
-0.35122392	H O N	-0.39794
-0.30465645	Y O N	-0.39794
-0.10355346	P O N	-0.42596874
-0.10355346	L O N	-0.42596874
-0.10355346	A O N	-0.42596874
-0.41989154	S O N	-0.42596874
-0.10355346	J O N	-0.42596874
-0.10355346	X O N	-0.42596874
-0.10355346	C O N	-0.42596874
-0.10355346	V O N	-0.42596874
-0.080773145	O O N	-0.39794
-0.10355346	U O N	-0.42596874
-0.10355346	Q O N	-0.42596874
-0.8822895	F O N	-0.42596874
-0.10355346	D O N	-0.42596874
-0.10355346	K O N	-0.42596874
-0.10355346	M O N	-0.42596874
-0.10355346	Z O N	-0.42596874
-0.891637	N U N	-0.30103
-0.891637	T U N	-0.30103
-0.891637	H U N	-0.30103
-0.891637	Y U N	-0.30103
-0.88053644	N Q N	-0.30103
-0.88053644	T Q N	-0.30103
-0.88053644	H Q N	-0.30103
-0.88053644	Y Q N	-0.30103
-1.2819912	N F N	-0.30103
-1.2819912	T F N	-0.30103
-1.252028	H F N	-0.30103
-1.2819912	Y F N	-0.30103
-0.89711297	N D N	-0.30103
-0.89711297	T D N	-0.30103
-0.89711297	H D N	-0.30103
-0.89711297	Y D N	-0.30103
-0.88053644	N K N	-0.30103
-0.88053644	T K N	-0.30103
-0.88053644	H K N	-0.30103
-0.88053644	Y K N	-0.30103
-0.88053644	N M N	-0.30103
-0.88053644	T M N	-0.30103
-0.88053644	H M N	-0.30103
-0.88053644	Y M N	-0.30103
-1.1330273	N Z N	-0.30103
-1.1330273	T Z N	-0.30103
-1.0916348	H Z N	-0.30103
-1.1330273	Y Z N	-0.30103
-0.059298743	E I G	-1.2218487
-1.4497497	I N G	-0.30103
-1.1681714	C E G	-0.30103
-1.3268993	E T G	-0.30103
-1.5986906	A T G	-0.30103
-1.8233423	T H G	-0.30103
-1.4796628	B Y G	-0.30103
-0.8596842	A Y G	-0.30103
-0.93661815	N A G	-0.30103
-0.25168994	R A G	-0.30103
-0.5084179	E A G	-0.30103
-0.9113064	T A G	-0.30103
-0.25168994	X A G	-0.30103
-0.25168994	O A G	-0.30103
-1.4497497	I N R	-0.3212334
-0.98425746	N G R	-0.30103
-0.26664916	E G R	-0.30103
-0.98425746	T G R	-0.30103
-0.98425746	Y G R	-0.30103
-1.1510235	C E R	-0.30103
-0.09030135	Z E R	-1.2218487
-1.3268993	E T R	-0.30103
-1.5986906	A T R	-0.30103
-0.3708618	T H R	-0.8381492
-1.4796628	B Y R	-0.30103
-0.8596842	A Y R	-0.30103
-0.29023972	O U R	-0.30103
-0.97286755	N B E	-0.30103
-0.9454206	T B E	-0.30103
-0.9125033	H B E	-0.30103
-0.9454206	Y B E	-0.30103
-1.5195146	N I E	-0.30103
-0.9207828	T I E	-0.30103
-0.9543589	H I E	-0.30103
-0.9207828	Y I E	-0.30103
-1.2908745	I N E	-0.30103
-1.1285253	N N E	-0.30103
-1.1285253	T N E	-0.30103
-1.1084588	H N E	-0.30103
-1.1084588	Y N E	-0.30103
-0.12818605	O N E	-1.2218487
-0.938691	N G E	-0.30103
-0.938691	T G E	-0.30103
-0.9062614	H G E	-0.30103
-0.938691	Y G E	-0.30103
-0.8257208	N R E	-0.30103
-0.16528682	G R E	-0.42596874
-0.48419654	E R E	-0.30103
-0.69261765	T R E	-0.30103
-0.8257208	H R E	-0.30103
-0.69261765	Y R E	-0.30103
-1.2198839	N E E	-0.30103
-0.89883316	R E E	-0.30103
-1.2093594	T E E	-0.30103
-1.1234198	H E E	-0.30103
-1.1234198	Y E E	-0.30103
-1.1476074	I T E	-0.30103
-1.2250218	N T E	-0.30103
-1.2250218	T T E	-0.30103
-1.2724977	H T E	-0.30103
-1.2250218	Y T E	-0.30103
-1.3271492	A T E	-0.30103
-0.9400802	N H E	-0.30103
-1.354713	T H E	-0.30103
-0.9400802	H H E	-0.30103
-0.9400802	Y H E	-0.30103
-1.1779337	B Y E	-0.30103
-0.9288067	N Y E	-0.30103
-0.9288067	T Y E	-0.30103
-0.9288067	H Y E	-0.30103
-0.9288067	Y Y E	-0.30103
-0.94896567	N P E	-0.30103
-0.94896567	T P E	-0.30103
-0.9157886	H P E	-0.30103
-0.9157886	Y P E	-0.30103
-0.8486069	N L E	-0.30103
-0.8486069	T L E	-0.30103
-0.8486069	H L E	-0.30103
-0.8486069	Y L E	-0.30103
-0.16556874	P L E	-0.60206
-0.99637616	N A E	-0.30103
-0.9674523	T A E	-0.30103
-0.93288845	H A E	-0.30103
-0.93288845	Y A E	-0.30103
-0.000054441607	<s> S E	-3.732608
-0.36297673	B S E	-0.42596874
-0.36297673	I S E	-0.42596874
-0.45609292	N S E	-0.39794
-0.36297673	G S E	-0.42596874
-0.3943775	R S E	-0.42596874
-0.44453073	E S E	-0.42596874
-0.45609292	T S E	-0.39794
-0.49908304	H S E	-0.39794
-0.44076818	Y S E	-0.39794
-0.36297673	P S E	-0.42596874
-0.36297673	L S E	-0.42596874
-0.30410278	A S E	-0.39794
-0.36297673	S S E	-0.42596874
-0.36297673	J S E	-0.42596874
-0.3943775	X S E	-0.42596874
-0.36297673	C S E	-0.42596874
-0.36297673	V S E	-0.42596874
-0.4212427	O S E	-0.42596874
-0.36297673	U S E	-0.42596874
-0.36297673	Q S E	-0.42596874
-0.36297673	F S E	-0.42596874
-0.36297673	D S E	-0.42596874
-0.36297673	K S E	-0.42596874
-0.36297673	M S E	-0.42596874
-0.36297673	Z S E	-0.42596874
-0.88053644	N J E	-0.30103
-0.88053644	T J E	-0.30103
-0.88053644	H J E	-0.30103
-0.88053644	Y J E	-0.30103
-0.90158844	N X E	-0.30103
-0.90158844	T X E	-0.30103
-0.90158844	H X E	-0.30103
-0.90158844	Y X E	-0.30103
-0.83319324	N C E	-0.30103
-0.83319324	T C E	-0.30103
-0.83319324	H C E	-0.30103
-0.83319324	Y C E	-0.30103
-0.24003114	A C E	-0.30103
-0.22947782	I V E	-0.30103
-0.79322624	N V E	-0.30103
-0.22947782	E V E	-0.30103
-0.79322624	T V E	-0.30103
-0.79322624	H V E	-0.30103
-0.79322624	Y V E	-0.30103
-1.2917297	N O E	-0.30103
-1.1513636	T O E	-0.30103
-1.1099709	H O E	-0.30103
-1.1513636	Y O E	-0.30103
-0.8386112	N U E	-0.30103
-0.8386112	T U E	-0.30103
-0.8386112	H U E	-0.30103
-0.8386112	Y U E	-0.30103
-0.24140725	L U E	-0.30103
-0.88053644	N Q E	-0.30103
-0.88053644	T Q E	-0.30103
-0.88053644	H Q E	-0.30103
-0.88053644	Y Q E	-0.30103
-1.2819912	N F E	-0.30103
-1.2819912	T F E	-0.30103
-1.252028	H F E	-0.30103
-1.2819912	Y F E	-0.30103
-0.89711297	N D E	-0.30103
-0.89711297	T D E	-0.30103
-0.89711297	H D E	-0.30103
-0.89711297	Y D E	-0.30103
-0.88053644	N K E	-0.30103
-0.88053644	T K E	-0.30103
-0.88053644	H K E	-0.30103
-0.88053644	Y K E	-0.30103
-0.88053644	N M E	-0.30103
-0.88053644	T M E	-0.30103
-0.88053644	H M E	-0.30103
-0.88053644	Y M E	-0.30103
-0.09069594	B Z E	-0.42596874
-0.09069594	I Z E	-0.42596874
-0.2826058	N Z E	-0.39794
-0.09069594	G Z E	-0.42596874
-0.09069594	R Z E	-0.42596874
-0.09069594	E Z E	-0.42596874
-0.2826058	T Z E	-0.39794
-0.32437304	H Z E	-0.39794
-0.2826058	Y Z E	-0.39794
-0.09069594	P Z E	-0.42596874
-0.09069594	L Z E	-0.42596874
-0.09069594	A Z E	-0.42596874
-0.09069594	S Z E	-0.42596874
-0.09069594	J Z E	-0.42596874
-0.09069594	X Z E	-0.42596874
-0.09069594	C Z E	-0.42596874
-0.09069594	V Z E	-0.42596874
-0.09069594	O Z E	-0.42596874
-0.09069594	U Z E	-0.42596874
-0.09069594	Q Z E	-0.42596874
-0.09069594	F Z E	-0.42596874
-0.09069594	D Z E	-0.42596874
-0.09069594	K Z E	-0.42596874
-0.09069594	M Z E	-0.42596874
-0.09069594	Z Z E	-0.42596874
-1.8681802	I N W	-0.30103
-1.394043	E N W	-0.30103
-1.3593892	T E W	-0.30103
-1.1367991	C E W	-0.30103
-1.1458008	U E W	-0.30103
-0.4025424	B T W	-0.42596874
-0.48448223	I T W	-0.42596874
-0.5802007	N T W	-0.42596874
-0.4025424	G T W	-0.42596874
-0.4025424	R T W	-0.42596874
-0.42602655	E T W	-0.39794
-0.5802007	T T W	-0.42596874
-0.63651097	H T W	-0.42596874
-0.5802007	Y T W	-0.42596874
-0.4025424	P T W	-0.42596874
-0.4025424	L T W	-0.42596874
-0.86609226	A T W	-0.42596874
-0.4025424	S T W	-0.42596874
-0.4025424	J T W	-0.42596874
-0.4025424	X T W	-0.42596874
-0.4025424	C T W	-0.42596874
-0.4025424	V T W	-0.42596874
-0.4025424	O T W	-0.42596874
-0.4025424	U T W	-0.42596874
-0.4025424	Q T W	-0.42596874
-0.4025424	F T W	-0.42596874
-0.4025424	D T W	-0.42596874
-0.4025424	K T W	-0.42596874
-0.4025424	M T W	-0.42596874
-0.4025424	Z T W	-0.42596874
-0.8757429	A Y W	-0.30103
-0.5697675	N O W	-0.60206
-0.8642827	E D W	-0.30103
-0.97286755	N B T	-0.30103
-0.9454206	T B T	-0.30103
-0.9125033	H B T	-0.30103
-0.9454206	Y B T	-0.30103
-1.4651423	N I T	-0.30103
-0.24990045	W I T	-0.30103
-0.8732233	T I T	-0.30103
-0.72706765	H I T	-0.30103
-0.8732233	Y I T	-0.30103
-1.3364341	I N T	-0.30103
-1.1589751	N N T	-0.30103
-1.1589751	T N T	-0.30103
-1.1372386	H N T	-0.30103
-1.1372386	Y N T	-0.30103
-0.938691	N G T	-0.30103
-0.938691	T G T	-0.30103
-0.9062614	H G T	-0.30103
-0.938691	Y G T	-0.30103
-0.9179187	N R T	-0.30103
-0.9512653	T R T	-0.30103
-0.9179187	H R T	-0.30103
-0.9512653	Y R T	-0.30103
-1.2198839	N E T	-0.30103
-1.2093594	T E T	-0.30103
-1.1234198	H E T	-0.30103
-1.1234198	Y E T	-0.30103
-1.6092286	S E T	-0.30103
-1.2553092	N T T	-0.30103
-1.2553092	T T T	-0.30103
-1.3075681	H T T	-0.30103
-1.2553092	Y T T	-0.30103
-1.3697982	A T T	-0.30103
-0.9023582	N H T	-0.30103
-0.256661	G H T	-0.30103
-1.296617	T H T	-0.30103
-0.9023582	H H T	-0.30103
-0.9023582	Y H T	-0.30103
-1.1779337	B Y T	-0.30103
-0.9288067	N Y T	-0.30103
-0.9288067	T Y T	-0.30103
-0.9288067	H Y T	-0.30103
-0.9288067	Y Y T	-0.30103
-0.94896567	N P T	-0.30103
-0.94896567	T P T	-0.30103
-0.9157886	H P T	-0.30103
-0.9157886	Y P T	-0.30103
-0.89934486	N L T	-0.30103
-0.89934486	T L T	-0.30103
-0.89934486	H L T	-0.30103
-0.89934486	Y L T	-0.30103
-0.7413783	N A T	-0.30103
-0.62534505	E A T	-0.30103
-0.87685955	T A T	-0.30103
-0.84859663	H A T	-0.30103
-0.84859663	Y A T	-0.30103
-0.24391007	D A T	-0.30103
-1.3077049	N S T	-0.30103
-1.3077049	T S T	-0.30103
-1.262092	H S T	-0.30103
-1.2920552	Y S T	-0.30103
-0.88053644	N J T	-0.30103
-0.88053644	T J T	-0.30103
-0.88053644	H J T	-0.30103
-0.88053644	Y J T	-0.30103
-0.90158844	N X T	-0.30103
-0.90158844	T X T	-0.30103
-0.90158844	H X T	-0.30103
-0.90158844	Y X T	-0.30103
-0.88744223	N C T	-0.30103
-0.88744223	T C T	-0.30103
-0.88744223	H C T	-0.30103
-0.88744223	Y C T	-0.30103
-0.89398825	N V T	-0.30103
-0.89398825	T V T	-0.30103
-0.89398825	H V T	-0.30103
-0.89398825	Y V T	-0.30103
-1.2917297	N O T	-0.30103
-1.1513636	T O T	-0.30103
-1.1099709	H O T	-0.30103
-1.1513636	Y O T	-0.30103
-0.891637	N U T	-0.30103
-0.891637	T U T	-0.30103
-0.891637	H U T	-0.30103
-0.891637	Y U T	-0.30103
-0.88053644	N Q T	-0.30103
-0.88053644	T Q T	-0.30103
-0.88053644	H Q T	-0.30103
-0.88053644	Y Q T	-0.30103
-1.2819912	N F T	-0.30103
-1.2819912	T F T	-0.30103
-1.252028	H F T	-0.30103
-1.2819912	Y F T	-0.30103
-0.89711297	N D T	-0.30103
-0.89711297	T D T	-0.30103
-0.89711297	H D T	-0.30103
-0.89711297	Y D T	-0.30103
-0.88053644	N K T	-0.30103
-0.88053644	T K T	-0.30103
-0.88053644	H K T	-0.30103
-0.88053644	Y K T	-0.30103
-0.88053644	N M T	-0.30103
-0.88053644	T M T	-0.30103
-0.88053644	H M T	-0.30103
-0.88053644	Y M T	-0.30103
-1.1330273	N Z T	-0.30103
-1.1330273	T Z T	-0.30103
-1.0916348	H Z T	-0.30103
-1.1330273	Y Z T	-0.30103
-1.637408	I N H	-0.30103
-0.2914582	I G H	-0.30103
-0.40528303	N W H	-0.30103
-0.5086939	E W H	-0.30103
-1.384303	T W H	-0.30103
-0.19159071	Y W H	-0.30103
-0.4025424	B T H	-0.42596874
-0.36882907	I T H	-0.3320642
-0.5802007	N T H	-0.42596874
-0.4025424	G T H	-0.42596874
-0.4025424	R T H	-0.42596874
-0.53518754	E T H	-0.42596874
-0.5802007	T T H	-0.42596874
-0.63651097	H T H	-0.42596874
-0.5802007	Y T H	-0.42596874
-0.4025424	P T H	-0.42596874
-0.4025424	L T H	-0.42596874
-0.7945093	A T H	-0.3187588
-0.4025424	S T H	-0.42596874
-0.4025424	J T H	-0.42596874
-0.4025424	X T H	-0.42596874
-0.4025424	C T H	-0.42596874
-0.4025424	V T H	-0.42596874
-0.4025424	O T H	-0.42596874
-0.4025424	U T H	-0.42596874
-0.4025424	Q T H	-0.42596874
-0.4025424	F T H	-0.42596874
-0.4025424	D T H	-0.42596874
-0.4025424	K T H	-0.42596874
-0.4025424	M T H	-0.42596874
-0.4025424	Z T H	-0.42596874
-1.8357081	T H H	-0.30103
-1.5509195	B Y H	-0.30103
-1.0955925	N B Y	-0.30103
-0.4460917	E B Y	-0.30103
-0.28009924	D B Y	-0.30103
-1.637408	I N Y	-0.30103
-1.6452546	A T Y	-0.30103
-1.8357081	T H Y	-0.30103
-1.5509195	B Y Y	-0.30103
-0.58570397	L A Y	-0.30103
-1.5715765	I N P	-0.30103
-1.3819163	E N P	-0.30103
-0.86314607	U R P	-0.30103
-1.1467224	N E P	-0.30103
-1.1300181	E E P	-0.30103
-1.171546	V E P	-0.30103
-1.4751554	H T P	-0.30103
-1.5864656	A T P	-0.30103
-1.7996193	T H P	-0.30103
-1.5227314	B Y P	-0.30103
-0.859583	I X P	-0.30103
-1.146212	R O P	-0.30103
-0.8636399	W O P	-0.30103
-1.0232829	N B L	-0.30103
-0.6863622	E B L	-0.30103
-0.9925743	T B L	-0.30103
-0.9925743	Y B L	-0.30103
-1.6297905	I N L	-0.30103
-1.6384078	A T L	-0.30103
-1.8233423	T H L	-0.30103
-1.5413188	B Y L	-0.30103
-0.00006567767	<s> P L	-3.7421489
-0.8385098	N P L	-0.30103
-0.23467365	R P L	-0.30103
-0.23467365	E P L	-0.30103
-0.8385098	T P L	-0.30103
-0.23467365	X P L	-0.30103
-0.23467365	O P L	-0.30103
-1.5585659	I N A	-0.30103
-1.121486	E N A	-0.30103
-0.12080987	A G A	-0.60206
-0.859689	U R A	-0.30103
-1.0467166	N E A	-0.30103
-1.0395302	E E A	-0.30103
-1.2085981	T E A	-0.30103
-0.89848924	L E A	-0.30103
-1.0715401	V E A	-0.30103
-1.0595555	U E A	-0.30103
-1.4664677	H T A	-0.30103
-1.5745753	A T A	-0.30103
-1.7771254	T H A	-0.30103
-1.504907	B Y A	-0.30103
-0.00007401429	<s> L A	-3.7486532
-1.0743446	P L A	-0.30103
-0.855834	I X A	-0.30103
-1.1427472	R O A	-0.30103
-0.8612268	W O A	-0.30103
-0.854061	E D A	-0.30103
-0.9702312	N B S	-0.30103
-0.94294524	T B S	-0.30103
-0.91020817	H B S	-0.30103
-0.94294524	Y B S	-0.30103
-1.5172038	N I S	-0.30103
-0.918777	T I S	-0.30103
-0.9521922	H I S	-0.30103
-0.918777	Y I S	-0.30103
-1.2874281	I N S	-0.30103
-1.126179	N N S	-0.30103
-1.1894566	E N S	-0.30103
-1.126179	T N S	-0.30103
-1.1062367	H N S	-0.30103
-1.1062367	Y N S	-0.30103
-0.93629444	N G S	-0.30103
-0.93629444	T G S	-0.30103
-0.9040368	H G S	-0.30103
-0.93629444	Y G S	-0.30103
-0.8676207	N R S	-0.30103
-0.8971933	T R S	-0.30103
-0.8676207	H R S	-0.30103
-0.8971933	Y R S	-0.30103
-0.72305876	U R S	-0.30103
-1.0178286	N E S	-0.30103
-1.0130403	E E S	-0.30103
-1.1703981	T E S	-0.30103
-1.0896834	H E S	-0.30103
-1.0896834	Y E S	-0.30103
-1.0426521	V E S	-0.30103
-1.252755	N T S	-0.30103
-1.252755	T T S	-0.30103
-1.1197182	H T S	-0.30103
-1.252755	Y T S	-0.30103
-1.3661538	A T S	-0.30103
-0.9374609	N H S	-0.30103
-1.3505886	T H S	-0.30103
-0.9374609	H H S	-0.30103
-0.9374609	Y H S	-0.30103
-1.1738403	B Y S	-0.30103
-0.92649543	N Y S	-0.30103
-0.92649543	T Y S	-0.30103
-0.92649543	H Y S	-0.30103
-0.92649543	Y Y S	-0.30103
-0.9467647	N P S	-0.30103
-0.9467647	T P S	-0.30103
-0.91374916	H P S	-0.30103
-0.91374916	Y P S	-0.30103
-0.89719737	N L S	-0.30103
-0.89719737	T L S	-0.30103
-0.89719737	H L S	-0.30103
-0.89719737	Y L S	-0.30103
-0.94347465	N A S	-0.30103
-0.84869695	E A S	-0.30103
-0.9177718	T A S	-0.30103
-0.8868142	H A S	-0.30103
-0.8868142	Y A S	-0.30103
-1.3058944	N S S	-0.30103
-1.3058944	T S S	-0.30103
-1.2603723	H S S	-0.30103
-1.2903355	Y S S	-0.30103
-0.8784797	N J S	-0.30103
-0.8784797	T J S	-0.30103
-0.8784797	H J S	-0.30103
-0.8784797	Y J S	-0.30103
-0.70945716	I X S	-0.30103
-0.8487623	N X S	-0.30103
-0.8487623	T X S	-0.30103
-0.8487623	H X S	-0.30103
-0.8487623	Y X S	-0.30103
-0.8854245	N C S	-0.30103
-0.8854245	T C S	-0.30103
-0.8854245	H C S	-0.30103
-0.8854245	Y C S	-0.30103
-0.8920081	N V S	-0.30103
-0.8920081	T V S	-0.30103
-0.8920081	H V S	-0.30103
-0.8920081	Y V S	-0.30103
-1.1984894	N O S	-0.30103
-1.0064632	R O S	-0.30103
-0.7618776	W O S	-0.30103
-1.0718492	T O S	-0.30103
-1.0304565	H O S	-0.30103
-1.0718492	Y O S	-0.30103
-0.88957393	N U S	-0.30103
-0.88957393	T U S	-0.30103
-0.88957393	H U S	-0.30103
-0.88957393	Y U S	-0.30103
-0.8784797	N Q S	-0.30103
-0.8784797	T Q S	-0.30103
-0.8784797	H Q S	-0.30103
-0.8784797	Y Q S	-0.30103
-1.2801975	N F S	-0.30103
-1.2801975	T F S	-0.30103
-1.2502342	H F S	-0.30103
-1.2801975	Y F S	-0.30103
-0.89488757	N D S	-0.30103
-0.89488757	T D S	-0.30103
-0.89488757	H D S	-0.30103
-0.89488757	Y D S	-0.30103
-0.8784797	N K S	-0.30103
-0.8784797	T K S	-0.30103
-0.8784797	H K S	-0.30103
-0.8784797	Y K S	-0.30103
-0.8784797	N M S	-0.30103
-0.8784797	T M S	-0.30103
-0.8784797	H M S	-0.30103
-0.8784797	Y M S	-0.30103
-1.1313069	N Z S	-0.30103
-1.1313069	T Z S	-0.30103
-1.0899142	H Z S	-0.30103
-1.1313069	Y Z S	-0.30103
-1.6530559	I N J	-0.30103
-1.6592805	A T J	-0.30103
-1.861549	T H J	-0.30103
-1.5707823	B Y J	-0.30103
-0.026335126	S I X	-1.2218487
-1.6451615	I N X	-0.30103
-1.652211	A T X	-0.30103
-1.8484365	T H X	-0.30103
-1.5607374	B Y X	-0.30103
-1.6451615	I N C	-0.30103
-1.652211	A T C	-0.30103
-1.8484365	T H C	-0.30103
-1.5607374	B Y C	-0.30103
-0.58664596	L A C	-0.30103
-0.02630435	F I V	-1.2218487
-1.637408	I N V	-0.30103
-0.119448006	S E V	-1.2218487
-1.6452546	A T V	-0.30103
-1.8357081	T H V	-0.30103
-1.5509195	B Y V	-0.30103
-0.9702312	N B O	-0.30103
-0.94294524	T B O	-0.30103
-0.91020817	H B O	-0.30103
-0.94294524	Y B O	-0.30103
-1.5172038	N I O	-0.30103
-0.918777	T I O	-0.30103
-0.9521922	H I O	-0.30103
-0.918777	Y I O	-0.30103
-1.1746862	I N O	-0.30103
-0.88086736	N N O	-0.30103
-0.84743327	R N O	-0.30103
-0.83684266	E N O	-0.30103
-0.88086736	T N O	-0.30103
-1.0301868	H N O	-0.30103
-1.0301868	Y N O	-0.30103
-0.84743327	X N O	-0.30103
-1.3367927	O N O	-0.30103
-0.93629444	N G O	-0.30103
-0.93629444	T G O	-0.30103
-0.9040368	H G O	-0.30103
-0.93629444	Y G O	-0.30103
-0.8676207	N R O	-0.30103
-0.50278175	E R O	-0.30103
-0.8971933	T R O	-0.30103
-0.8676207	H R O	-0.30103
-0.8971933	Y R O	-0.30103
-1.2612078	N E O	-0.30103
-1.2463173	T E O	-0.30103
-1.1550342	H E O	-0.30103
-1.1550342	Y E O	-0.30103
-0.040445164	T W O	-1.2218487
-1.252755	N T O	-0.30103
-1.252755	T T O	-0.30103
-1.3045954	H T O	-0.30103
-1.252755	Y T O	-0.30103
-1.3661538	A T O	-0.30103
-0.9374609	N H O	-0.30103
-1.3505886	T H O	-0.30103
-0.9374609	H H O	-0.30103
-0.9374609	Y H O	-0.30103
-1.1738403	B Y O	-0.30103
-0.92649543	N Y O	-0.30103
-0.92649543	T Y O	-0.30103
-0.92649543	H Y O	-0.30103
-0.92649543	Y Y O	-0.30103
-0.9467647	N P O	-0.30103
-0.9467647	T P O	-0.30103
-0.91374916	H P O	-0.30103
-0.91374916	Y P O	-0.30103
-0.89719737	N L O	-0.30103
-0.89719737	T L O	-0.30103
-0.89719737	H L O	-0.30103
-0.89719737	Y L O	-0.30103
-0.99396026	N A O	-0.30103
-0.96519166	T A O	-0.30103
-0.9308003	H A O	-0.30103
-0.9308003	Y A O	-0.30103
-0.9945504	N S O	-0.30103
-1.0330995	R S O	-0.30103
-0.7559768	E S O	-0.30103
-0.9945504	T S O	-0.30103
-1.1157326	H S O	-0.30103
-1.1456957	Y S O	-0.30103
-1.0330995	X S O	-0.30103
-0.8595977	O S O	-0.30103
-0.8784797	N J O	-0.30103
-0.8784797	T J O	-0.30103
-0.8784797	H J O	-0.30103
-0.8784797	Y J O	-0.30103
-0.8995195	N X O	-0.30103
-0.8995195	T X O	-0.30103
-0.8995195	H X O	-0.30103
-0.8995195	Y X O	-0.30103
-0.8854245	N C O	-0.30103
-0.8854245	T C O	-0.30103
-0.8854245	H C O	-0.30103
-0.8854245	Y C O	-0.30103
-0.8920081	N V O	-0.30103
-0.8920081	T V O	-0.30103
-0.8920081	H V O	-0.30103
-0.8920081	Y V O	-0.30103
-1.2415912	N O O	-0.30103
-1.1089176	T O O	-0.30103
-1.0675249	H O O	-0.30103
-1.1089176	Y O O	-0.30103
-0.32446593	S O O	-0.60206
-0.88957393	N U O	-0.30103
-0.88957393	T U O	-0.30103
-0.88957393	H U O	-0.30103
-0.88957393	Y U O	-0.30103
-0.8784797	N Q O	-0.30103
-0.8784797	T Q O	-0.30103
-0.8784797	H Q O	-0.30103
-0.8784797	Y Q O	-0.30103
-0.3596704	B F O	-0.42596874
-0.3596704	I F O	-0.42596874
-0.43655404	N F O	-0.39794
-0.3596704	G F O	-0.42596874
-0.3596704	R F O	-0.42596874
-0.3596704	E F O	-0.42596874
-0.43655404	T F O	-0.39794
-0.49392462	H F O	-0.39794
-0.43655404	Y F O	-0.39794
-0.3596704	P F O	-0.42596874
-0.3596704	L F O	-0.42596874
-0.3596704	A F O	-0.42596874
-0.3596704	S F O	-0.42596874
-0.3596704	J F O	-0.42596874
-0.3596704	X F O	-0.42596874
-0.3596704	C F O	-0.42596874
-0.3596704	V F O	-0.42596874
-0.3596704	O F O	-0.42596874
-0.3596704	U F O	-0.42596874
-0.3596704	Q F O	-0.42596874
-0.3596704	F F O	-0.42596874
-0.3596704	D F O	-0.42596874
-0.3596704	K F O	-0.42596874
-0.3596704	M F O	-0.42596874
-0.3596704	Z F O	-0.42596874
-0.89488757	N D O	-0.30103
-0.89488757	T D O	-0.30103
-0.89488757	H D O	-0.30103
-0.89488757	Y D O	-0.30103
-0.8784797	N K O	-0.30103
-0.8784797	T K O	-0.30103
-0.8784797	H K O	-0.30103
-0.8784797	Y K O	-0.30103
-0.8784797	N M O	-0.30103
-0.8784797	T M O	-0.30103
-0.8784797	H M O	-0.30103
-0.8784797	Y M O	-0.30103
-1.1313069	N Z O	-0.30103
-1.1313069	T Z O	-0.30103
-1.0899142	H Z O	-0.30103
-1.1313069	Y Z O	-0.30103
-1.637408	I N U	-0.30103
-1.6452546	A T U	-0.30103
-1.8357081	T H U	-0.30103
-1.5509195	B Y U	-0.30103
-0.19815277	B L U	-0.42596874
-0.09060944	F O U	-1.2218487
-1.6530559	I N Q	-0.30103
-1.6592805	A T Q	-0.30103
-1.861549	T H Q	-0.30103
-1.5707823	B Y Q	-0.30103
-0.97286755	N B F	-0.30103
-0.9454206	T B F	-0.30103
-0.9125033	H B F	-0.30103
-0.9454206	Y B F	-0.30103
-1.5195146	N I F	-0.30103
-0.9207828	T I F	-0.30103
-0.9543589	H I F	-0.30103
-0.9207828	Y I F	-0.30103
-1.3364341	I N F	-0.30103
-1.1589751	N N F	-0.30103
-1.1589751	T N F	-0.30103
-1.1372386	H N F	-0.30103
-1.1372386	Y N F	-0.30103
-0.938691	N G F	-0.30103
-0.938691	T G F	-0.30103
-0.9062614	H G F	-0.30103
-0.938691	Y G F	-0.30103
-0.9179187	N R F	-0.30103
-0.9512653	T R F	-0.30103
-0.9179187	H R F	-0.30103
-0.9512653	Y R F	-0.30103
-1.2644833	N E F	-0.30103
-1.2492305	T E F	-0.30103
-1.1575096	H E F	-0.30103
-1.1575096	Y E F	-0.30103
-1.2553092	N T F	-0.30103
-1.2553092	T T F	-0.30103
-1.3075681	H T F	-0.30103
-1.2553092	Y T F	-0.30103
-1.3697982	A T F	-0.30103
-0.9400802	N H F	-0.30103
-1.354713	T H F	-0.30103
-0.9400802	H H F	-0.30103
-0.9400802	Y H F	-0.30103
-1.1779337	B Y F	-0.30103
-0.9288067	N Y F	-0.30103
-0.9288067	T Y F	-0.30103
-0.9288067	H Y F	-0.30103
-0.9288067	Y Y F	-0.30103
-0.94896567	N P F	-0.30103
-0.94896567	T P F	-0.30103
-0.9157886	H P F	-0.30103
-0.9157886	Y P F	-0.30103
-0.89934486	N L F	-0.30103
-0.89934486	T L F	-0.30103
-0.89934486	H L F	-0.30103
-0.89934486	Y L F	-0.30103
-0.99637616	N A F	-0.30103
-0.9674523	T A F	-0.30103
-0.93288845	H A F	-0.30103
-0.93288845	Y A F	-0.30103
-1.3077049	N S F	-0.30103
-1.3077049	T S F	-0.30103
-1.262092	H S F	-0.30103
-1.2920552	Y S F	-0.30103
-0.88053644	N J F	-0.30103
-0.88053644	T J F	-0.30103
-0.88053644	H J F	-0.30103
-0.88053644	Y J F	-0.30103
-0.90158844	N X F	-0.30103
-0.90158844	T X F	-0.30103
-0.90158844	H X F	-0.30103
-0.90158844	Y X F	-0.30103
-0.88744223	N C F	-0.30103
-0.88744223	T C F	-0.30103
-0.88744223	H C F	-0.30103
-0.88744223	Y C F	-0.30103
-0.89398825	N V F	-0.30103
-0.89398825	T V F	-0.30103
-0.89398825	H V F	-0.30103
-0.89398825	Y V F	-0.30103
-1.2917297	N O F	-0.30103
-1.1513636	T O F	-0.30103
-1.1099709	H O F	-0.30103
-1.1513636	Y O F	-0.30103
-0.891637	N U F	-0.30103
-0.891637	T U F	-0.30103
-0.891637	H U F	-0.30103
-0.891637	Y U F	-0.30103
-0.88053644	N Q F	-0.30103
-0.88053644	T Q F	-0.30103
-0.88053644	H Q F	-0.30103
-0.88053644	Y Q F	-0.30103
-1.2819912	N F F	-0.30103
-1.2819912	T F F	-0.30103
-1.252028	H F F	-0.30103
-1.2819912	Y F F	-0.30103
-0.89711297	N D F	-0.30103
-0.89711297	T D F	-0.30103
-0.89711297	H D F	-0.30103
-0.89711297	Y D F	-0.30103
-0.88053644	N K F	-0.30103
-0.88053644	T K F	-0.30103
-0.88053644	H K F	-0.30103
-0.88053644	Y K F	-0.30103
-0.88053644	N M F	-0.30103
-0.88053644	T M F	-0.30103
-0.88053644	H M F	-0.30103
-0.88053644	Y M F	-0.30103
-1.1330273	N Z F	-0.30103
-1.1330273	T Z F	-0.30103
-1.0916348	H Z F	-0.30103
-1.1330273	Y Z F	-0.30103
-1.6451615	I N D	-0.30103
-0.5947711	R E D	-0.42596874
-1.652211	A T D	-0.30103
-1.8484365	T H D	-0.30103
-1.5607374	B Y D	-0.30103
-1.6530559	I N K	-0.30103
-1.6592805	A T K	-0.30103
-1.861549	T H K	-0.30103
-1.5707823	B Y K	-0.30103
-1.6530559	I N M	-0.30103
-1.6592805	A T M	-0.30103
-1.861549	T H M	-0.30103
-1.5707823	B Y M	-0.30103
-0.97286755	N B Z	-0.30103
-0.9454206	T B Z	-0.30103
-0.9125033	H B Z	-0.30103
-0.9454206	Y B Z	-0.30103
-1.5195146	N I Z	-0.30103
-0.9207828	T I Z	-0.30103
-0.9543589	H I Z	-0.30103
-0.9207828	Y I Z	-0.30103
-1.3364341	I N Z	-0.30103
-1.1589751	N N Z	-0.30103
-1.1589751	T N Z	-0.30103
-1.1372386	H N Z	-0.30103
-1.1372386	Y N Z	-0.30103
-0.938691	N G Z	-0.30103
-0.938691	T G Z	-0.30103
-0.9062614	H G Z	-0.30103
-0.938691	Y G Z	-0.30103
-0.9179187	N R Z	-0.30103
-0.9512653	T R Z	-0.30103
-0.9179187	H R Z	-0.30103
-0.9512653	Y R Z	-0.30103
-1.2644833	N E Z	-0.30103
-1.2492305	T E Z	-0.30103
-1.1575096	H E Z	-0.30103
-1.1575096	Y E Z	-0.30103
-1.2553092	N T Z	-0.30103
-1.2553092	T T Z	-0.30103
-1.3075681	H T Z	-0.30103
-1.2553092	Y T Z	-0.30103
-1.3697982	A T Z	-0.30103
-0.9400802	N H Z	-0.30103
-1.354713	T H Z	-0.30103
-0.9400802	H H Z	-0.30103
-0.9400802	Y H Z	-0.30103
-1.1779337	B Y Z	-0.30103
-0.9288067	N Y Z	-0.30103
-0.9288067	T Y Z	-0.30103
-0.9288067	H Y Z	-0.30103
-0.9288067	Y Y Z	-0.30103
-0.94896567	N P Z	-0.30103
-0.94896567	T P Z	-0.30103
-0.9157886	H P Z	-0.30103
-0.9157886	Y P Z	-0.30103
-0.89934486	N L Z	-0.30103
-0.89934486	T L Z	-0.30103
-0.89934486	H L Z	-0.30103
-0.89934486	Y L Z	-0.30103
-0.99637616	N A Z	-0.30103
-0.9674523	T A Z	-0.30103
-0.93288845	H A Z	-0.30103
-0.93288845	Y A Z	-0.30103
-1.3077049	N S Z	-0.30103
-1.3077049	T S Z	-0.30103
-1.262092	H S Z	-0.30103
-1.2920552	Y S Z	-0.30103
-0.88053644	N J Z	-0.30103
-0.88053644	T J Z	-0.30103
-0.88053644	H J Z	-0.30103
-0.88053644	Y J Z	-0.30103
-0.90158844	N X Z	-0.30103
-0.90158844	T X Z	-0.30103
-0.90158844	H X Z	-0.30103
-0.90158844	Y X Z	-0.30103
-0.88744223	N C Z	-0.30103
-0.88744223	T C Z	-0.30103
-0.88744223	H C Z	-0.30103
-0.88744223	Y C Z	-0.30103
-0.89398825	N V Z	-0.30103
-0.89398825	T V Z	-0.30103
-0.89398825	H V Z	-0.30103
-0.89398825	Y V Z	-0.30103
-1.2917297	N O Z	-0.30103
-1.1513636	T O Z	-0.30103
-1.1099709	H O Z	-0.30103
-1.1513636	Y O Z	-0.30103
-0.891637	N U Z	-0.30103
-0.891637	T U Z	-0.30103
-0.891637	H U Z	-0.30103
-0.891637	Y U Z	-0.30103
-0.88053644	N Q Z	-0.30103
-0.88053644	T Q Z	-0.30103
-0.88053644	H Q Z	-0.30103
-0.88053644	Y Q Z	-0.30103
-1.2819912	N F Z	-0.30103
-1.2819912	T F Z	-0.30103
-1.252028	H F Z	-0.30103
-1.2819912	Y F Z	-0.30103
-0.89711297	N D Z	-0.30103
-0.89711297	T D Z	-0.30103
-0.89711297	H D Z	-0.30103
-0.89711297	Y D Z	-0.30103
-0.88053644	N K Z	-0.30103
-0.88053644	T K Z	-0.30103
-0.88053644	H K Z	-0.30103
-0.88053644	Y K Z	-0.30103
-0.88053644	N M Z	-0.30103
-0.88053644	T M Z	-0.30103
-0.88053644	H M Z	-0.30103
-0.88053644	Y M Z	-0.30103
-1.1330273	N Z Z	-0.30103
-1.1330273	T Z Z	-0.30103
-1.0916348	H Z Z	-0.30103
-1.1330273	Y Z Z	-0.30103

\4-grams:
-0.29571092	A I N </s>	0
-0.9705601	O O N </s>	0
-0.9709928	A S E </s>	0
-0.054290157	N O W </s>	0
-0.84156144	B I N B	-3.1442628
-1.6849933	N I N B	-0.8926246
-1.4086547	E I N B	-1.2243234
-1.4086547	D I N B	-0.8480424
-0.919479	E E N B	-3.1367207
-0.83254653	I T E B	-3.1394594
-0.79134065	A C E B	-3.1305482
-0.79342973	L U E B	-3.1381974
-0.8281147	S E T B	-3.1301193
-1.507018	N A T B	-0.8480424
-1.4868176	E A T B	-1.1883258
-1.4868176	D A T B	-0.91330916
-1.6155883	I T H B	-1.5077274
-1.436882	N B Y B	-0.91330916
-1.436882	E B Y B	-1.1663314
-1.436882	D B Y B	-0.92329335
-0.7120429	L A Y B	-3.1479852
-0.68245775	R E D B	-3.1375651
-0.06412779	N B N I	-1.3553877
-0.06412779	T B N I	-1.3290588
-0.06412779	H B N I	-1.3553877
-0.06412779	Y B N I	-1.3290588
-1.1550825	N I N I	-1.0543576
-0.96164316	E I N I	-1.1829307
-0.2297124	T I N I	-1.3424227
-0.2297124	H I N I	-1.3424227
-0.2297124	Y I N I	-1.3802112
-0.96164316	D I N I	-0.91832995
-0.17681776	N N N I	-1.3290588
-0.17681776	T N N I	-1.3553877
-0.17681776	H N N I	-1.3290588
-0.17681776	Y N N I	-1.3553877
-0.06412779	N G N I	-1.3424227
-0.06412779	T G N I	-1.3802112
-0.06412779	H G N I	-1.30103
-0.06412779	Y G N I	-1.3424227
-0.09497466	N R N I	-1.3553877
-0.09497466	T R N I	-1.3290588
-0.09497466	H R N I	-1.3553877
-0.09497466	Y R N I	-1.3290588
-0.4667737	N E N I	-1.3802112
-0.56113493	E E N I	-3.1396692
-0.17088668	T E N I	-1.3424227
-0.17088668	H E N I	-1.3424227
-0.17088668	Y E N I	-1.30103
-0.17681776	N T N I	-1.3553877
-0.17681776	T T N I	-1.3553877
-0.38137424	H T N I	-1.3290588
-0.17681776	Y T N I	-1.3290588
-0.17100854	N H N I	-1.3290588
-0.6252246	T H N I	-1.3290588
-0.17100854	H H N I	-1.3553877
-0.17100854	Y H N I	-1.3553877
-0.17100854	N Y N I	-1.3290588
-0.17100854	T Y N I	-1.3290588
-0.17100854	H Y N I	-1.3553877
-0.17100854	Y Y N I	-1.3553877
-0.06412779	N P N I	-1.3290588
-0.06412779	T P N I	-1.3290588
-0.06412779	H P N I	-1.3553877
-0.06412779	Y P N I	-1.3553877
-0.06412779	N L N I	-1.3553877
-0.06412779	T L N I	-1.3553877
-0.06412779	H L N I	-1.3290588
-0.06412779	Y L N I	-1.3290588
-0.06412779	N A N I	-1.30103
-0.06412779	T A N I	-1.3424227
-0.06412779	H A N I	-1.3424227
-0.06412779	Y A N I	-1.3802112
-0.06412779	N S N I	-1.3424227
-0.06412779	T S N I	-1.30103
-0.06412779	H S N I	-1.3802112
-0.06412779	Y S N I	-1.3424227
-0.06412779	N J N I	-1.3553877
-0.06412779	T J N I	-1.3290588
-0.06412779	H J N I	-1.3553877
-0.06412779	Y J N I	-1.3290588
-0.09497466	N X N I	-1.3424227
-0.09497466	T X N I	-1.3802112
-0.09497466	H X N I	-1.30103
-0.09497466	Y X N I	-1.3424227
-0.06412779	N C N I	-1.3424227
-0.06412779	T C N I	-1.30103
-0.06412779	H C N I	-1.3802112
-0.06412779	Y C N I	-1.3424227
-0.06412779	N V N I	-1.3290588
-0.06412779	T V N I	-1.3553877
-0.06412779	H V N I	-1.3290588
-0.06412779	Y V N I	-1.3553877
-0.834704	N O N I	-1.3424227
-0.834704	T O N I	-1.3802112
-0.834704	H O N I	-1.30103
-0.834704	Y O N I	-1.3424227
-0.06412779	N U N I	-1.3802112
-0.06412779	T U N I	-1.3424227
-0.06412779	H U N I	-1.3424227
-0.06412779	Y U N I	-1.30103
-0.06412779	N Q N I	-1.30103
-0.06412779	T Q N I	-1.3424227
-0.06412779	H Q N I	-1.3424227
-0.06412779	Y Q N I	-1.3802112
-0.06412779	N F N I	-1.3290588
-0.06412779	T F N I	-1.3553877
-0.06412779	H F N I	-1.3290588
-0.06412779	Y F N I	-1.3553877
-0.06412779	N D N I	-1.3553877
-0.06412779	T D N I	-1.3553877
-0.06412779	H D N I	-1.3290588
-0.06412779	Y D N I	-1.3290588
-0.06412779	N K N I	-1.3424227
-0.06412779	T K N I	-1.30103
-0.06412779	H K N I	-1.3802112
-0.06412779	Y K N I	-1.3424227
-0.06412779	N M N I	-1.3802112
-0.06412779	T M N I	-1.3424227
-0.06412779	H M N I	-1.3424227
-0.06412779	Y M N I	-1.30103
-0.06412779	N Z N I	-1.30103
-0.06412779	T Z N I	-1.3424227
-0.06412779	H Z N I	-1.3424227
-0.06412779	Y Z N I	-1.3802112
-0.060793333	N B E I	-1.3802112
-0.060793333	T B E I	-1.3290588
-0.060793333	H B E I	-1.3553877
-0.060793333	Y B E I	-1.30103
-0.060793333	N I E I	-1.3290588
-0.060793333	T I E I	-1.3424227
-0.060793333	H I E I	-1.3424227
-0.060793333	Y I E I	-1.3553877
-0.19050713	N N E I	-1.30103
-0.19050713	T N E I	-1.3553877
-0.19050713	H N E I	-1.3290588
-0.19050713	Y N E I	-1.3802112
-0.060793333	N G E I	-1.3424227
-0.060793333	T G E I	-1.3553877
-0.060793333	H G E I	-1.3290588
-0.060793333	Y G E I	-1.3424227
-0.36084673	N R E I	-1.3802112
-0.36084673	T R E I	-1.3290588
-0.36084673	H R E I	-1.3553877
-0.36084673	Y R E I	-1.30103
-0.14110023	N E E I	-1.3553877
-0.14110023	T E E I	-1.3424227
-0.14110023	H E E I	-1.3424227
-0.14110023	Y E E I	-1.3290588
-0.5123134	I T E I	-3.1365092
-0.16596878	N T E I	-1.3553877
-0.16596878	T T E I	-1.3802112
-0.16596878	H T E I	-1.30103
-0.16596878	Y T E I	-1.3290588
-0.1658499	N H E I	-1.3290588
-0.61070174	T H E I	-1.30103
-0.1658499	H H E I	-1.3802112
-0.1658499	Y H E I	-1.3553877
-0.1658499	N Y E I	-1.3290588
-0.1658499	T Y E I	-1.30103
-0.1658499	H Y E I	-1.3802112
-0.1658499	Y Y E I	-1.3553877
-0.060793333	N P E I	-1.3290588
-0.060793333	T P E I	-1.30103
-0.060793333	H P E I	-1.3802112
-0.060793333	Y P E I	-1.3553877
-0.091158256	N L E I	-1.3553877
-0.091158256	T L E I	-1.3802112
-0.091158256	H L E I	-1.30103
-0.091158256	Y L E I	-1.3290588
-0.060793333	N A E I	-1.3290588
-0.060793333	T A E I	-1.3424227
-0.060793333	H A E I	-1.3424227
-0.060793333	Y A E I	-1.3553877
-0.8299916	N S E I	-1.3424227
-0.8299916	T S E I	-1.3290588
-0.8299916	H S E I	-1.3553877
-0.8299916	Y S E I	-1.3424227
-0.060793333	N J E I	-1.3802112
-0.060793333	T J E I	-1.3290588
-0.060793333	H J E I	-1.3553877
-0.060793333	Y J E I	-1.30103
-0.060793333	N X E I	-1.3424227
-0.060793333	T X E I	-1.3553877
-0.060793333	H X E I	-1.3290588
-0.060793333	Y X E I	-1.3424227
-0.14110023	N C E I	-1.3424227
-0.14110023	T C E I	-1.3290588
-0.14110023	H C E I	-1.3553877
-0.14110023	Y C E I	-1.3424227
-0.15101379	N V E I	-1.30103
-0.15101379	T V E I	-1.3553877
-0.15101379	H V E I	-1.3290588
-0.15101379	Y V E I	-1.3802112
-0.060793333	N O E I	-1.3424227
-0.060793333	T O E I	-1.3553877
-0.060793333	H O E I	-1.3290588
-0.060793333	Y O E I	-1.3424227
-0.11034874	N U E I	-1.3553877
-0.11034874	T U E I	-1.3424227
-0.11034874	H U E I	-1.3424227
-0.11034874	Y U E I	-1.3290588
-0.39726305	L U E I	-3.139039
-0.060793333	N Q E I	-1.3290588
-0.060793333	T Q E I	-1.3424227
-0.060793333	H Q E I	-1.3424227
-0.060793333	Y Q E I	-1.3553877
-0.060793333	N F E I	-1.30103
-0.060793333	T F E I	-1.3553877
-0.060793333	H F E I	-1.3290588
-0.060793333	Y F E I	-1.3802112
-0.060793333	N D E I	-1.3553877
-0.060793333	T D E I	-1.3802112
-0.060793333	H D E I	-1.30103
-0.060793333	Y D E I	-1.3290588
-0.060793333	N K E I	-1.3424227
-0.060793333	T K E I	-1.3290588
-0.060793333	H K E I	-1.3553877
-0.060793333	Y K E I	-1.3424227
-0.060793333	N M E I	-1.3553877
-0.060793333	T M E I	-1.3424227
-0.060793333	H M E I	-1.3424227
-0.060793333	Y M E I	-1.3290588
-0.8325814	N Z E I	-1.3290588
-0.8325814	T Z E I	-1.3424227
-0.8325814	H Z E I	-1.3424227
-0.8325814	Y Z E I	-1.3553877
-0.17345814	E N W I	-3.1375651
-0.14728367	T E W I	-3.1381974
-0.14728367	U E W I	-3.1365092
-0.09923922	E D W I	-3.1396692
-1.512378	N A T I	-0.91832995
-1.4919325	E A T I	-1.21936
-1.4919325	D A T I	-0.85387194
-0.0865799	N W H I	-3.1309767
-0.0865799	E W H I	-3.1442628
-0.0865799	T W H I	-3.12969
-0.0865799	Y W H I	-3.1479852
-1.5769113	I T H I	-1.4893558
-1.4481386	N B Y I	-0.85387194
-1.4481386	E B Y I	-1.2092596
-1.4481386	D B Y I	-0.8764378
-0.056455124	A G A I	-3.7403626
-0.33435845	N B S I	-1.3553877
-0.33435845	T B S I	-1.3424227
-0.33435845	H B S I	-1.3424227
-0.33435845	Y B S I	-1.3290588
-0.33435845	N I S I	-1.3553877
-0.33435845	T I S I	-1.3802112
-0.33435845	H I S I	-1.30103
-0.33435845	Y I S I	-1.3290588
-0.4092985	N N S I	-1.3290588
-0.4092985	T N S I	-1.3424227
-0.4092985	H N S I	-1.3424227
-0.4092985	Y N S I	-1.3553877
-0.33435845	N G S I	-1.3802112
-0.33435845	T G S I	-1.3290588
-0.33435845	H G S I	-1.3553877
-0.33435845	Y G S I	-1.30103
-0.34890848	N R S I	-1.3553877
-0.34890848	T R S I	-1.3424227
-0.34890848	H R S I	-1.3424227
-0.34890848	Y R S I	-1.3290588
-0.52198815	N E S I	-1.3290588
-0.37098223	T E S I	-1.30103
-0.37098223	H E S I	-1.3802112
-0.37098223	Y E S I	-1.3553877
-0.4092985	N T S I	-1.3424227
-0.4092985	T T S I	-1.3553877
-0.51379526	H T S I	-1.3290588
-0.4092985	Y T S I	-1.3424227
-0.39338583	N H S I	-1.3424227
-0.6782521	T H S I	-1.3290588
-0.39338583	H H S I	-1.3553877
-0.39338583	Y H S I	-1.3424227
-0.40457487	N Y S I	-1.3424227
-0.40457487	T Y S I	-1.3290588
-0.40457487	H Y S I	-1.3553877
-0.40457487	Y Y S I	-1.3424227
-0.33435845	N P S I	-1.3424227
-0.33435845	T P S I	-1.3290588
-0.33435845	H P S I	-1.3553877
-0.33435845	Y P S I	-1.3424227
-0.33435845	N L S I	-1.3424227
-0.33435845	T L S I	-1.3553877
-0.33435845	H L S I	-1.3290588
-0.33435845	Y L S I	-1.3424227
-0.35714912	N A S I	-1.3553877
-0.35714912	T A S I	-1.3802112
-0.35714912	H A S I	-1.30103
-0.35714912	Y A S I	-1.3290588
-0.33435845	N S S I	-1.30103
-0.33435845	T S S I	-1.3553877
-0.33435845	H S S I	-1.3290588
-0.33435845	Y S S I	-1.3802112
-0.33435845	N J S I	-1.3553877
-0.33435845	T J S I	-1.3424227
-0.33435845	H J S I	-1.3424227
-0.33435845	Y J S I	-1.3290588
-0.34890848	N X S I	-1.3802112
-0.34890848	T X S I	-1.3290588
-0.34890848	H X S I	-1.3553877
-0.34890848	Y X S I	-1.30103
-0.33435845	N C S I	-1.30103
-0.33435845	T C S I	-1.3553877
-0.33435845	H C S I	-1.3290588
-0.33435845	Y C S I	-1.3802112
-0.33435845	N V S I	-1.3290588
-0.33435845	T V S I	-1.3424227
-0.33435845	H V S I	-1.3424227
-0.33435845	Y V S I	-1.3553877
-0.36090994	N O S I	-1.3802112
-0.36090994	T O S I	-1.3290588
-0.36090994	H O S I	-1.3553877
-0.36090994	Y O S I	-1.30103
-0.33435845	N U S I	-1.3290588
-0.33435845	T U S I	-1.30103
-0.33435845	H U S I	-1.3802112
-0.33435845	Y U S I	-1.3553877
-0.33435845	N Q S I	-1.3553877
-0.33435845	T Q S I	-1.3802112
-0.33435845	H Q S I	-1.30103
-0.33435845	Y Q S I	-1.3290588
-0.33435845	N F S I	-1.3290588
-0.33435845	T F S I	-1.3424227
-0.33435845	H F S I	-1.3424227
-0.33435845	Y F S I	-1.3553877
-0.33435845	N D S I	-1.3424227
-0.33435845	T D S I	-1.3553877
-0.33435845	H D S I	-1.3290588
-0.33435845	Y D S I	-1.3424227
-0.33435845	N K S I	-1.30103
-0.33435845	T K S I	-1.3553877
-0.33435845	H K S I	-1.3290588
-0.33435845	Y K S I	-1.3802112
-0.33435845	N M S I	-1.3290588
-0.33435845	T M S I	-1.30103
-0.33435845	H M S I	-1.3802112
-0.33435845	Y M S I	-1.3553877
-0.33435845	N Z S I	-1.3553877
-0.33435845	T Z S I	-1.3802112
-0.33435845	H Z S I	-1.30103
-0.33435845	Y Z S I	-1.3290588
-0.330773	N B F I	-1.3290588
-0.330773	T B F I	-1.3290588
-0.330773	H B F I	-1.3553877
-0.330773	Y B F I	-1.3553877
-0.330773	N I F I	-1.3424227
-0.330773	T I F I	-1.3802112
-0.330773	H I F I	-1.30103
-0.330773	Y I F I	-1.3424227
-0.40008393	N N F I	-1.3553877
-0.40008393	T N F I	-1.3553877
-0.40008393	H N F I	-1.3290588
-0.40008393	Y N F I	-1.3290588
-0.330773	N G F I	-1.3802112
-0.330773	T G F I	-1.3424227
-0.330773	H G F I	-1.3424227
-0.330773	Y G F I	-1.30103
-0.330773	N R F I	-1.3290588
-0.330773	T R F I	-1.3290588
-0.330773	H R F I	-1.3553877
-0.330773	Y R F I	-1.3553877
-0.330773	N E F I	-1.3424227
-0.330773	T E F I	-1.30103
-0.330773	H E F I	-1.3802112
-0.330773	Y E F I	-1.3424227
-0.40008393	N T F I	-1.3553877
-0.40008393	T T F I	-1.3290588
-0.40008393	H T F I	-1.3553877
-0.40008393	Y T F I	-1.3290588
-0.38869756	N H F I	-1.3290588
-0.6692629	T H F I	-1.3553877
-0.38869756	H H F I	-1.3290588
-0.38869756	Y H F I	-1.3553877
-0.40008393	N Y F I	-1.3290588
-0.40008393	T Y F I	-1.3553877
-0.40008393	H Y F I	-1.3290588
-0.40008393	Y Y F I	-1.3553877
-0.330773	N P F I	-1.3290588
-0.330773	T P F I	-1.3553877
-0.330773	H P F I	-1.3290588
-0.330773	Y P F I	-1.3553877
-0.330773	N L F I	-1.3553877
-0.330773	T L F I	-1.3290588
-0.330773	H L F I	-1.3553877
-0.330773	Y L F I	-1.3290588
-0.330773	N A F I	-1.3424227
-0.330773	T A F I	-1.3802112
-0.330773	H A F I	-1.30103
-0.330773	Y A F I	-1.3424227
-0.330773	N S F I	-1.30103
-0.330773	T S F I	-1.3424227
-0.330773	H S F I	-1.3424227
-0.330773	Y S F I	-1.3802112
-0.330773	N J F I	-1.3290588
-0.330773	T J F I	-1.3290588
-0.330773	H J F I	-1.3553877
-0.330773	Y J F I	-1.3553877
-0.330773	N X F I	-1.3802112
-0.330773	T X F I	-1.3424227
-0.330773	H X F I	-1.3424227
-0.330773	Y X F I	-1.30103
-0.330773	N C F I	-1.30103
-0.330773	T C F I	-1.3424227
-0.330773	H C F I	-1.3424227
-0.330773	Y C F I	-1.3802112
-0.330773	N V F I	-1.3553877
-0.330773	T V F I	-1.3553877
-0.330773	H V F I	-1.3290588
-0.330773	Y V F I	-1.3290588
-0.330773	N O F I	-1.3802112
-0.330773	T O F I	-1.3424227
-0.330773	H O F I	-1.3424227
-0.330773	Y O F I	-1.30103
-0.330773	N U F I	-1.3424227
-0.330773	T U F I	-1.30103
-0.330773	H U F I	-1.3802112
-0.330773	Y U F I	-1.3424227
-0.330773	N Q F I	-1.3424227
-0.330773	T Q F I	-1.3802112
-0.330773	H Q F I	-1.30103
-0.330773	Y Q F I	-1.3424227
-0.330773	N F F I	-1.3553877
-0.330773	T F F I	-1.3553877
-0.330773	H F F I	-1.3290588
-0.330773	Y F F I	-1.3290588
-0.330773	N D F I	-1.3553877
-0.330773	T D F I	-1.3290588
-0.330773	H D F I	-1.3553877
-0.330773	Y D F I	-1.3290588
-0.330773	N K F I	-1.30103
-0.330773	T K F I	-1.3424227
-0.330773	H K F I	-1.3424227
-0.330773	Y K F I	-1.3802112
-0.330773	N M F I	-1.3424227
-0.330773	T M F I	-1.30103
-0.330773	H M F I	-1.3802112
-0.330773	Y M F I	-1.3424227
-0.330773	N Z F I	-1.3424227
-0.330773	T Z F I	-1.3802112
-0.330773	H Z F I	-1.30103
-0.330773	Y Z F I	-1.3424227
-0.68042105	R E D I	-3.1392493
-0.9157627	I N B N	-1.3553877
-0.8923689	A T B N	-1.3290588
-0.8774943	T H B N	-1.3553877
-0.8923689	B Y B N	-1.3290588
-0.00003145259	<s> B I N	-3.1358213
-0.035923522	B N I N	-1.9444827
-0.27377802	I N I N	-1.7323937
-0.035923522	N N I N	-1.9444827
-0.035923522	G N I N	-1.9444827
-0.035923522	R N I N	-1.9444827
-0.028497161	E N I N	-1.7685888
-0.035923522	T N I N	-1.9444827
-0.035923522	H N I N	-1.9444827
-0.035923522	Y N I N	-1.9444827
-0.035923522	P N I N	-1.9444827
-0.035923522	L N I N	-1.9444827
-0.035923522	A N I N	-1.9444827
-0.035923522	S N I N	-1.9444827
-0.035923522	J N I N	-1.9444827
-0.035923522	X N I N	-1.9444827
-0.035923522	C N I N	-1.9444827
-0.035923522	V N I N	-1.9444827
-0.035923522	O N I N	-1.9444827
-0.035923522	U N I N	-1.9444827
-0.035923522	Q N I N	-1.9444827
-0.035923522	F N I N	-1.9444827
-0.035923522	D N I N	-1.9444827
-0.035923522	K N I N	-1.9444827
-0.035923522	M N I N	-1.9444827
-0.035923522	Z N I N	-1.9444827
-0.9117623	T E I N	-1.7385691
-0.9117623	U E I N	-1.741099
-0.7980261	A T I N	-1.3424227
-0.8103777	T H I N	-1.3424227
-0.7980261	B Y I N	-1.3802112
-0.09578855	G A I N	-3.7403626
-0.09578855	E D I N	-1.7413092
-1.6138359	N I N N	-0.91330916
-1.3411162	E I N N	-1.1663314
-1.3411162	D I N N	-0.92329335
-0.9640895	I N N N	-1.3290588
-0.8789899	V E N N	-2.7269988
-0.9640895	A T N N	-1.3553877
-0.9937465	T H N N	-1.3290588
-0.95711386	B Y N N	-1.3553877
-0.90044785	I N G N	-1.3424227
-0.8893782	A T G N	-1.3802112
-0.87460387	T H G N	-1.30103
-0.8893782	B Y G N	-1.3424227
-0.87727165	I N R N	-1.3553877
-0.8712482	A T R N	-1.3290588
-1.4468597	T H R N	-1.3553877
-0.8712482	B Y R N	-1.3290588
-0.6589008	O U R N	-2.7533276
-0.9469197	I N E N	-2.445085
-0.6184626	O N E N	-2.7269988
-0.6049715	R E E N	-3.0815873
-0.97876036	A T E N	-1.3424227
-0.9872796	T H E N	-1.3424227
-0.9511665	B Y E N	-1.30103
-0.70354044	I V E N	-2.7269988
-0.24191645	E V E N	-2.7403626
-1.0034708	I N T N	-1.3553877
-1.0034708	A T T N	-1.3553877
-0.78838736	G H T N	-2.7533276
-1.0299326	T H T N	-1.3290588
-1.0034708	B Y T N	-1.3290588
-1.399491	N A T N	-0.92329335
-1.3836412	E A T N	-1.20412
-1.3836412	D A T N	-0.8926246
-0.88999766	I N H N	-1.3290588
-1.4223837	I T H N	-1.4866666
-1.0903938	A T H N	-1.3290588
-0.88999766	T H H N	-1.3553877
-0.88999766	B Y H N	-1.3553877
-1.2741518	N B Y N	-0.8926246
-1.2741518	E B Y N	-1.2243234
-1.2741518	D B Y N	-0.8480424
-0.88493866	I N Y N	-1.3290588
-0.88493866	A T Y N	-1.3290588
-0.88493866	T H Y N	-1.3553877
-0.88493866	B Y Y N	-1.3553877
-0.893934	I N P N	-1.3290588
-0.893934	A T P N	-1.3290588
-0.8790066	T H P N	-1.3553877
-0.8790066	B Y P N	-1.3553877
-0.871375	I N L N	-1.3553877
-0.871375	A T L N	-1.3553877
-0.871375	T H L N	-1.3290588
-0.871375	B Y L N	-1.3290588
-0.91418326	I N A N	-1.30103
-0.9019805	A T A N	-1.3424227
-0.8867787	T H A N	-1.3424227
-0.8867787	B Y A N	-1.3802112
-1.017515	I N S N	-1.3424227
-1.017515	A T S N	-1.30103
-1.0814426	T H S N	-1.3802112
-1.0134497	B Y S N	-1.3424227
-0.86245584	I N J N	-1.3553877
-0.86245584	A T J N	-1.3290588
-0.86245584	T H J N	-1.3553877
-0.86245584	B Y J N	-1.3290588
-0.60787	S I X N	-2.7533276
-0.8478415	I N X N	-1.3424227
-0.8478415	A T X N	-1.3802112
-0.8478415	T H X N	-1.30103
-0.8478415	B Y X N	-1.3424227
-0.86575425	I N C N	-1.3424227
-0.86575425	A T C N	-1.30103
-0.86575425	T H C N	-1.3802112
-0.86575425	B Y C N	-1.3424227
-0.86885554	I N V N	-1.3290588
-0.86885554	A T V N	-1.3553877
-0.86885554	T H V N	-1.3290588
-0.86885554	B Y V N	-1.3553877
-0.04869761	N B O N	-1.3290588
-0.04869761	T B O N	-1.3553877
-0.04869761	H B O N	-1.3290588
-0.04869761	Y B O N	-1.3553877
-0.04869761	N I O N	-1.3802112
-0.04869761	T I O N	-1.3424227
-0.04869761	H I O N	-1.3424227
-0.04869761	Y I O N	-1.30103
-0.6003131	I N O N	-1.3424227
-0.36695695	N N O N	-1.3553877
-0.36695695	T N O N	-1.3290588
-0.16776004	H N O N	-1.3553877
-0.16776004	Y N O N	-1.3290588
-0.04869761	N G O N	-1.3424227
-0.04869761	T G O N	-1.30103
-0.04869761	H G O N	-1.3802112
-0.04869761	Y G O N	-1.3424227
-0.09681356	N R O N	-1.3290588
-0.3714295	E R O N	-2.7533276
-0.09681356	T R O N	-1.3553877
-0.09681356	H R O N	-1.3290588
-0.09681356	Y R O N	-1.3553877
-0.04869761	N E O N	-1.30103
-0.04869761	T E O N	-1.3424227
-0.04869761	H E O N	-1.3424227
-0.04869761	Y E O N	-1.3802112
-0.5925608	T W O N	-2.7533276
-0.12614422	N T O N	-1.3290588
-0.12614422	T T O N	-1.3290588
-0.12614422	H T O N	-1.3553877
-0.12614422	Y T O N	-1.3553877
-0.4957335	A T O N	-1.3802112
-0.14103399	N H O N	-1.3553877
-0.45877874	T H O N	-1.3290588
-0.14103399	H H O N	-1.3290588
-0.14103399	Y H O N	-1.3290588
-0.4957335	B Y O N	-1.3424227
-0.12614422	N Y O N	-1.3553877
-0.12614422	T Y O N	-1.3553877
-0.12614422	H Y O N	-1.3290588
-0.12614422	Y Y O N	-1.3290588
-0.04869761	N P O N	-1.3553877
-0.04869761	T P O N	-1.3553877
-0.04869761	H P O N	-1.3290588
-0.04869761	Y P O N	-1.3290588
-0.04869761	N L O N	-1.3290588
-0.04869761	T L O N	-1.3290588
-0.04869761	H L O N	-1.3553877
-0.04869761	Y L O N	-1.3553877
-0.04869761	N A O N	-1.3802112
-0.04869761	T A O N	-1.3424227
-0.04869761	H A O N	-1.3424227
-0.04869761	Y A O N	-1.30103
-0.35640702	N S O N	-1.3424227
-0.35640702	T S O N	-1.3802112
-0.16106145	H S O N	-1.30103
-0.16106145	Y S O N	-1.3424227
-0.04869761	N J O N	-1.3290588
-0.04869761	T J O N	-1.3553877
-0.04869761	H J O N	-1.3290588
-0.04869761	Y J O N	-1.3553877
-0.04869761	N X O N	-1.3424227
-0.04869761	T X O N	-1.30103
-0.04869761	H X O N	-1.3802112
-0.04869761	Y X O N	-1.3424227
-0.04869761	N C O N	-1.3424227
-0.04869761	T C O N	-1.3802112
-0.04869761	H C O N	-1.30103
-0.04869761	Y C O N	-1.3424227
-0.04869761	N V O N	-1.3553877
-0.04869761	T V O N	-1.3290588
-0.04869761	H V O N	-1.3553877
-0.04869761	Y V O N	-1.3290588
-0.03851143	N O O N	-1.3424227
-0.03851143	T O O N	-1.30103
-0.03851143	H O O N	-1.3802112
-0.03851143	Y O O N	-1.3424227
-0.018828975	S O O N	-3.7403626
-0.04869761	N U O N	-1.30103
-0.04869761	T U O N	-1.3424227
-0.04869761	H U O N	-1.3424227
-0.04869761	Y U O N	-1.3802112
-0.04869761	N Q O N	-1.3802112
-0.04869761	T Q O N	-1.3424227
-0.04869761	H Q O N	-1.3424227
-0.04869761	Y Q O N	-1.30103
-0.81686395	N F O N	-1.3553877
-0.81686395	T F O N	-1.3290588
-0.81686395	H F O N	-1.3553877
-0.81686395	Y F O N	-1.3290588
-0.04869761	N D O N	-1.3290588
-0.04869761	T D O N	-1.3290588
-0.04869761	H D O N	-1.3553877
-0.04869761	Y D O N	-1.3553877
-0.04869761	N K O N	-1.3424227
-0.04869761	T K O N	-1.3802112
-0.04869761	H K O N	-1.30103
-0.04869761	Y K O N	-1.3424227
-0.04869761	N M O N	-1.30103
-0.04869761	T M O N	-1.3424227
-0.04869761	H M O N	-1.3424227
-0.04869761	Y M O N	-1.3802112
-0.04869761	N Z O N	-1.3802112
-0.04869761	T Z O N	-1.3424227
-0.04869761	H Z O N	-1.3424227
-0.04869761	Y Z O N	-1.30103
-0.86774445	I N U N	-1.3802112
-0.86774445	A T U N	-1.3424227
-0.86774445	T H U N	-1.3424227
-0.86774445	B Y U N	-1.30103
-0.86245584	I N Q N	-1.30103
-0.86245584	A T Q N	-1.3424227
-0.86245584	T H Q N	-1.3424227
-0.86245584	B Y Q N	-1.3802112
-1.0107776	I N F N	-1.3290588
-1.0107776	A T F N	-1.3553877
-1.0780971	T H F N	-1.3290588
-1.0107776	B Y F N	-1.3553877
-0.87032723	I N D N	-1.3553877
-0.87032723	A T D N	-1.3553877
-0.87032723	T H D N	-1.3290588
-0.87032723	B Y D N	-1.3290588
-0.86245584	I N K N	-1.3424227
-0.86245584	A T K N	-1.30103
-0.86245584	T H K N	-1.3802112
-0.86245584	B Y K N	-1.3424227
-0.86245584	I N M N	-1.3802112
-0.86245584	A T M N	-1.3424227
-0.86245584	T H M N	-1.3424227
-0.86245584	B Y M N	-1.30103
-0.9656258	I N Z N	-1.30103
-0.9656258	A T Z N	-1.3424227
-0.98720986	T H Z N	-1.3424227
-0.9656258	B Y Z N	-1.3802112
-0.021299582	B E I G	-1.9444827
-0.021299582	I E I G	-1.9444827
-0.021299582	N E I G	-1.9444827
-0.021299582	G E I G	-1.9444827
-0.021299582	R E I G	-1.9444827
-0.021299582	E E I G	-1.9444827
-0.07111867	T E I G	-1.9444827
-0.021299582	H E I G	-1.9444827
-0.021299582	Y E I G	-1.9444827
-0.021299582	P E I G	-1.9444827
-0.021299582	L E I G	-1.9444827
-0.021299582	A E I G	-1.9444827
-0.021299582	S E I G	-1.9444827
-0.021299582	J E I G	-1.9444827
-0.021299582	X E I G	-1.9444827
-0.021299582	C E I G	-1.9444827
-0.021299582	V E I G	-1.9444827
-0.021299582	O E I G	-1.9444827
-0.07111867	U E I G	-1.9444827
-0.021299582	Q E I G	-1.9444827
-0.021299582	F E I G	-1.9444827
-0.021299582	D E I G	-1.9444827
-0.021299582	K E I G	-1.9444827
-0.021299582	M E I G	-1.9444827
-0.021299582	Z E I G	-1.9444827
-0.8454212	B I N G	-3.1305482
-1.700264	N I N G	-0.91832995
-1.4230728	E I N G	-1.21936
-1.4230728	D I N G	-0.85387194
-0.79874825	A C E G	-3.1486027
-0.8281147	S E T G	-3.1320462
-1.507018	N A T G	-0.85387194
-1.4868176	E A T G	-1.2092596
-1.4868176	D A T G	-0.8764378
-1.6155883	I T H G	-1.50515
-1.436882	N B Y G	-0.8764378
-1.436882	E B Y G	-1.1719353
-1.436882	D B Y G	-0.9282007
-0.7120429	L A Y G	-3.1417632
-0.51165175	E N A G	-2.7533276
-0.10786161	U R A G	-2.7269988
-0.18370657	N E A G	-3.0543578
-0.18370657	E E A G	-2.7533276
-0.18370657	V E A G	-2.7533276
-0.25078276	H T A G	-2.7269988
-0.10786161	I X A G	-2.7269988
-0.10786161	R O A G	-2.7269988
-0.10786161	W O A G	-2.7269988
-0.8454212	B I N R	-3.1373541
-1.700264	N I N R	-0.8926246
-1.4230728	E I N R	-1.2243234
-1.4230728	D I N R	-0.8480424
-1.1274186	I N G R	-3.1305482
-0.11317344	C E G R	-3.1486027
-0.25818235	E T G R	-3.1320462
-0.25818235	A Y G R	-3.1417632
-0.7950287	A C E R	-3.1367207
-0.031703886	B Z E R	-1.9444827
-0.031703886	I Z E R	-1.9444827
-0.083595164	N Z E R	-1.9444827
-0.031703886	G Z E R	-1.9444827
-0.031703886	R Z E R	-1.9444827
-0.031703886	E Z E R	-1.9444827
-0.083595164	T Z E R	-1.9444827
-0.083595164	H Z E R	-1.9444827
-0.083595164	Y Z E R	-1.9444827
-0.031703886	P Z E R	-1.9444827
-0.031703886	L Z E R	-1.9444827
-0.031703886	A Z E R	-1.9444827
-0.031703886	S Z E R	-1.9444827
-0.031703886	J Z E R	-1.9444827
-0.031703886	X Z E R	-1.9444827
-0.031703886	C Z E R	-1.9444827
-0.031703886	V Z E R	-1.9444827
-0.031703886	O Z E R	-1.9444827
-0.031703886	U Z E R	-1.9444827
-0.031703886	Q Z E R	-1.9444827
-0.031703886	F Z E R	-1.9444827
-0.031703886	D Z E R	-1.9444827
-0.031703886	K Z E R	-1.9444827
-0.031703886	M Z E R	-1.9444827
-0.031703886	Z Z E R	-1.9444827
-0.8281147	S E T R	-3.130334
-1.507018	N A T R	-0.8480424
-1.4868176	E A T R	-1.1883258
-1.4868176	D A T R	-0.91330916
-0.10532391	B T H R	-1.9444827
-0.496378	I T H R	-1.6509086
-0.10532391	N T H R	-1.9444827
-0.10532391	G T H R	-1.9444827
-0.10532391	R T H R	-1.9444827
-0.10532391	E T H R	-1.9444827
-0.10532391	T T H R	-1.9444827
-0.10532391	H T H R	-1.9444827
-0.10532391	Y T H R	-1.9444827
-0.10532391	P T H R	-1.9444827
-0.10532391	L T H R	-1.9444827
-0.5166235	A T H R	-1.9444827
-0.10532391	S T H R	-1.9444827
-0.10532391	J T H R	-1.9444827
-0.10532391	X T H R	-1.9444827
-0.10532391	C T H R	-1.9444827
-0.10532391	V T H R	-1.9444827
-0.10532391	O T H R	-1.9444827
-0.10532391	U T H R	-1.9444827
-0.10532391	Q T H R	-1.9444827
-0.10532391	F T H R	-1.9444827
-0.10532391	D T H R	-1.9444827
-0.10532391	K T H R	-1.9444827
-0.10532391	M T H R	-1.9444827
-0.10532391	Z T H R	-1.9444827
-1.436882	N B Y R	-0.91330916
-1.436882	E B Y R	-1.1663314
-1.436882	D B Y R	-0.92329335
-0.7120429	L A Y R	-3.1486027
-0.012890507	F O U R	-2.7403626
-0.9157627	I N B E	-1.3802112
-0.8923689	A T B E	-1.3290588
-0.8774943	T H B E	-1.3553877
-0.8923689	B Y B E	-1.30103
-1.1207489	I N I E	-1.3290588
-0.8812938	A T I E	-1.3424227
-0.89630145	T H I E	-1.3424227
-0.8812938	B Y I E	-1.3553877
-0.31485754	N I N E	-2.39794
-1.3411162	E I N E	-1.2092596
-1.3411162	D I N E	-0.8764378
-0.9640895	I N N E	-1.30103
-0.9640895	A T N E	-1.3553877
-0.9937465	T H N E	-1.3290588
-0.95711386	B Y N E	-1.3802112
-0.043757163	B O N E	-1.3424227
-0.043757163	I O N E	-1.3424227
-0.098124884	N O N E	-1.3424227
-0.043757163	G O N E	-1.3424227
-0.098124884	R O N E	-1.3424227
-0.043757163	E O N E	-1.3424227
-0.098124884	T O N E	-1.3424227
-0.098124884	H O N E	-1.3424227
-0.098124884	Y O N E	-1.3424227
-0.043757163	P O N E	-1.3424227
-0.043757163	L O N E	-1.3424227
-0.043757163	A O N E	-1.3424227
-0.043757163	S O N E	-1.3424227
-0.043757163	J O N E	-1.3424227
-0.043757163	X O N E	-1.3424227
-0.043757163	C O N E	-1.3424227
-0.043757163	V O N E	-1.3424227
-0.098124884	O O N E	-1.3424227
-0.043757163	U O N E	-1.3424227
-0.043757163	Q O N E	-1.3424227
-0.043757163	F O N E	-1.3424227
-0.043757163	D O N E	-1.3424227
-0.043757163	K O N E	-1.3424227
-0.043757163	M O N E	-1.3424227
-0.043757163	Z O N E	-1.3424227
-0.90044785	I N G E	-1.3424227
-0.8893782	A T G E	-1.3553877
-0.87460387	T H G E	-1.3290588
-0.8893782	B Y G E	-1.3424227
-0.73299456	I N R E	-2.8438554
-0.074827164	N G R E	-3.1305482
-0.074827164	E G R E	-3.1486027
-0.074827164	T G R E	-3.1320462
-0.074827164	Y G R E	-3.1417632
-0.1778493	C E R E	-3.1367207
-0.22078355	E T R E	-3.130334
-0.7622	A T R E	-1.3290588
-0.10804572	T H R E	-3.0458443
-0.7622	B Y R E	-1.30103
-0.22078355	A Y R E	-3.1486027
-1.0206637	I N E E	-1.3553877
-0.17241319	G R E E	-3.7403626
-0.50429523	H R E E	-2.7403626
-0.9901081	A T E E	-1.3424227
-0.99942976	T H E E	-1.3424227
-0.96233463	B Y E E	-1.3290588
-0.6940911	H I T E	-3.1383028
-0.99477583	I N T E	-1.3553877
-0.99477583	A T T E	-1.3802112
-1.0848475	T H T E	-1.30103
-0.99477583	B Y T E	-1.3290588
-1.376138	N A T E	-0.8764378
-1.3611038	E A T E	-1.1719353
-1.3611038	D A T E	-0.9282007
-0.88999766	I N H E	-1.3290588
-1.4223837	I T H E	-1.50515
-1.0903938	A T H E	-1.30103
-0.88999766	T H H E	-1.3802112
-0.88999766	B Y H E	-1.3553877
-1.2741518	N B Y E	-0.9282007
-1.2741518	E B Y E	-1.1829307
-1.2741518	D B Y E	-0.91832995
-0.88493866	I N Y E	-1.3290588
-0.88493866	A T Y E	-1.30103
-0.88493866	T H Y E	-1.3802112
-0.88493866	B Y Y E	-1.3553877
-0.893934	I N P E	-1.3290588
-0.893934	A T P E	-1.30103
-0.8790066	T H P E	-1.3802112
-0.8790066	B Y P E	-1.3553877
-0.8468489	I N L E	-1.3553877
-0.8468489	A T L E	-1.3802112
-0.8468489	T H L E	-1.30103
-0.8468489	B Y L E	-1.3290588
-0.07494161	N P L E	-2.7269988
-0.07494161	R P L E	-2.7533276
-0.07494161	E P L E	-3.3290586
-0.07494161	T P L E	-2.7533276
-0.07494161	X P L E	-2.7533276
-0.07494161	O P L E	-3.0543578
-0.91418326	I N A E	-1.3290588
-0.9019805	A T A E	-1.3424227
-0.8867787	T H A E	-1.3424227
-0.8867787	B Y A E	-1.3553877
-0.33089978	N B S E	-1.3802112
-0.33089978	T B S E	-1.3424227
-0.33089978	H B S E	-1.3424227
-0.33089978	Y B S E	-1.30103
-0.33089978	N I S E	-1.3553877
-0.33089978	T I S E	-1.3553877
-0.33089978	H I S E	-1.3290588
-0.33089978	Y I S E	-1.3290588
-0.60842323	I N S E	-1.3424227
-0.37167734	N N S E	-1.30103
-0.37167734	T N S E	-1.3424227
-0.37167734	H N S E	-1.3424227
-0.37167734	Y N S E	-1.3802112
-0.33089978	N G S E	-1.3553877
-0.33089978	T G S E	-1.3290588
-0.33089978	H G S E	-1.3553877
-0.33089978	Y G S E	-1.3290588
-0.34520054	N R S E	-1.3802112
-0.34520054	T R S E	-1.3424227
-0.34520054	H R S E	-1.3424227
-0.34520054	Y R S E	-1.30103
-0.5161917	N E S E	-1.3290588
-0.36688015	T E S E	-1.3290588
-0.36688015	H E S E	-1.3553877
-0.36688015	Y E S E	-1.3553877
-0.37167734	N T S E	-1.3424227
-0.37167734	T T S E	-1.3802112
-0.46647984	H T S E	-1.30103
-0.37167734	Y T S E	-1.3424227
-0.60842323	A T S E	-1.3290588
-0.38886315	N H S E	-1.3424227
-0.5693459	T H S E	-1.3290588
-0.38886315	H H S E	-1.3802112
-0.38886315	Y H S E	-1.3424227
-0.59748626	B Y S E	-1.3424227
-0.36530292	N Y S E	-1.3424227
-0.36530292	T Y S E	-1.30103
-0.36530292	H Y S E	-1.3802112
-0.36530292	Y Y S E	-1.3424227
-0.33089978	N P S E	-1.3424227
-0.33089978	T P S E	-1.30103
-0.33089978	H P S E	-1.3802112
-0.33089978	Y P S E	-1.3424227
-0.33089978	N L S E	-1.3424227
-0.33089978	T L S E	-1.3802112
-0.33089978	H L S E	-1.30103
-0.33089978	Y L S E	-1.3424227
-0.30256367	N A S E	-1.3553877
-0.1259606	E A S E	-3.7403626
-0.30256367	T A S E	-1.3553877
-0.30256367	H A S E	-1.3290588
-0.30256367	Y A S E	-1.3290588
-0.33089978	N S S E	-1.3290588
-0.33089978	T S S E	-1.3553877
-0.33089978	H S S E	-1.3290588
-0.33089978	Y S S E	-1.3553877
-0.33089978	N J S E	-1.3802112
-0.33089978	T J S E	-1.3424227
-0.33089978	H J S E	-1.3424227
-0.33089978	Y J S E	-1.30103
-0.34520054	N X S E	-1.3553877
-0.34520054	T X S E	-1.3290588
-0.34520054	H X S E	-1.3553877
-0.34520054	Y X S E	-1.3290588
-0.33089978	N C S E	-1.3290588
-0.33089978	T C S E	-1.3553877
-0.33089978	H C S E	-1.3290588
-0.33089978	Y C S E	-1.3553877
-0.33089978	N V S E	-1.30103
-0.33089978	T V S E	-1.3424227
-0.33089978	H V S E	-1.3424227
-0.33089978	Y V S E	-1.3802112
-0.35699022	N O S E	-1.3553877
-0.35699022	T O S E	-1.3290588
-0.35699022	H O S E	-1.3553877
-0.35699022	Y O S E	-1.3290588
-0.33089978	N U S E	-1.3290588
-0.33089978	T U S E	-1.3290588
-0.33089978	H U S E	-1.3553877
-0.33089978	Y U S E	-1.3553877
-0.33089978	N Q S E	-1.3553877
-0.33089978	T Q S E	-1.3553877
-0.33089978	H Q S E	-1.3290588
-0.33089978	Y Q S E	-1.3290588
-0.33089978	N F S E	-1.30103
-0.33089978	T F S E	-1.3424227
-0.33089978	H F S E	-1.3424227
-0.33089978	Y F S E	-1.3802112
-0.33089978	N D S E	-1.3424227
-0.33089978	T D S E	-1.3802112
-0.33089978	H D S E	-1.30103
-0.33089978	Y D S E	-1.3424227
-0.33089978	N K S E	-1.3290588
-0.33089978	T K S E	-1.3553877
-0.33089978	H K S E	-1.3290588
-0.33089978	Y K S E	-1.3553877
-0.33089978	N M S E	-1.3290588
-0.33089978	T M S E	-1.3290588
-0.33089978	H M S E	-1.3553877
-0.33089978	Y M S E	-1.3553877
-0.33089978	N Z S E	-1.3553877
-0.33089978	T Z S E	-1.3553877
-0.33089978	H Z S E	-1.3290588
-0.33089978	Y Z S E	-1.3290588
-0.86245584	I N J E	-1.3802112
-0.86245584	A T J E	-1.3290588
-0.86245584	T H J E	-1.3553877
-0.86245584	B Y J E	-1.30103
-0.8724253	I N X E	-1.3424227
-0.8724253	A T X E	-1.3553877
-0.8724253	T H X E	-1.3290588
-0.8724253	B Y X E	-1.3424227
-0.8391049	I N C E	-1.3424227
-0.8391049	A T C E	-1.3290588
-0.8391049	T H C E	-1.3553877
-0.8391049	B Y C E	-1.3424227
-0.10363952	L A C E	-3.1400888
-0.010829204	F I V E	-2.7403626
-0.8183881	I N V E	-1.30103
-0.010829204	S E V E	-3.3424227
-0.8183881	A T V E	-1.3553877
-0.8183881	T H V E	-1.3290588
-0.8183881	B Y V E	-1.3802112
-1.0133638	I N O E	-1.3424227
-0.97177494	A T O E	-1.3553877
-0.9943264	T H O E	-1.3290588
-0.97177494	B Y O E	-1.3424227
-0.84184253	I N U E	-1.3553877
-0.84184253	A T U E	-1.3424227
-0.84184253	T H U E	-1.3424227
-0.84184253	B Y U E	-1.3290588
-0.07567321	B L U E	-3.1383028
-0.86245584	I N Q E	-1.3290588
-0.86245584	A T Q E	-1.3424227
-0.86245584	T H Q E	-1.3424227
-0.86245584	B Y Q E	-1.3553877
-1.0107776	I N F E	-1.30103
-1.0107776	A T F E	-1.3553877
-1.0780971	T H F E	-1.3290588
-1.0107776	B Y F E	-1.3802112
-0.87032723	I N D E	-1.3553877
-0.87032723	A T D E	-1.3802112
-0.87032723	T H D E	-1.30103
-0.87032723	B Y D E	-1.3290588
-0.86245584	I N K E	-1.3424227
-0.86245584	A T K E	-1.3290588
-0.86245584	T H K E	-1.3553877
-0.86245584	B Y K E	-1.3424227
-0.86245584	I N M E	-1.3553877
-0.86245584	A T M E	-1.3424227
-0.86245584	T H M E	-1.3424227
-0.86245584	B Y M E	-1.3290588
-0.042984698	N B Z E	-1.30103
-0.042984698	T B Z E	-1.3553877
-0.042984698	H B Z E	-1.3290588
-0.042984698	Y B Z E	-1.3802112
-0.042984698	N I Z E	-1.3553877
-0.042984698	T I Z E	-1.3424227
-0.042984698	H I Z E	-1.3424227
-0.042984698	Y I Z E	-1.3290588
-0.47851858	I N Z E	-1.3290588
-0.1187101	N N Z E	-1.3802112
-0.1187101	T N Z E	-1.3290588
-0.1187101	H N Z E	-1.3553877
-0.1187101	Y N Z E	-1.30103
-0.042984698	N G Z E	-1.3424227
-0.042984698	T G Z E	-1.3290588
-0.042984698	H G Z E	-1.3553877
-0.042984698	Y G Z E	-1.3424227
-0.042984698	N R Z E	-1.30103
-0.042984698	T R Z E	-1.3553877
-0.042984698	H R Z E	-1.3290588
-0.042984698	Y R Z E	-1.3802112
-0.042984698	N E Z E	-1.3290588
-0.042984698	T E Z E	-1.3424227
-0.042984698	H E Z E	-1.3424227
-0.042984698	Y E Z E	-1.3553877
-0.1187101	N T Z E	-1.3290588
-0.1187101	T T Z E	-1.30103
-0.1187101	H T Z E	-1.3802112
-0.1187101	Y T Z E	-1.3553877
-0.47851858	A T Z E	-1.3424227
-0.1325812	N H Z E	-1.3553877
-0.4413905	T H Z E	-1.3617278
-0.1325812	H H Z E	-1.30103
-0.1325812	Y H Z E	-1.3290588
-0.47851858	B Y Z E	-1.3553877
-0.1187101	N Y Z E	-1.3553877
-0.1187101	T Y Z E	-1.3802112
-0.1187101	H Y Z E	-1.30103
-0.1187101	Y Y Z E	-1.3290588
-0.042984698	N P Z E	-1.3553877
-0.042984698	T P Z E	-1.3802112
-0.042984698	H P Z E	-1.30103
-0.042984698	Y P Z E	-1.3290588
-0.042984698	N L Z E	-1.3290588
-0.042984698	T L Z E	-1.30103
-0.042984698	H L Z E	-1.3802112
-0.042984698	Y L Z E	-1.3553877
-0.042984698	N A Z E	-1.3553877
-0.042984698	T A Z E	-1.3424227
-0.042984698	H A Z E	-1.3424227
-0.042984698	Y A Z E	-1.3290588
-0.042984698	N S Z E	-1.3424227
-0.042984698	T S Z E	-1.3553877
-0.042984698	H S Z E	-1.3290588
-0.042984698	Y S Z E	-1.3424227
-0.042984698	N J Z E	-1.30103
-0.042984698	T J Z E	-1.3553877
-0.042984698	H J Z E	-1.3290588
-0.042984698	Y J Z E	-1.3802112
-0.042984698	N X Z E	-1.3424227
-0.042984698	T X Z E	-1.3290588
-0.042984698	H X Z E	-1.3553877
-0.042984698	Y X Z E	-1.3424227
-0.042984698	N C Z E	-1.3424227
-0.042984698	T C Z E	-1.3553877
-0.042984698	H C Z E	-1.3290588
-0.042984698	Y C Z E	-1.3424227
-0.042984698	N V Z E	-1.3802112
-0.042984698	T V Z E	-1.3290588
-0.042984698	H V Z E	-1.3553877
-0.042984698	Y V Z E	-1.30103
-0.042984698	N O Z E	-1.3424227
-0.042984698	T O Z E	-1.3290588
-0.042984698	H O Z E	-1.3553877
-0.042984698	Y O Z E	-1.3424227
-0.042984698	N U Z E	-1.3290588
-0.042984698	T U Z E	-1.3424227
-0.042984698	H U Z E	-1.3424227
-0.042984698	Y U Z E	-1.3553877
-0.042984698	N Q Z E	-1.3553877
-0.042984698	T Q Z E	-1.3424227
-0.042984698	H Q Z E	-1.3424227
-0.042984698	Y Q Z E	-1.3290588
-0.042984698	N F Z E	-1.3802112
-0.042984698	T F Z E	-1.3290588
-0.042984698	H F Z E	-1.3553877
-0.042984698	Y F Z E	-1.30103
-0.042984698	N D Z E	-1.3290588
-0.042984698	T D Z E	-1.30103
-0.042984698	H D Z E	-1.3802112
-0.042984698	Y D Z E	-1.3553877
-0.042984698	N K Z E	-1.3424227
-0.042984698	T K Z E	-1.3553877
-0.042984698	H K Z E	-1.3290588
-0.042984698	Y K Z E	-1.3424227
-0.042984698	N M Z E	-1.3290588
-0.042984698	T M Z E	-1.3424227
-0.042984698	H M Z E	-1.3424227
-0.042984698	Y M Z E	-1.3553877
-0.042984698	N Z Z E	-1.3553877
-0.042984698	T Z Z E	-1.3424227
-0.042984698	H Z Z E	-1.3424227
-0.042984698	Y Z Z E	-1.3290588
-0.8801731	B I N W	-3.1309767
-0.9201668	E E N W	-3.1375651
-0.83310676	I T E W	-3.1381974
-0.79185504	A C E W	-3.1442628
-0.7938728	L U E W	-3.1365092
-0.34882697	N B T W	-1.3424227
-0.34882697	T B T W	-1.3290588
-0.34882697	H B T W	-1.3553877
-0.34882697	Y B T W	-1.3424227
-0.38314068	N I T W	-1.3802112
-0.38314068	T I T W	-1.3290588
-0.48078614	H I T W	-1.3553877
-0.38314068	Y I T W	-1.30103
-0.41855937	N N T W	-1.3424227
-0.41855937	T N T W	-1.3553877
-0.41855937	H N T W	-1.3290588
-0.41855937	Y N T W	-1.3424227
-0.34882697	N G T W	-1.3290588
-0.34882697	T G T W	-1.30103
-0.34882697	H G T W	-1.3802112
-0.34882697	Y G T W	-1.3553877
-0.34882697	N R T W	-1.3424227
-0.34882697	T R T W	-1.3290588
-0.34882697	H R T W	-1.3553877
-0.34882697	Y R T W	-1.3424227
-0.35904673	N E T W	-1.30103
-0.35904673	T E T W	-1.3553877
-0.35904673	H E T W	-1.3290588
-0.35904673	Y E T W	-1.3802112
-0.5051847	S E T W	-3.12969
-0.41855937	N T T W	-1.3553877
-0.41855937	T T T W	-1.3424227
-0.41855937	H T T W	-1.3424227
-0.41855937	Y T T W	-1.3290588
-0.43715146	N H T W	-1.3290588
-0.76694584	T H T W	-1.3424227
-0.43715146	H H T W	-1.3424227
-0.43715146	Y H T W	-1.3553877
-0.41855937	N Y T W	-1.3290588
-0.41855937	T Y T W	-1.3424227
-0.41855937	H Y T W	-1.3424227
-0.41855937	Y Y T W	-1.3553877
-0.34882697	N P T W	-1.3290588
-0.34882697	T P T W	-1.3424227
-0.34882697	H P T W	-1.3424227
-0.34882697	Y P T W	-1.3553877
-0.34882697	N L T W	-1.3553877
-0.34882697	T L T W	-1.3424227
-0.34882697	H L T W	-1.3424227
-0.34882697	Y L T W	-1.3290588
-1.062601	N A T W	-1.3802112
-0.49749398	T A T W	-1.3290588
-0.49749398	H A T W	-1.3553877
-0.49749398	Y A T W	-1.30103
-0.34882697	N S T W	-1.3553877
-0.34882697	T S T W	-1.3802112
-0.34882697	H S T W	-1.30103
-0.34882697	Y S T W	-1.3290588
-0.34882697	N J T W	-1.3424227
-0.34882697	T J T W	-1.3290588
-0.34882697	H J T W	-1.3553877
-0.34882697	Y J T W	-1.3424227
-0.34882697	N X T W	-1.3290588
-0.34882697	T X T W	-1.30103
-0.34882697	H X T W	-1.3802112
-0.34882697	Y X T W	-1.3553877
-0.34882697	N C T W	-1.3553877
-0.34882697	T C T W	-1.3802112
-0.34882697	H C T W	-1.30103
-0.34882697	Y C T W	-1.3290588
-0.34882697	N V T W	-1.3424227
-0.34882697	T V T W	-1.3553877
-0.34882697	H V T W	-1.3290588
-0.34882697	Y V T W	-1.3424227
-0.34882697	N O T W	-1.3290588
-0.34882697	T O T W	-1.30103
-0.34882697	H O T W	-1.3802112
-0.34882697	Y O T W	-1.3553877
-0.34882697	N U T W	-1.30103
-0.34882697	T U T W	-1.3553877
-0.34882697	H U T W	-1.3290588
-0.34882697	Y U T W	-1.3802112
-0.34882697	N Q T W	-1.3802112
-0.34882697	T Q T W	-1.3290588
-0.34882697	H Q T W	-1.3553877
-0.34882697	Y Q T W	-1.30103
-0.34882697	N F T W	-1.3424227
-0.34882697	T F T W	-1.3553877
-0.34882697	H F T W	-1.3290588
-0.34882697	Y F T W	-1.3424227
-0.34882697	N D T W	-1.3553877
-0.34882697	T D T W	-1.3424227
-0.34882697	H D T W	-1.3424227
-0.34882697	Y D T W	-1.3290588
-0.34882697	N K T W	-1.3553877
-0.34882697	T K T W	-1.3802112
-0.34882697	H K T W	-1.30103
-0.34882697	Y K T W	-1.3290588
-0.34882697	N M T W	-1.30103
-0.34882697	T M T W	-1.3553877
-0.34882697	H M T W	-1.3290588
-0.34882697	Y M T W	-1.3802112
-0.34882697	N Z T W	-1.3802112
-0.34882697	T Z T W	-1.3290588
-0.34882697	H Z T W	-1.3553877
-0.34882697	Y Z T W	-1.30103
-0.71769035	L A Y W	-3.1479852
-0.4149356	N N O W	-2.7269988
-0.19746655	R N O W	-2.7533276
-0.19746655	E N O W	-3.3290586
-0.4149356	T N O W	-2.7533276
-0.19746655	X N O W	-2.7533276
-0.19746655	O N O W	-3.0543578
-0.6829684	R E D W	-3.1396692
-0.9157627	I N B T	-1.3424227
-0.8923689	A T B T	-1.3152704
-0.8774943	T H B T	-1.3679768
-0.8923689	B Y B T	-1.3424227
-1.1107477	I N I T	-1.3679768
-0.10721825	N W I T	-3.1375651
-0.10721825	E W I T	-3.438384
-0.10721825	D W I T	-3.1396692
-0.858933	A T I T	-1.3290588
-0.15782693	W H I T	-3.7403626
-0.7820854	T H I T	-1.3553877
-0.858933	B Y I T	-1.3152704
-1.6400889	N I N T	-0.92329335
-1.3660991	E I N T	-1.20412
-1.3660991	D I N T	-0.8926246
-0.9742771	I N N T	-1.3424227
-0.9742771	A T N T	-1.3679768
-1.0045718	T H N T	-1.3152704
-0.96705335	B Y N T	-1.3424227
-0.90044785	I N G T	-1.3290588
-0.8893782	A T G T	-1.3152704
-0.87460387	T H G T	-1.3679768
-0.8893782	B Y G T	-1.3553877
-0.90018725	I N R T	-1.3424227
-0.8949455	A T R T	-1.3152704
-1.4728202	T H R T	-1.3679768
-0.8949455	B Y R T	-1.3424227
-1.0206637	I N E T	-1.3152704
-0.9901081	A T E T	-1.3553877
-0.99942976	T H E T	-1.3290588
-0.96233463	B Y E T	-1.3679768
-0.00007841568	<s> S E T	-3.1305482
-1.0034708	I N T T	-1.3679768
-1.0034708	A T T T	-1.3424227
-1.0959231	T H T T	-1.3424227
-1.0034708	B Y T T	-1.3152704
-1.399491	N A T T	-0.8926246
-1.3836412	E A T T	-1.2243234
-1.3836412	D A T T	-0.8480424
-0.8727851	I N H T	-1.3152704
-0.10963985	I G H T	-2.7403626
-1.3898196	I T H T	-1.4946846
-1.0744553	A T H T	-1.3424227
-0.8727851	T H H T	-1.3424227
-0.8727851	B Y H T	-1.3679768
-1.2741518	N B Y T	-0.8480424
-1.2741518	E B Y T	-1.1883258
-1.2741518	D B Y T	-0.91330916
-0.88493866	I N Y T	-1.3152704
-0.88493866	A T Y T	-1.3424227
-0.88493866	T H Y T	-1.3424227
-0.88493866	B Y Y T	-1.3679768
-0.893934	I N P T	-1.3152704
-0.893934	A T P T	-1.3424227
-0.8790066	T H P T	-1.3424227
-0.8790066	B Y P T	-1.3679768
-0.871375	I N L T	-1.3679768
-0.871375	A T L T	-1.3424227
-0.871375	T H L T	-1.3424227
-0.871375	B Y L T	-1.3152704
-0.79014915	I N A T	-1.3679768
-0.467632	E N A T	-1.7413092
-0.20867823	T E A T	-1.741099
-0.20867823	U E A T	-1.7415193
-0.86068845	A T A T	-1.3290588
-0.84684384	T H A T	-1.3553877
-0.84684384	B Y A T	-1.3152704
-0.10505225	E D A T	-1.7387806
-1.017515	I N S T	-1.3553877
-1.017515	A T S T	-1.3679768
-1.0814426	T H S T	-1.3152704
-1.0134497	B Y S T	-1.3290588
-0.86245584	I N J T	-1.3424227
-0.86245584	A T J T	-1.3152704
-0.86245584	T H J T	-1.3679768
-0.86245584	B Y J T	-1.3424227
-0.8724253	I N X T	-1.3290588
-0.8724253	A T X T	-1.3152704
-0.8724253	T H X T	-1.3679768
-0.8724253	B Y X T	-1.3553877
-0.86575425	I N C T	-1.3553877
-0.86575425	A T C T	-1.3679768
-0.86575425	T H C T	-1.3152704
-0.86575425	B Y C T	-1.3290588
-0.86885554	I N V T	-1.3424227
-0.86885554	A T V T	-1.3679768
-0.86885554	T H V T	-1.3152704
-0.86885554	B Y V T	-1.3424227
-1.0133638	I N O T	-1.3290588
-0.97177494	A T O T	-1.3152704
-0.9943264	T H O T	-1.3679768
-0.97177494	B Y O T	-1.3553877
-0.86774445	I N U T	-1.3152704
-0.86774445	A T U T	-1.3553877
-0.86774445	T H U T	-1.3290588
-0.86774445	B Y U T	-1.3679768
-0.86245584	I N Q T	-1.3679768
-0.86245584	A T Q T	-1.3290588
-0.86245584	T H Q T	-1.3553877
-0.86245584	B Y Q T	-1.3152704
-1.0107776	I N F T	-1.3424227
-1.0107776	A T F T	-1.3679768
-1.0780971	T H F T	-1.3152704
-1.0107776	B Y F T	-1.3424227
-0.87032723	I N D T	-1.3679768
-0.87032723	A T D T	-1.3424227
-0.87032723	T H D T	-1.3424227
-0.87032723	B Y D T	-1.3152704
-0.86245584	I N K T	-1.3553877
-0.86245584	A T K T	-1.3679768
-0.86245584	T H K T	-1.3152704
-0.86245584	B Y K T	-1.3290588
-0.86245584	I N M T	-1.3152704
-0.86245584	A T M T	-1.3553877
-0.86245584	T H M T	-1.3290588
-0.86245584	B Y M T	-1.3679768
-0.9656258	I N Z T	-1.3679768
-0.9656258	A T Z T	-1.3290588
-0.98720986	T H Z T	-1.3553877
-0.9656258	B Y Z T	-1.3152704
-1.7837595	N I N H	-0.8480424
-1.5013738	E I N H	-1.1883258
-1.5013738	D I N H	-0.91330916
-0.01292904	E I G H	-3.3424227
-0.15698735	I N W H	-3.1309767
-0.18377185	C E W H	-3.1442628
-0.93363535	E T W H	-3.12969
-0.085314825	A Y W H	-3.1479852
-0.34882697	N B T H	-1.3424227
-0.34882697	T B T H	-1.30103
-0.34882697	H B T H	-1.3802112
-0.34882697	Y B T H	-1.3424227
-0.33360785	N I T H	-1.3553877
-0.14638357	W I T H	-2.3421068
-0.33360785	T I T H	-1.3290588
-0.41960853	H I T H	-1.3553877
-0.33360785	Y I T H	-1.3290588
-0.41855937	N N T H	-1.3424227
-0.41855937	T N T H	-1.3802112
-0.41855937	H N T H	-1.30103
-0.41855937	Y N T H	-1.3424227
-0.34882697	N G T H	-1.3290588
-0.34882697	T G T H	-1.3290588
-0.34882697	H G T H	-1.3553877
-0.34882697	Y G T H	-1.3553877
-0.34882697	N R T H	-1.3424227
-0.34882697	T R T H	-1.30103
-0.34882697	H R T H	-1.3802112
-0.34882697	Y R T H	-1.3424227
-0.40251502	N E T H	-1.3290588
-0.40251502	T E T H	-1.3553877
-0.40251502	H E T H	-1.3290588
-0.40251502	Y E T H	-1.3553877
-0.41855937	N T T H	-1.3802112
-0.41855937	T T T H	-1.3424227
-0.41855937	H T T H	-1.3424227
-0.41855937	Y T T H	-1.30103
-0.43715146	N H T H	-1.30103
-0.76694584	T H T H	-1.3424227
-0.43715146	H H T H	-1.3424227
-0.43715146	Y H T H	-1.3802112
-0.41855937	N Y T H	-1.30103
-0.41855937	T Y T H	-1.3424227
-0.41855937	H Y T H	-1.3424227
-0.41855937	Y Y T H	-1.3802112
-0.34882697	N P T H	-1.30103
-0.34882697	T P T H	-1.3424227
-0.34882697	H P T H	-1.3424227
-0.34882697	Y P T H	-1.3802112
-0.34882697	N L T H	-1.3802112
-0.34882697	T L T H	-1.3424227
-0.34882697	H L T H	-1.3424227
-0.34882697	Y L T H	-1.30103
-0.9307392	N A T H	-1
-0.99890304	E A T H	-1.1663314
-0.48115337	T A T H	-1.3290588
-0.48115337	H A T H	-1.3553877
-0.48115337	Y A T H	-1.3290588
-0.99890304	D A T H	-0.92329335
-0.34882697	N S T H	-1.3553877
-0.34882697	T S T H	-1.3553877
-0.34882697	H S T H	-1.3290588
-0.34882697	Y S T H	-1.3290588
-0.34882697	N J T H	-1.3424227
-0.34882697	T J T H	-1.30103
-0.34882697	H J T H	-1.3802112
-0.34882697	Y J T H	-1.3424227
-0.34882697	N X T H	-1.3290588
-0.34882697	T X T H	-1.3290588
-0.34882697	H X T H	-1.3553877
-0.34882697	Y X T H	-1.3553877
-0.34882697	N C T H	-1.3553877
-0.34882697	T C T H	-1.3553877
-0.34882697	H C T H	-1.3290588
-0.34882697	Y C T H	-1.3290588
-0.34882697	N V T H	-1.3424227
-0.34882697	T V T H	-1.3802112
-0.34882697	H V T H	-1.30103
-0.34882697	Y V T H	-1.3424227
-0.34882697	N O T H	-1.3290588
-0.34882697	T O T H	-1.3290588
-0.34882697	H O T H	-1.3553877
-0.34882697	Y O T H	-1.3553877
-0.34882697	N U T H	-1.3290588
-0.34882697	T U T H	-1.3553877
-0.34882697	H U T H	-1.3290588
-0.34882697	Y U T H	-1.3553877
-0.34882697	N Q T H	-1.3553877
-0.34882697	T Q T H	-1.3290588
-0.34882697	H Q T H	-1.3553877
-0.34882697	Y Q T H	-1.3290588
-0.34882697	N F T H	-1.3424227
-0.34882697	T F T H	-1.3802112
-0.34882697	H F T H	-1.30103
-0.34882697	Y F T H	-1.3424227
-0.34882697	N D T H	-1.3802112
-0.34882697	T D T H	-1.3424227
-0.34882697	H D T H	-1.3424227
-0.34882697	Y D T H	-1.30103
-0.34882697	N K T H	-1.3553877
-0.34882697	T K T H	-1.3553877
-0.34882697	H K T H	-1.3290588
-0.34882697	Y K T H	-1.3290588
-0.34882697	N M T H	-1.3290588
-0.34882697	T M T H	-1.3553877
-0.34882697	H M T H	-1.3290588
-0.34882697	Y M T H	-1.3553877
-0.34882697	N Z T H	-1.3553877
-0.34882697	T Z T H	-1.3290588
-0.34882697	H Z T H	-1.3553877
-0.34882697	Y Z T H	-1.3290588
-1.6191201	I T H H	-1.4999487
-1.4677284	N B Y H	-0.92329335
-1.4677284	E B Y H	-1.20412
-1.4677284	D B Y H	-0.8926246
-0.2675085	E N B Y	-1.7387806
-0.16812359	T E B Y	-1.7415193
-0.16812359	U E B Y	-1.7402574
-0.11784915	E D B Y	-1.7396251
-1.7837595	N I N Y	-0.8480424
-1.5013738	E I N Y	-1.1883258
-1.5013738	D I N Y	-0.91330916
-1.5252725	N A T Y	-0.91330916
-1.5042256	E A T Y	-1.1663314
-1.5042256	D A T Y	-0.92329335
-1.6191201	I T H Y	-1.4999487
-1.4677284	N B Y Y	-0.92329335
-1.4677284	E B Y Y	-1.20412
-1.4677284	D B Y Y	-0.8926246
-0.00005736709	<s> L A Y	-3.146593
-1.7567389	N I N P	-0.8480424
-1.4761376	E I N P	-1.1883258
-1.4761376	D I N P	-0.91330916
-0.91810673	V E N P	-2.7269988
-0.7132718	O U R P	-2.7533276
-1.2410536	I N E P	-2.7269988
-0.62109387	O N E P	-2.7269988
-0.8630767	R E E P	-2.7269988
-0.7994668	I V E P	-2.7269988
-0.8485006	G H T P	-2.7533276
-1.5020272	N A T P	-0.91330916
-1.4820523	E A T P	-1.1663314
-1.4820523	D A T P	-0.92329335
-1.6086097	I T H P	-1.4999487
-1.4558687	N B Y P	-0.92329335
-1.4558687	E B Y P	-1.20412
-1.4558687	D B Y P	-0.8926246
-0.61387527	S I X P	-2.7533276
-0.79396415	E R O P	-2.7533276
-0.6140129	T W O P	-2.7533276
-1.1541747	I N B L	-3.1442628
-0.21972187	C E B L	-3.1305482
-0.258957	E T B L	-3.1301193
-0.258957	A Y B L	-3.1479852
-1.780756	N I N L	-0.92329335
-1.4985738	E I N L	-1.20412
-1.4985738	D I N L	-0.8926246
-1.5226628	N A T L	-0.8926246
-1.501739	E A T L	-1.2243234
-1.501739	D A T L	-0.8480424
-1.6155883	I T H L	-1.4946846
-1.4637392	N B Y L	-0.8480424
-1.4637392	E B Y L	-1.1883258
-1.4637392	D B Y L	-0.91330916
-0.24220906	E N P L	-2.7269988
-0.10167509	U R P L	-2.7533276
-0.10167509	N E P L	-3.0280287
-0.10167509	E E P L	-2.7269988
-0.10167509	V E P L	-2.7269988
-0.24220906	H T P L	-2.7533276
-0.10167509	I X P L	-2.7533276
-0.10167509	R O P L	-2.7533276
-0.10167509	W O P L	-2.7533276
-1.7511113	N I N A	-0.9282007
-1.4708688	E I N A	-1.1829307
-1.4708688	D I N A	-0.91832995
-0.86075294	E E N A	-3.1392493
-0.86075294	V E N A	-2.7533276
-0.05621764	N A G A	-2.7533276
-0.05621764	R A G A	-2.7269988
-0.05621764	E A G A	-3.3553877
-0.05621764	T A G A	-2.7269988
-0.05621764	X A G A	-2.7269988
-0.05621764	O A G A	-3.0280287
-0.7120446	O U R A	-2.7269988
-1.176266	I N E A	-2.7533276
-0.6190871	O N E A	-2.7533276
-0.8366898	R E E A	-2.7533276
-0.8070719	I T E A	-3.139039
-0.10702499	P L E A	-3.7403626
-0.77622837	I V E A	-2.7533276
-0.77316105	L U E A	-3.1394594
-0.8474653	G H T A	-2.7269988
-1.497093	N A T A	-0.91832995
-1.4773388	E A T A	-1.21936
-1.4773388	D A T A	-0.85387194
-1.6017413	I T H A	-1.4893558
-1.4481386	N B Y A	-0.85387194
-1.4481386	E B Y A	-1.2092596
-1.4481386	D B Y A	-0.8764378
-0.00007202074	<s> P L A	-3.7421489
-0.613747	S I X A	-2.7269988
-0.7931919	E R O A	-2.7269988
-0.6139312	T W O A	-2.7269988
-0.68042105	R E D A	-3.1367207
-0.91460496	I N B S	-1.3679768
-0.8912718	A T B S	-1.3424227
-0.876434	T H B S	-1.3424227
-0.8912718	B Y B S	-1.3152704
-1.1203444	I N I S	-1.3553877
-0.88037694	A T I S	-1.3679768
-0.89535236	T H I S	-1.3152704
-0.88037694	B Y I S	-1.3290588
-1.6118027	N I N S	-0.8764378
-1.3391783	E I N S	-1.1719353
-1.3391783	D I N S	-0.9282007
-0.9632848	I N N S	-1.3152704
-0.8783642	V E N S	-2.7533276
-0.9632848	A T N S	-1.3424227
-0.992892	T H N S	-1.3424227
-0.95632845	B Y N S	-1.3679768
-0.8993489	I N G S	-1.3679768
-0.88830686	A T G S	-1.3290588
-0.87356836	T H G S	-1.3553877
-0.88830686	B Y G S	-1.3152704
-0.8764168	I N R S	-1.3679768
-0.870365	A T R S	-1.3424227
-1.4458947	T H R S	-1.3424227
-0.870365	B Y R S	-1.3152704
-0.658359	O U R S	-2.7269988
-0.9461292	I N E S	-2.3077338
-0.61841804	O N E S	-2.7533276
-0.82821214	R E E S	-2.7533276
-0.97797704	A T E S	-1.3152704
-0.9864417	T H E S	-1.3679768
-0.9503954	B Y E S	-1.3553877
-0.7687269	I V E S	-2.7533276
-1.0027541	I N T S	-1.3424227
-1.0027541	A T T S	-1.3679768
-0.78793633	G H T S	-2.7269988
-1.0291464	T H T S	-1.3152704
-1.0027541	B Y T S	-1.3424227
-1.397536	N A T S	-0.9282007
-1.3817562	E A T S	-1.1829307
-1.3817562	D A T S	-0.91832995
-0.88882875	I N H S	-1.3424227
-1.4201351	I T H S	-1.4893558
-1.0893128	A T H S	-1.3152704
-0.88882875	T H H S	-1.3679768
-0.88882875	B Y H S	-1.3424227
-1.2715931	N B Y S	-0.91832995
-1.2715931	E B Y S	-1.21936
-1.2715931	D B Y S	-0.85387194
-0.88389254	I N Y S	-1.3424227
-0.88389254	A T Y S	-1.3152704
-0.88389254	T H Y S	-1.3679768
-0.88389254	B Y Y S	-1.3424227
-0.8929632	I N P S	-1.3424227
-0.8929632	A T P S	-1.3152704
-0.8780685	T H P S	-1.3679768
-0.8780685	B Y P S	-1.3424227
-0.87036693	I N L S	-1.3424227
-0.87036693	A T L S	-1.3679768
-0.87036693	T H L S	-1.3152704
-0.87036693	B Y L S	-1.3424227
-0.8915068	I N A S	-1.3553877
-0.2434863	L E A S	-3.7403626
-0.87991655	A T A S	-1.3679768
-0.86545545	T H A S	-1.3152704
-0.86545545	B Y A S	-1.3290588
-1.0170501	I N S S	-1.3152704
-1.0170501	A T S S	-1.3553877
-1.0808746	T H S S	-1.3290588
-1.0129962	B Y S S	-1.3679768
-0.8614682	I N J S	-1.3679768
-0.8614682	A T J S	-1.3424227
-0.8614682	T H J S	-1.3424227
-0.8614682	B Y J S	-1.3152704
-0.60780674	S I X S	-2.7269988
-0.8469262	I N X S	-1.3679768
-0.8469262	A T X S	-1.3290588
-0.8469262	T H X S	-1.3553877
-0.8469262	B Y X S	-1.3152704
-0.8647934	I N C S	-1.3152704
-0.8647934	A T C S	-1.3553877
-0.8647934	T H C S	-1.3290588
-0.8647934	B Y C S	-1.3679768
-0.86792	I N V S	-1.3152704
-0.86792	A T V S	-1.3424227
-0.86792	T H V S	-1.3424227
-0.86792	B Y V S	-1.3679768
-0.98679876	I N O S	-1.3679768
-0.7587988	E R O S	-2.7269988
-0.6101576	T W O S	-2.7269988
-0.94383997	A T O S	-1.3290588
-0.9621208	T H O S	-1.3553877
-0.94383997	B Y O S	-1.3152704
-0.8667668	I N U S	-1.3290588
-0.8667668	A T U S	-1.3152704
-0.8667668	T H U S	-1.3679768
-0.8667668	B Y U S	-1.3553877
-0.8614682	I N Q S	-1.3553877
-0.8614682	A T Q S	-1.3679768
-0.8614682	T H Q S	-1.3152704
-0.8614682	B Y Q S	-1.3290588
-1.0102966	I N F S	-1.3152704
-1.0102966	A T F S	-1.3424227
-1.0774953	T H F S	-1.3424227
-1.0102966	B Y F S	-1.3679768
-0.8692797	I N D S	-1.3424227
-0.8692797	A T D S	-1.3679768
-0.8692797	T H D S	-1.3152704
-0.8692797	B Y D S	-1.3424227
-0.8614682	I N K S	-1.3152704
-0.8614682	A T K S	-1.3553877
-0.8614682	T H K S	-1.3290588
-0.8614682	B Y K S	-1.3679768
-0.8614682	I N M S	-1.3290588
-0.8614682	A T M S	-1.3152704
-0.8614682	T H M S	-1.3679768
-0.8614682	B Y M S	-1.3553877
-0.96503997	I N Z S	-1.3553877
-0.96503997	A T Z S	-1.3679768
-0.9865326	T H Z S	-1.3152704
-0.96503997	B Y Z S	-1.3290588
-1.7898296	N I N J	-0.8926246
-1.5070286	E I N J	-1.2243234
-1.5070286	D I N J	-0.8480424
-1.5305394	N A T J	-0.8480424
-1.5092419	E A T J	-1.1883258
-1.5092419	D A T J	-0.91330916
-1.6262712	I T H J	-1.5077274
-1.4758188	N B Y J	-0.91330916
-1.4758188	E B Y J	-1.1663314
-1.4758188	D B Y J	-0.92329335
-0.0096895	B S I X	-1.3424227
-0.0096895	I S I X	-1.3424227
-0.0096895	N S I X	-1.3424227
-0.0096895	G S I X	-1.3424227
-0.0096895	R S I X	-1.3424227
-0.0096895	E S I X	-1.3424227
-0.0096895	T S I X	-1.3424227
-0.0096895	H S I X	-1.3424227
-0.0096895	Y S I X	-1.3424227
-0.0096895	P S I X	-1.3424227
-0.0096895	L S I X	-1.3424227
-0.0096895	A S I X	-1.3424227
-0.0096895	S S I X	-1.3424227
-0.0096895	J S I X	-1.3424227
-0.0096895	X S I X	-1.3424227
-0.0096895	C S I X	-1.3424227
-0.0096895	V S I X	-1.3424227
-0.0096895	O S I X	-1.3424227
-0.0096895	U S I X	-1.3424227
-0.0096895	Q S I X	-1.3424227
-0.0096895	F S I X	-1.3424227
-0.0096895	D S I X	-1.3424227
-0.0096895	K S I X	-1.3424227
-0.0096895	M S I X	-1.3424227
-0.0096895	Z S I X	-1.3424227
-1.7867839	N I N X	-0.91832995
-1.504192	E I N X	-1.21936
-1.504192	D I N X	-0.85387194
-1.527898	N A T X	-0.85387194
-1.5067265	E A T X	-1.2092596
-1.5067265	D A T X	-0.8764378
-1.622681	I T H X	-1.50515
-1.4717548	N B Y X	-0.8764378
-1.4717548	E B Y X	-1.1719353
-1.4717548	D B Y X	-0.9282007
-1.7867839	N I N C	-0.8764378
-1.504192	E I N C	-1.1719353
-1.504192	D I N C	-0.9282007
-1.527898	N A T C	-0.9282007
-1.5067265	E A T C	-1.1829307
-1.5067265	D A T C	-0.91832995
-1.622681	I T H C	-1.4893558
-1.4717548	N B Y C	-0.91832995
-1.4717548	E B Y C	-1.21936
-1.4717548	D B Y C	-0.85387194
-0.2009931	P L A C	-3.7421489
-0.009678382	B F I V	-1.9444827
-0.009678382	I F I V	-1.9444827
-0.009678382	N F I V	-1.9444827
-0.009678382	G F I V	-1.9444827
-0.009678382	R F I V	-1.9444827
-0.009678382	E F I V	-1.9444827
-0.009678382	T F I V	-1.9444827
-0.009678382	H F I V	-1.9444827
-0.009678382	Y F I V	-1.9444827
-0.009678382	P F I V	-1.9444827
-0.009678382	L F I V	-1.9444827
-0.009678382	A F I V	-1.9444827
-0.009678382	S F I V	-1.9444827
-0.009678382	J F I V	-1.9444827
-0.009678382	X F I V	-1.9444827
-0.009678382	C F I V	-1.9444827
-0.009678382	V F I V	-1.9444827
-0.009678382	O F I V	-1.9444827
-0.009678382	U F I V	-1.9444827
-0.009678382	Q F I V	-1.9444827
-0.009678382	F F I V	-1.9444827
-0.009678382	D F I V	-1.9444827
-0.009678382	K F I V	-1.9444827
-0.009678382	M F I V	-1.9444827
-0.009678382	Z F I V	-1.9444827
-1.7837595	N I N V	-0.91330916
-1.5013738	E I N V	-1.1663314
-1.5013738	D I N V	-0.92329335
-0.04104053	B S E V	-1.9444827
-0.04104053	I S E V	-1.9444827
-0.094842866	N S E V	-1.9444827
-0.04104053	G S E V	-1.9444827
-0.04104053	R S E V	-1.9444827
-0.04104053	E S E V	-1.9444827
-0.094842866	T S E V	-1.9444827
-0.094842866	H S E V	-1.9444827
-0.094842866	Y S E V	-1.9444827
-0.04104053	P S E V	-1.9444827
-0.04104053	L S E V	-1.9444827
-0.094842866	A S E V	-1.9444827
-0.04104053	S S E V	-1.9444827
-0.04104053	J S E V	-1.9444827
-0.04104053	X S E V	-1.9444827
-0.04104053	C S E V	-1.9444827
-0.04104053	V S E V	-1.9444827
-0.04104053	O S E V	-1.9444827
-0.04104053	U S E V	-1.9444827
-0.04104053	Q S E V	-1.9444827
-0.04104053	F S E V	-1.9444827
-0.04104053	D S E V	-1.9444827
-0.04104053	K S E V	-1.9444827
-0.04104053	M S E V	-1.9444827
-0.04104053	Z S E V	-1.9444827
-1.5252725	N A T V	-0.92329335
-1.5042256	E A T V	-1.20412
-1.5042256	D A T V	-0.8926246
-1.6191201	I T H V	-1.4866666
-1.4677284	N B Y V	-0.8926246
-1.4677284	E B Y V	-1.2243234
-1.4677284	D B Y V	-0.8480424
-0.91460496	I N B O	-1.3290588
-0.8912718	A T B O	-1.3553877
-0.876434	T H B O	-1.3290588
-0.8912718	B Y B O	-1.3553877
-1.1203444	I N I O	-1.3802112
-0.88037694	A T I O	-1.3424227
-0.89535236	T H I O	-1.3424227
-0.88037694	B Y I O	-1.30103
-1.5417074	N I N O	-0.91832995
-1.2721226	E I N O	-1.21936
-1.2721226	D I N O	-0.85387194
-0.8626145	I N N O	-1.3553877
-0.24735138	E N N O	-2.7269988
-0.24332927	U R N O	-2.7533276
-0.3913321	N E N O	-3.0280287
-0.76245797	E E N O	-2.7269988
-0.76245797	V E N O	-2.7269988
-0.5006136	H T N O	-2.7533276
-0.8626145	A T N O	-1.3290588
-0.9620055	T H N O	-1.3553877
-0.92785597	B Y N O	-1.3290588
-0.24332927	I X N O	-2.7533276
-0.9265784	R O N O	-2.7533276
-0.28147852	W O N O	-2.7533276
-0.8993489	I N G O	-1.3424227
-0.88830686	A T G O	-1.30103
-0.87356836	T H G O	-1.3802112
-0.88830686	B Y G O	-1.3424227
-0.8764168	I N R O	-1.3290588
-0.018248184	Z E R O	-2.7403626
-0.870365	A T R O	-1.3553877
-1.4458947	T H R O	-1.3290588
-0.870365	B Y R O	-1.3553877
-1.033304	I N E O	-1.30103
-1.0009344	A T E O	-1.3424227
-1.0110428	T H E O	-1.3424227
-0.9729852	B Y E O	-1.3802112
-0.014729081	B T W O	-1.3424227
-0.014729081	I T W O	-1.3424227
-0.014729081	N T W O	-1.3424227
-0.014729081	G T W O	-1.3424227
-0.014729081	R T W O	-1.3424227
-0.06326986	E T W O	-1.3424227
-0.014729081	T T W O	-1.3424227
-0.014729081	H T W O	-1.3424227
-0.014729081	Y T W O	-1.3424227
-0.014729081	P T W O	-1.3424227
-0.014729081	L T W O	-1.3424227
-0.014729081	A T W O	-1.3424227
-0.014729081	S T W O	-1.3424227
-0.014729081	J T W O	-1.3424227
-0.014729081	X T W O	-1.3424227
-0.014729081	C T W O	-1.3424227
-0.014729081	V T W O	-1.3424227
-0.014729081	O T W O	-1.3424227
-0.014729081	U T W O	-1.3424227
-0.014729081	Q T W O	-1.3424227
-0.014729081	F T W O	-1.3424227
-0.014729081	D T W O	-1.3424227
-0.014729081	K T W O	-1.3424227
-0.014729081	M T W O	-1.3424227
-0.014729081	Z T W O	-1.3424227
-1.0027541	I N T O	-1.3290588
-1.0027541	A T T O	-1.3290588
-1.0950079	T H T O	-1.3553877
-1.0027541	B Y T O	-1.3553877
-1.397536	N A T O	-0.85387194
-1.3817562	E A T O	-1.2092596
-1.3817562	D A T O	-0.8764378
-0.88882875	I N H O	-1.3553877
-1.4201351	I T H O	-1.50515
-1.0893128	A T H O	-1.3553877
-0.88882875	T H H O	-1.3290588
-0.88882875	B Y H O	-1.3290588
-1.2715931	N B Y O	-0.8764378
-1.2715931	E B Y O	-1.1719353
-1.2715931	D B Y O	-0.9282007
-0.88389254	I N Y O	-1.3553877
-0.88389254	A T Y O	-1.3553877
-0.88389254	T H Y O	-1.3290588
-0.88389254	B Y Y O	-1.3290588
-0.8929632	I N P O	-1.3553877
-0.8929632	A T P O	-1.3553877
-0.8780685	T H P O	-1.3290588
-0.8780685	B Y P O	-1.3290588
-0.87036693	I N L O	-1.3290588
-0.87036693	A T L O	-1.3290588
-0.87036693	T H L O	-1.3553877
-0.87036693	B Y L O	-1.3553877
-0.91318196	I N A O	-1.3802112
-0.9010069	A T A O	-1.3424227
-0.88583857	T H A O	-1.3424227
-0.88583857	B Y A O	-1.30103
-0.9134269	I N S O	-1.3424227
-0.2591391	E N S O	-2.7533276
-0.26254427	U R S O	-2.7269988
-0.47147062	N E S O	-3.0543578
-0.23084527	E E S O	-2.7533276
-0.23084527	V E S O	-2.7533276
-0.6629442	H T S O	-2.7269988
-0.9134269	A T S O	-1.3802112
-1.0275242	T H S O	-1.30103
-0.9698926	B Y S O	-1.3424227
-0.26254427	I X S O	-2.7269988
-0.24482425	R O S O	-2.7269988
-0.24482425	W O S O	-2.7269988
-0.8614682	I N J O	-1.3290588
-0.8614682	A T J O	-1.3553877
-0.8614682	T H J O	-1.3290588
-0.8614682	B Y J O	-1.3553877
-0.87145686	I N X O	-1.3424227
-0.87145686	A T X O	-1.30103
-0.87145686	T H X O	-1.3802112
-0.87145686	B Y X O	-1.3424227
-0.8647934	I N C O	-1.3424227
-0.8647934	A T C O	-1.3802112
-0.8647934	T H C O	-1.30103
-0.8647934	B Y C O	-1.3424227
-0.86792	I N V O	-1.3553877
-0.86792	A T V O	-1.3290588
-0.86792	T H V O	-1.3553877
-0.86792	B Y V O	-1.3290588
-0.9995861	I N O O	-1.3424227
-0.95727575	A T O O	-1.30103
-0.9775711	T H O O	-1.3802112
